svm_type c_svc
kernel_type linear
nr_class 2
total_sv 10
rho -0.081454599214855691
label 1 6
probA -3.4627622424039579
probB -0.019985628893529606
nr_sv 6 4
SV
0.0082104500365343166 1:0.10875496 2:0.066255555 3:0.18502527 4:0.27679989 5:0.20690317 6:0.013234557 7:0.029169625 8:0.02015396 9:0.080920249 10:0.15571447 11:0.05650359 12:0.17825006 13:0.23517433 14:0.27679989 15:0.076892957 16:0.11787909 17:0.05383914 18:0.14359947 19:0.013430586 20:0.01630496 21:0.27679989 22:0.27679989 23:0.27679989 24:0.044739336 25:0.024767919 26:0.022967629 27:0.023045288 28:0.20858085 29:0.019042265 30:0.27679989 31:0.27679989 32:0.27679989 33:0.12216748 34:0.079574764 35:0.087393083 36:0.21981186 37:0.071039915 38:0.0063728946 39:0.083478145 40:0.075108923 41:0.38056108 42:0.078615248 43:0.097183868 44:0.035547979 45:0.080387972 46:0.020110553 47:0 48:0.0006870986 49:0.00055145868 50:0.0076596481 51:0.0033268826 52:0.001684963 53:0.0010260821 54:0.020545043 55:0.38056108 56:0.0070166914 57:0.21584927 58:0.14972208 59:0.38056108 60:0.084394492 61:0.058864299 62:0.074869066 63:0.38056108 64:0.38056108 65:0 66:0.0015451878 67:0.0010256808 68:0.0038672267 69:0.0029489133 70:0.0022466169 71:0.0025820897 72:0.38056108 73:0.026696656 74:0.00018099113 75:0 76:0 77:0 78:0 79:0 80:0.00012708966 81:0.027161567 82:0.020520465 83:0.0010859463 84:0 85:0.0016260025 86:0.0014227558 87:0 88:0.0011736255 89:0.00352477 90:0.023309922 91:0.47217479 92:0.00045247792 93:0 94:0 95:0 96:0.0011780871 97:0.000665189 98:0.0050954837 99:0.47217479 100:0.47217479 101:0.0027148665 102:0 103:0.0085049588 104:0.12605825 105:0.1262584 106:0.12162384 107:0.23306876 108:0.47217479 109:0.011845972 110:0.0017762739 111:0.19093795 112:0.28671411 113:0.28671411 114:0.045235544 115:0.029263785 116:0.033144753 117:0.04586621 118:0.28671411 119:0.004683712 120:0.13417956 121:0.17891009 122:0.26598257 123:0.103332 124:0.082810663 125:0.11381443 126:0.28671411 127:0.13584837 128:0.0020118707 129:0.048270065 130:0.28671411 131:0.28671411 132:0.2763561 133:0.13685173 134:0.031105807 135:0.1458945 136:0.28671411 137:0.060975976 138:0.02569673 139:0.022629522 140:0.035604201 141:0.019826243 142:0.021145476 143:0.019439019 144:0.28671411 145:0.34651572 146:0.0038134404 147:0.0370791 148:0.024274981 149:0.041655485 150:0.02338665 151:0.022804787 152:0.037711594 153:0.34651572 154:0.34651572 155:0.002616337 156:0.00021904273 157:0.00012759592 158:0.00015315144 159:8.7910797e-05 160:0.00019042823 161:0.00099899864 162:0.34651572 163:0.34651572 164:0.18550251 165:0.064748265 166:0.00020515319 167:0.0023250212 168:0.0010963397 169:0.0029370596 170:0.0044565359 171:0.30650967 172:0.34651572 173:0.12520908 174:0.039353721 175:0 176:0.00016624974 177:0 178:0 179:0.0014577049 180:0.34651572 181:0.30083403 182:0.0020327722 183:0.0001833425 184:0.0012550926 185:0.0037115151 186:0.002877471 187:0.0010789745 188:0.0062602051 189:0.30083403 190:0.30083403 191:0.0020474861 192:0.0011000546 193:0.039518531 194:0.30083403 195:0.11502683 196:0.085719451 197:0.11393774 198:0.30083403 199:0.30083403 200:0.011382814 201:0.0012982764 202:0.0044778991 203:0.0066753086 204:0.0028421718 205:0.00087712787 206:0.0059929965 207:0.30083403 208:0.30083403 209:0.086223289 210:0.092640631 211:0.18368402 212:0.30083403 213:0.070104636 214:0.032273684 215:0.028864058 216:0.30083403 217:0.31802008 218:0.00089398678 219:0.0082033211 220:0.065133706 221:0.12659332 222:0.31802008 223:0.23351486 224:0.07125479 225:0.31802008 226:0.31802008 227:0.11942191 228:0.041198324 229:0.0032840495 230:0.0055552348 231:0.017535351 232:0.017853612 233:0.013702312 234:0.31802008 235:0.28120878 236:5.9899998e-05 237:0 238:0 239:0.015413887 240:0.058144603 241:0.074337646 242:0.036502112 243:0.31585854 244:0.31802008 245:0.048097968 246:0.01411421 247:0 248:0.014290043 249:0.001877663 250:0.005456734 251:0.0059680203 252:0.31802008 253:0.31169882 254:0.31169882 255:0.13881886 256:0.0001026761 257:0.002005979 258:0.0024297906 259:0.00063457439 260:0.00075084378 261:0.31169882 262:0.31169882 263:0.26854533 264:0.091280133 265:0 266:0.00073000113 267:0.0024995769 268:0.00056386093 269:0.00062506838 270:0.31169882 271:0.31169882 272:0.17569701 273:0.056156848 274:0 275:0.043916546 276:0.0045591067 277:0.00065926666 278:0.00050431187 279:0.25500453 280:0.31169882 281:0.12664211 282:0.04165535 283:0 284:0.033029459 285:0.0056350357 286:0.0011095233 287:0.00072777318 288:0.31169882 289:0.31880039 290:0.017650312 291:0.001838253 292:0.002166447 293:0.0019310771 294:0.00061781745 295:0.00012720302 296:0.0013571221 297:0.31880039 298:0.31880039 299:0.15073606 300:0.12061967 301:0.14767471 302:0.2840091 303:0.0071260636 304:0.00019381447 305:0.0090207541 306:0.31880039 307:0.31880039 308:0.007730661 309:0.000930799 310:0 311:0.0030499413 312:0.00071307266 313:0.00062096369 314:0.00048902025 315:0.31880039 316:0.31880039 317:0.067975648 318:0.023920828 319:0.012347359 320:0.19511467 321:0.0043207747 322:0.0016533332 323:0.0063452045 324:0.31880039 
0.057940351240932497 1:0.026610497 2:0.050663557 3:0.25018552 4:0.23515299 5:0.2957617 6:0.012223875 7:0.013698623 8:0.0029686966 9:0.012842585 10:0.059442241 11:0.086906604 12:0.22536235 13:0.21404767 14:0.36474821 15:0.074448735 16:0.069702663 17:0.010692606 18:0.04830939 19:0.0010477952 20:0.0070659947 21:0.26169404 22:0.34534821 23:0.36474821 24:0.046071876 25:0.0018089929 26:0.00093129621 27:0.001711301 28:0.021004558 29:0.0046613836 30:0.12410572 31:0.21614169 32:0.36474821 33:0.1072851 34:0.032625973 35:0.023930881 36:0.043384634 37:0.044166856 38:0.048350852 39:0.050040983 40:0.082719721 41:0.4359667 42:0.13458142 43:0.089882843 44:0.013434547 45:0.053688992 46:0.0085166786 47:0.00052114361 48:0.00034097061 49:0.0016551891 50:0.034731489 51:0.0042303354 52:0.0038414346 53:0.0030779229 54:0.0098607689 55:0.22808221 56:0.0035247838 57:0.0087097688 58:0.090043731 59:0.4359667 60:0.15584655 61:0.063571431 62:0.073282152 63:0.30900761 64:0.4359667 65:0.0043805349 66:0.0024933135 67:0.0041344306 68:0.035459708 69:0.0032188627 70:0.0013141944 71:0.018748078 72:0.4359667 73:0.02098613 74:0.0017260837 75:0.00010022431 76:0.0010097694 77:0.0033779766 78:7.1493938e-05 79:0.00038441992 80:0.0010624422 81:0.022404574 82:0.020346822 83:0.0046261316 84:0.0010115121 85:0.0060586138 86:0.0016788914 87:0.0032709751 88:0.0026276396 89:0.0014788248 90:0.020492796 91:0.413661 92:0.1597943 93:0.0053147227 94:0.0025244239 95:0.0019030779 96:0.00042896342 97:0.0023065186 98:0.012105017 99:0.413661 100:0.413661 101:0.413661 102:0.017840087 103:0.015146537 104:0.011027587 105:0.052307952 106:0.1933299 107:0.26815921 108:0.413661 109:0.0021640738 110:0.0023443534 111:0.3258028 112:0.33453879 113:0.33453879 114:0.051885709 115:0.0084754359 116:0.00075207418 117:0.0038950271 118:0.12569262 119:0.0023449101 120:0.086973682 121:0.14406221 122:0.33453879 123:0.17926207 124:0.13706931 125:0.097893842 126:0.24116409 127:0.011404147 128:0.0021986451 129:0.21572031 130:0.33453879 131:0.33453879 132:0.10293749 133:0.043080624 134:0.0028447206 135:0.012334369 136:0.12137574 137:0.0031449411 138:0.022953102 139:0.060076565 140:0.17270111 141:0.060029518 142:0.081000134 143:0.058897141 144:0.2091192 145:0.32785457 146:0.0014885925 147:0.00086854212 148:0.021989154 149:0.32785457 150:0.092614271 151:0.08854083 152:0.085356064 153:0.32785457 154:0.32785457 155:0.0017449745 156:0.00080961059 157:0.00075342687 158:0.0055479351 159:0.00095345097 160:0.00015203744 161:0.0064310683 162:0.32785457 163:0.32664025 164:0.00060416723 165:0.00015585912 166:0.00051921688 167:0.033488572 168:0.025357783 169:0.043723993 170:0.045057066 171:0.32785457 172:0.32785457 173:0.011412553 174:0.0038095769 175:0.00036890656 176:0.0015408588 177:0 178:0.00031908491 179:0.00068354799 180:0.32785457 181:0.29685184 182:0.075643629 183:0.0018323851 184:0.0010235555 185:0.00045606925 186:0.00056762662 187:0.00029822192 188:0.0014778551 189:0.29685184 190:0.29685184 191:0.29685184 192:0.0061459895 193:0.010263268 194:0.094485804 195:0.063223764 196:0.10270383 197:0.13748494 198:0.29685184 199:0.29685184 200:0.063991085 201:0.0073744794 202:0.004664355 203:0.0039123655 204:0.0027549814 205:0.0016963856 206:0.0058063189 207:0.29685184 208:0.29685184 209:0.19745217 210:0.040846396 211:0.053398572 212:0.29685184 213:0.086405076 214:0.061820108 215:0.092471577 216:0.29685184 217:0.15864497 218:0.0008013536 219:0.054563742 220:0.20054631 221:0.28493544 222:0.21202374 223:0.25458422 224:0.093166478 225:0.19880952 226:0.30955467 227:0.0014682357 228:0.0040783295 229:0.014318132 230:0.031276647 231:0.011580513 232:0.030655997 233:0.02942884 234:0.30955467 235:0.30955467 236:0.0020506196 237:0.00091958477 238:0.0012221024 239:0.060628157 240:0.11258776 241:0.26144475 242:0.15471427 243:0.30955467 244:0.30955467 245:0.0014483578 246:0.0010111645 247:0.00027910512 248:0.0041044909 249:0.004700386 250:0.028448541 251:0.04237115 252:0.30955467 253:0.3439168 254:0.00032090538 255:0.00034827832 256:2.5060581e-05 257:0.0038839236 258:0.00026276615 259:0.00053607696 260:0.00014707209 261:0.3439168 262:0.3439168 263:0.1302209 264:0.042852826 265:0.0013340656 266:0.0015192494 267:0 268:0.00040265414 269:0.00071200432 270:0.3439168 271:0.3439168 272:0.0026568745 273:0.00070072617 274:1.0024232e-05 275:0.0040848143 276:0 277:0.00050368218 278:0.001693878 279:0.3439168 280:0.3439168 281:0.16976206 282:0.050933644 283:0.003163276 284:0.0049927905 285:0.00057662226 286:0.0010205862 287:0.0065093082 288:0.3439168 289:0.2702007 290:0.26623076 291:0.087173164 292:0.0068089347 293:0.0030745689 294:0.0012010378 295:0.0017806115 296:0.0059270994 297:0.26385427 298:0.2702007 299:0.20230815 300:0.1125017 301:0.054961711 302:0.2702007 303:0.032416634 304:0.017803319 305:0.031939194 306:0.2702007 307:0.2702007 308:0.2702007 309:0.10726947 310:0.013160667 311:0.0040236176 312:0.0014525685 313:0.0007200425 314:0.0096212476 315:0.2702007 316:0.2702007 317:0.19936083 318:0.073872246 319:0.026816357 320:0.2702007 321:0.024074834 322:0.010258235 323:0.040398389 324:0.2702007 
0.10104528546546988 1:0.022260875 2:0.023293523 3:0.10365024 4:0.19027729 5:0.10027117 6:0.0014990113 7:0.0004344513 8:0.0016018632 9:0.029013094 10:0.09857773 11:0.075990126 12:0.25327915 13:0.32462862 14:0.21377832 15:0.079231121 16:0.19148871 17:0.1220995 18:0.15915756 19:0.0079492657 20:0.0084685236 21:0.21564446 22:0.32462862 23:0.29088518 24:0.010015914 25:0.00035979299 26:0.0015568571 27:0.0066471384 28:0.067539394 29:0.032131363 30:0.32462862 31:0.32462862 32:0.32462862 33:0.15704899 34:0.1637034 35:0.078152627 36:0.088642731 37:0.06718833 38:0.041407939 39:0.16352813 40:0.23824662 41:0.25873157 42:0.18840973 43:0.27059788 44:0.15842175 45:0.11733379 46:0.0020073152 47:0.00045476609 48:0.0095318435 49:0.016833153 50:0.060196776 51:0.044795331 52:0.021060038 53:0.0048849066 54:0.0046374761 55:0.22181088 56:0.021027943 57:0.27059788 58:0.27059788 59:0.27059788 60:0.24998318 61:0.26542288 62:0.19654687 63:0.27059788 64:0.19957562 65:0.0006307282 66:0.025580389 67:0.049717169 68:0.088072121 69:0.037857343 70:0.045539107 71:0.21210328 72:0.27059788 73:0.0069799684 74:7.0911592e-05 75:0.0022703002 76:0.00095011893 77:0.0081995577 78:0.0052226344 79:0.0010706485 80:0.0037101104 81:0.0095347492 82:0.0067908522 83:0 84:0 85:0 86:0.00057738076 87:0 88:0.00095015136 89:0.00031752471 90:0.0067908522 91:0.45933348 92:0.00042546936 93:0.0054009957 94:0.0019056036 95:0.0089686029 96:0.00867627 97:0.039256413 98:0.33456692 99:0.45933348 100:0.45933348 101:0.0079642711 102:0.032602973 103:0 104:0.043747541 105:0.036278877 106:0.008483367 107:0.1817174 108:0.45933348 109:0.0053106048 110:0.0014900506 111:0.19617948 112:0.29546848 113:0.27978739 114:0.017023409 115:0.0015750978 116:0.00041029407 117:0.0015393097 118:0.11417718 119:0.0004412276 120:0.19662672 121:0.29546848 122:0.29546848 123:0.13796015 124:0.078982279 125:0.084576026 126:0.13459535 127:0.13985384 128:0.0026877776 129:0.081010841 130:0.29546848 131:0.29546848 132:0.16954708 133:0.0653027 134:0.066336565 135:0.14478771 136:0.29546848 137:0.0029472325 138:0.052486774 139:0.1655582 140:0.19046105 141:0.083646715 142:0.055835273 143:0.074417561 144:0.29546848 145:0.24779138 146:0.00081488641 147:0.049926423 148:0.11021317 149:0.17594042 150:0.082726419 151:0.091703996 152:0.20068112 153:0.29953417 154:0.29953417 155:0.0020137089 156:0.0055357669 157:0.0089417649 158:0.0124724 159:0.001249811 160:0.053855006 161:0.29953417 162:0.29953417 163:0.29953417 164:0.0022659278 165:0.0018328929 166:0.0058532376 167:0.0079669608 168:0.016304076 169:0.034486171 170:0.12955569 171:0.29953417 172:0.29953417 173:0.0060652327 174:0.003891458 175:0.0016335614 176:0.0051108822 177:0.0012010776 178:0.073470823 179:0.29953417 180:0.29953417 181:0.31250179 182:0.00056237861 183:0.0004656497 184:0.00038314643 185:0.0025142937 186:0.001178698 187:0.012228858 188:0.10009807 189:0.31250179 190:0.31250179 191:0.0022302207 192:0.011885715 193:0.022655308 194:0.13948663 195:0.065838628 196:0.045973081 197:0.096656576 198:0.31250179 199:0.31250179 200:0.0074517736 201:0.004069116 202:0.0013947958 203:0.015929634 204:0.0056868186 205:0.031213678 206:0.15358022 207:0.31250179 208:0.31250179 209:0.041247614 210:0.063262634 211:0.13552782 212:0.31250179 213:0.10772974 214:0.060819011 215:0.087060548 216:0.31250179 217:0.34736416 218:0.0047285431 219:0.0040990626 220:0.046982501 221:0.36921817 222:0.25070563 223:0.14280872 224:0.14491779 225:0.36921817 226:0.36921817 227:0.0047736373 228:0.0030475087 229:0.019119937 230:0.11663533 231:0.07712882 232:0.066334888 233:0.084079757 234:0.36921817 235:0.092129052 236:0.0036717125 237:0 238:0 239:0.0086280266 240:0.010915562 241:0.022567686 242:0.023462737 243:0.13292842 244:0.27537867 245:0.0030128218 246:0.0033922305 247:0.0010058489 248:0.011650107 249:0.0024902241 250:0.0074605234 251:0.011148124 252:0.29806775 253:0.34714052 254:0.0021735022 255:0.00066646846 256:0.00064400479 257:0.0014981925 258:6.7513116e-05 259:0.012236747 260:0.091463953 261:0.34714052 262:0.34714052 263:0.0036040035 264:0.0021898968 265:0.00082619698 266:0.0043919776 267:0.0013669634 268:0.097714722 269:0.34714052 270:0.34714052 271:0.21233764 272:0.016984502 273:0.0110515 274:0.0031364101 275:0.033064894 276:0 277:0.005294193 278:0.036220856 279:0.21194471 280:0.34714052 281:0.021386247 282:0.0085650915 283:0.0045723431 284:0.036123473 285:0 286:0.030414017 287:0.19807017 288:0.34714052 289:0.29762393 290:0.0094126388 291:0.0043480541 292:0.00092597882 293:0.0090786535 294:0.0033377679 295:0.038653817 296:0.19858257 297:0.29762393 298:0.29762393 299:0.095473148 300:0.12525749 301:0.1606876 302:0.29762393 303:0.032087099 304:0.0094540911 305:0.0065099611 306:0.29762393 307:0.29762393 308:0.0047436892 309:0.0008261138 310:0.0019596354 311:0.0048560468 312:0 313:0.010403536 314:0.07297159 315:0.29762393 316:0.29762393 317:0.062857047 318:0.064760275 319:0.067556486 320:0.29762393 321:0.0082634753 322:0 323:0.0069054589 324:0.29762393 
0.014120278677373839 1:0.1083964 2:0.071217448 3:0.18581136 4:0.039023217 5:0.021245316 6:0.0065149032 7:0.013851619 8:0.015154791 9:0.037709866 10:0.22323073 11:0.091131426 12:0.17920925 13:0.02124521 14:0.019059893 15:0.025298813 16:0.26342693 17:0.14358202 18:0.12934658 19:0.10672863 20:0.14601758 21:0.30143067 22:0.30143067 23:0.16782346 24:0.031986993 25:0.032748334 26:0.029358592 27:0.031249972 28:0.22350816 29:0.20285144 30:0.30143067 31:0.30143067 32:0.21518947 33:0.13352695 34:0.30143067 35:0.24331887 36:0.09886726 37:0.12239867 38:0.029347524 39:0.038023397 40:0.0074653882 41:0.018530903 42:0.08688727 43:0.333078 44:0.19658539 45:0.11250463 46:0.0022227087 47:0.00011771328 48:0.0011903783 49:0.0037180043 50:0.0053842342 51:0.02715621 52:0.030108254 53:0.01149874 54:0.0045640194 55:0.16370228 56:0.11226615 57:0.333078 58:0.333078 59:0.333078 60:0.333078 61:0.333078 62:0.333078 63:0.12583452 64:0.10919616 65:0.012907211 66:0.058356281 67:0.065606765 68:0.15958987 69:0.13424475 70:0.08391045 71:0.052809365 72:0.11550744 73:0 74:0 75:0.00041029134 76:0.00083924428 77:0.0069882232 78:0.0048346049 79:0.005546839 80:0.0099055134 81:0.0010302404 82:0.00023749014 83:0 84:0 85:0 86:0 87:0 88:0 89:0 90:0.00023749014 91:0.49424061 92:0.016719734 93:0.0091916369 94:0.0050354637 95:0.052322548 96:0.014556777 97:0.023650264 98:0.11418059 99:0.49424061 100:0.49424061 101:0 102:0 103:0 104:0.028804448 105:0 106:0 107:0 108:0.49424061 109:0.010794592 110:0.051833298 111:0.27688083 112:0.27688083 113:0.2193096 114:0.036502209 115:0.014458094 116:0.010392552 117:0.0044433172 118:0.074715272 119:0.069889016 120:0.27688083 121:0.27688083 122:0.27688083 123:0.16235496 124:0.22332856 125:0.11431096 126:0.10907836 127:0.036589615 128:0.042656485 129:0.27688083 130:0.27688083 131:0.27688083 132:0.077792212 133:0.016397029 134:0.044864867 135:0.055788875 136:0.22435726 137:0.033506252 138:0.100964 139:0.098599069 140:0.14772071 141:0.11818987 142:0.095877089 143:0.10985981 144:0.27688083 145:0.23393592 146:0.033175629 147:0.25992537 148:0.17154415 149:0.18725036 150:0.13147065 151:0.16796072 152:0.090896763 153:0.28037789 154:0.32868034 155:0.0051003075 156:0.030782461 157:0.021126559 158:0.0408886 159:0.023392722 160:0.012743026 161:0.014879446 162:0.32868034 163:0.32868034 164:0.0097735291 165:0.064416163 166:0.035800733 167:0.056005895 168:0.060238246 169:0.065915763 170:0.086638898 171:0.32868034 172:0.32868034 173:0.00086523802 174:0.0075706965 175:0.0021290642 176:0.00052779639 177:0.00076705759 178:0.0027338683 179:0.0068733441 180:0.32868034 181:0.35292652 182:0.00062442909 183:0.00030518169 184:8.0321435e-05 185:0.0014457352 186:0.00043847095 187:0.00052323344 188:0.002688969 189:0.35292652 190:0.35292652 191:0 192:0 193:0 194:0.0014407483 195:0 196:0 197:0 198:0.35292652 199:0.35292652 200:6.344002e-05 201:4.4528424e-05 202:0 203:0.00016026427 204:6.7613313e-05 205:1.6726404e-05 206:0 207:0.35292652 208:0.35292652 209:0.00054215133 210:0.0013707373 211:0.00052596955 212:0.00024012469 213:0 214:8.5353706e-05 215:0.0013724647 216:0.35292652 217:0.20888312 218:0.13309084 219:0.094073102 220:0.056905262 221:0.27465492 222:0.13452837 223:0.10541127 224:0.2633886 225:0.26277962 226:0.27465492 227:0.20459776 228:0.063407399 229:0.0068926066 230:0.012171407 231:0.011700192 232:0.050695423 233:0.072013959 234:0.27465492 235:0.24990758 236:0.15955769 237:0.062217686 238:0.016495371 239:0.06092624 240:0.060534555 241:0.12523118 242:0.27113128 243:0.24886554 244:0.27465492 245:0.24458306 246:0.08774849 247:0.0042199804 248:0.010267689 249:0.00025547403 250:0.047665011 251:0.067550316 252:0.27465492 253:0.35233325 254:0.033363804 255:0.0093741715 256:0.0014592514 257:0.0034065978 258:0.0041895215 259:0.0083045159 260:0.014392388 261:0.35233325 262:0.35233325 263:0 264:0.000153078 265:7.0668139e-05 266:8.5249521e-05 267:0 268:0 269:0.0012958127 270:0.35233325 271:0.35233325 272:0.040600143 273:0.013172624 274:0.00031958241 275:0.0049484721 276:7.229909e-06 277:3.8875056e-05 278:0.0010054308 279:0.35233325 280:0.35233325 281:0.0022875909 282:0.00063745631 283:0.00010009352 284:0.0025966323 285:0 286:0 287:0 288:0.35233325 289:0.35156268 290:0 291:0 292:0 293:3.4748969e-05 294:0 295:0 296:0 297:0.35156268 298:0.35156268 299:0.00061108463 300:0.0010861258 301:0.0030175534 302:0.008094212 303:0.0033726422 304:0.00011976129 305:0.011585667 306:0.35156268 307:0.35156268 308:0.00033575832 309:1.3153614e-05 310:0 311:0.00060877786 312:0 313:0 314:0 315:0.35156268 316:0.35156268 317:6.9496076e-05 318:0 319:0.018575918 320:0.080563888 321:0.019885242 322:1.9960215e-05 323:0.016231447 324:0.35156268 
0.02979561985138441 1:0.12642512 2:0.033491313 3:0.083754942 4:0.06762442 5:0.097212978 6:0.00017185432 7:0.0013696175 8:0.0003262031 9:0.062124308 10:0.26451987 11:0.039568748 12:0.099527396 13:0.071666658 14:0.096021682 15:0.019714914 16:0.13686663 17:0.11798975 18:0.26451987 19:0.11586896 20:0.17483917 21:0.26451987 22:0.26451987 23:0.26451987 24:0.0089677488 25:0.0093377223 26:0.01250895 27:0.058399875 28:0.26451987 29:0.22007038 30:0.26451987 31:0.26451987 32:0.26451987 33:0.092121243 34:0.23291577 35:0.19462188 36:0.26451987 37:0.19132295 38:0.026154868 39:0.036930785 40:0.052878521 41:0.063714452 42:0.062035773 43:0.26805934 44:0.24299155 45:0.24879789 46:0.002375134 47:0.0035223323 48:0.0045092925 49:0.020434292 50:0.03800125 51:0.022599656 52:0.050566487 53:0.041745614 54:0.0066641928 55:0.26805934 56:0.25473967 57:0.26805934 58:0.26805934 59:0.26805934 60:0.20342034 61:0.26805934 62:0.26805934 63:0.26805934 64:0.19208063 65:0.053994771 66:0.057318792 67:0.1338034 68:0.15874492 69:0.061324902 70:0.09725295 71:0.072751276 72:0.18556693 73:0.0017301113 74:0 75:0 76:0.00024603747 77:0.0065229433 78:0.00056029513 79:0.00040742414 80:0.00098755001 81:0.0028965559 82:0.0040897778 83:0 84:0 85:0 86:0.0039927447 87:0 88:0 89:0 90:0.0040897778 91:0.35098386 92:0.17884783 93:0.14008191 94:0.0023757147 95:0.10662356 96:0.0099931154 97:0.026856083 98:0.048257861 99:0.35098386 100:0.35098386 101:0.35098386 102:0.35098386 103:0 104:0.13073559 105:0.0114565 106:0.2360611 107:0.34375694 108:0.35098386 109:0.010767831 110:0.15247604 111:0.26180065 112:0.26180065 113:0.26180065 114:0.02120948 115:0.0064263521 116:0.014847823 117:0.014164031 118:0.17956212 119:0.15965177 120:0.26180065 121:0.26180065 122:0.26180065 123:0.10714071 124:0.067011878 125:0.069103763 126:0.14467804 127:0.18903892 128:0.10375716 129:0.26180065 130:0.24501327 131:0.26180065 132:0.068872288 133:0.029193088 134:0.043772697 135:0.19391564 136:0.26180065 137:0.038160585 138:0.082916096 139:0.070052445 140:0.13349362 141:0.061266195 142:0.024015967 143:0.035573203 144:0.26180065 145:0.33096594 146:0.1004728 147:0.21348603 148:0.18361779 149:0.17937157 150:0.074540444 151:0.062478963 152:0.054214947 153:0.293006 154:0.33096594 155:0.015552313 156:0.017863013 157:0.036177095 158:0.036557082 159:0.0091541661 160:0.0093025211 161:0.012200844 162:0.33096594 163:0.33096594 164:0.018978579 165:0.035927072 166:0.032254834 167:0.045905106 168:0.034785066 169:0.015213204 170:0.01785838 171:0.33096594 172:0.33096594 173:0 174:0.00073826232 175:0.003674929 176:0.0029690352 177:0.00034201393 178:0 179:0.0020576534 180:0.33096594 181:0.32123747 182:0.076171771 183:0.070951916 184:0.00048127555 185:0.023264041 186:0.0025929706 187:0.013437786 188:0.016479457 189:0.32123747 190:0.32123747 191:0.19504972 192:0.18262199 193:0.0010606245 194:0.030305168 195:0.0042605787 196:0.12062314 197:0.12561306 198:0.32123747 199:0.32123747 200:0.051358931 201:0.05406034 202:0.0012037514 203:0.01068352 204:0.0013627324 205:0.011039358 206:0.010207866 207:0.32123747 208:0.32123747 209:0.12611672 210:0.14184709 211:0.0040614083 212:0.013977649 213:0.005328292 214:0.094717912 215:0.074850127 216:0.32123747 217:0.35055727 218:0.022826111 219:0.062912583 220:0.069692567 221:0.23933002 222:0.11079053 223:0.050233379 224:0.10235119 225:0.35055727 226:0.35055727 227:0.00035849822 228:0.0019195391 229:0.0053550568 230:0.010694684 231:0.00095142075 232:0.00050434977 233:0.006312293 234:0.35055727 235:0.2875253 236:0 237:0 238:0 239:0.014528052 240:0.026177011 241:0.0099223601 242:0.038887229 243:0.28618312 244:0.35055727 245:0 246:0 247:0 248:0 249:0 250:0 251:0 252:0.35055727 253:0.36115235 254:1.623563e-05 255:4.8583195e-05 256:0 257:0.0030806975 258:2.4378754e-05 259:2.7112967e-05 260:0.0021727642 261:0.36115235 262:0.36115235 263:0 264:0 265:0 266:0.00014764593 267:0 268:0 269:0 270:0.36115235 271:0.32694915 272:0 273:0 274:0 275:0 276:0 277:0 278:0 279:0.32694915 280:0.36115235 281:0 282:0 283:0 284:0 285:0 286:0 287:0 288:0.36115235 289:0.35999432 290:0.0010880586 291:0.00046787391 292:0.00053012022 293:0.0012454959 294:0.00015598441 295:0.0004845059 296:0.0005774856 297:0.35999432 298:0.35999432 299:0.0041889092 300:0.0025976268 301:0.0016726973 302:0.0015563006 303:0.0017096211 304:0.0021730065 305:0.0035702731 306:0.35999432 307:0.33073705 308:0 309:0 310:0 311:0 312:0 313:0 314:0 315:0.33073705 316:0.35999432 317:0 318:0 319:0 320:0 321:0 322:0 323:0 324:0.35999432 
0.12074819636126168 1:0.23022577 2:0.0026476313 3:0.0007113904 4:0 5:0.35005301 6:0.12166457 7:0.074634358 8:0.12232206 9:0.29440773 10:0.0041639367 11:0.00023787076 12:0.00028777786 13:0 14:0.066229738 15:0.018973179 16:0.00079937768 17:0.0065875752 18:0.0040576402 19:0.33856148 20:0.057189707 21:0.17824872 22:0.15933879 23:0.3745572 24:0.2678757 25:0.11374464 26:0.16067131 27:0.33592623 28:0.20146798 29:0.0004293595 30:0.0038410809 31:0.019718811 32:0.26837447 33:0.033810087 34:0.0038669831 35:0.016647365 36:0.20177861 37:0 38:0 39:0 40:0 41:0.0046138475 42:0.0011235948 43:0.0005286815 44:0.00017667652 45:0 46:0.0026927332 47:0 48:0 49:0 50:0.0032487069 51:0 52:0 53:0 54:0.0026927332 55:0.41458288 56:0.0019194126 57:0 58:0.0011671964 59:0.014860487 60:0.0019163773 61:0.0034634878 62:0.0042683585 63:0.41458288 64:0.41458288 65:0.41458288 66:0.32232788 67:0.14903389 68:0.10006879 69:0.002509505 70:0.0054359715 71:0 72:0.41458288 73:0.0038377943 74:0 75:0 76:0 77:0.0014701594 78:0 79:0 80:0 81:0.0038377943 82:0.0059744264 83:0 84:0 85:0 86:0.00076465314 87:0 88:0 89:0 90:0.0059744264 91:0.46816427 92:0.27480236 93:0.15882176 94:0.060869556 95:0.036827486 96:0.00049257278 97:0.001066988 98:0 99:0.46816427 100:0.46816427 101:0.04392983 102:0.017914869 103:0.0034724066 104:0.010930246 105:0.042847477 106:0.070084788 107:0.059796467 108:0.46816427 109:0.32124674 110:0.053719219 111:0.14074922 112:0.11765154 113:0.32124674 114:0.083305418 115:0.029175904 116:0.033450227 117:0.32124674 118:0.32124674 119:3.6873487e-05 120:0.0033369679 121:0.014099753 122:0.062866993 123:0.0051927366 124:0.0010883788 125:0.0077788685 126:0.32124674 127:0.32124674 128:0.047763634 129:0.059896927 130:0.034892693 131:0.059650488 132:0.037935637 133:0.01682849 134:0.01924742 135:0.32124674 136:0.32124674 137:0.057474084 138:0.043721233 139:0.009381583 140:0.015820742 141:0.0003796586 142:0 143:0.002297584 144:0.32124674 145:0.34323746 146:0.00022616406 147:0 148:0.00013753054 149:0.0007162877 150:0.00010522184 151:0.00033283129 152:0.00027520224 153:0.34323746 154:0.34323746 155:0.14598626 156:0.11722197 157:0.036985286 158:0.015934676 159:0.0010975201 160:0.0021851351 161:0.00082275248 162:0.34323746 163:0.34323746 164:0.013958544 165:0.010344558 166:0.0012668498 167:0.0021387695 168:3.4907636e-05 169:7.5615288e-05 170:0 171:0.34323746 172:0.34323746 173:0.093956023 174:0.087695286 175:0.021663077 176:0.0092961648 177:0.0016442102 178:0.002228657 179:0.0017914722 180:0.34323746 181:0.31558025 182:0.17911239 183:0.13122532 184:0.037164472 185:0.012736841 186:0.0010381074 187:0.0028873752 188:0.0014150176 189:0.31558025 190:0.31558025 191:0.029821325 192:0.01538304 193:0.0042855944 194:0.1114262 195:0.037677214 196:0.04619167 197:0.039288104 198:0.31558025 199:0.31558025 200:0.11383045 201:0.098562293 202:0.024490325 203:0.0070756278 204:0.0021039275 205:0.0044808425 206:0.0032740263 207:0.31558025 208:0.31558025 209:0.031086603 210:0.052969225 211:0.034530595 212:0.31558025 213:0.032712366 214:0.03030251 215:0.026564987 216:0.31558025 217:0.31856284 218:0.12037573 219:0.076507784 220:0.012279428 221:0.025442339 222:0.00048950536 223:0.00071063358 224:0.00296659 225:0.31856284 226:0.31856284 227:0.25545958 228:0.19186676 229:0.028405892 230:0.030877782 231:0.0029370305 232:0.0030717179 233:0.0016857423 234:0.31856284 235:0.31856284 236:0.083979905 237:0.052461352 238:0.010537719 239:0.011075345 240:0.00065267365 241:0.0013448722 242:0.0016595621 243:0.31856284 244:0.31856284 245:0.17782305 246:0.13160135 247:0.02542723 248:0.016296536 249:0.0039160405 250:0.0050890255 251:0.0040965453 252:0.31856284 253:0.36246964 254:0.063956402 255:0.048287075 256:0.0065449839 257:0.0046917177 258:0.0012484584 259:0.0011481621 260:0.00039119157 261:0.36246964 262:0.36246964 263:0.0026046613 264:0.00041497167 265:0.0014379048 266:0.0022590586 267:0.00043643429 268:0.00041094713 269:0.00050964317 270:0.36246964 271:0.32672739 272:0.045290459 273:0.033263024 274:0.0059942324 275:0.0029672279 276:0.0016646108 277:0.0017693462 278:0.00097797893 279:0.30266914 280:0.36246964 281:0 282:0 283:0 284:0 285:0 286:0 287:0 288:0.36246964 289:0.3443405 290:0.0039981934 291:0.00075682841 292:0.0019589278 293:0.0015913065 294:0.00059457566 295:0.001232986 296:0.0011207162 297:0.3443405 298:0.3443405 299:0.028454609 300:0.083449975 301:0.051306929 302:0.19175594 303:0.0024366358 304:0.0013303255 305:0.0016769163 306:0.3443405 307:0.3443405 308:0 309:0 310:0 311:0 312:0 313:0 314:0 315:0.3443405 316:0.3443405 317:0.01036361 318:0.023433695 319:0.0093334904 320:0.0063276058 321:0 322:0 323:0 324:0.3443405 
-0.093589507081195247 1:0.044950303 2:0.03554368 3:0.024853196 4:0.028140981 5:0.031922225 6:0.065638907 7:0.073257677 8:0.1513595 9:0.12164388 10:0.011181222 11:0.0015718761 12:0.001053275 13:0.0013088662 14:0.010264496 15:0.01706245 16:0.018809292 17:0.011955778 18:0.019461336 19:0.22139066 20:0.11203837 21:0.17843327 22:0.28455189 23:0.28455189 24:0.28455189 25:0.28455189 26:0.28455189 27:0.28455189 28:0.1865337 29:0.050996162 30:0.011024284 31:0.0085288761 32:0.050582454 33:0.28351101 34:0.28455189 35:0.28455189 36:0.28455189 37:0.010311566 38:0.006848874 39:0.013525527 40:0.043567877 41:0.14416605 42:0.020784413 43:0.025123339 44:0.0073900893 45:0.0055781831 46:0.26732779 47:0.26732779 48:0.26732779 49:0.26732779 50:0.26732779 51:0.13089101 52:0.22589083 53:0.16424969 54:0.26732779 55:0.083546579 56:0.055629916 57:0.056883309 58:0.052453347 59:0.083381437 60:0.049314864 61:0.061084945 62:0.043631107 63:0.12215918 64:0.26732779 65:0.14716634 66:0.23858188 67:0.18577361 68:0.26732779 69:0.17742096 70:0.16898388 71:0.12537199 72:0.26732779 73:0.22657251 74:0.20403638 75:0.22657251 76:0.14070596 77:0.2127233 78:0.097098753 79:0.22657251 80:0.21493669 81:0.22657251 82:0.11776382 83:0.070601016 84:0.1055268 85:0.11652208 86:0.22657251 87:0.11702593 88:0.22657251 89:0.17677686 90:0.15916033 91:0.20650011 92:0.093541004 93:0.12888671 94:0.16529535 95:0.22657251 96:0.1246644 97:0.11895292 98:0.099000454 99:0.21650496 100:0.11313619 101:0.069720328 102:0.089285165 103:0.16783433 104:0.22657251 105:0.13102637 106:0.16345574 107:0.13159053 108:0.1192034 109:0.066955 110:0.023361901 111:0.042666901 112:0.17830609 113:0.19287685 114:0.23026405 115:0.17877543 116:0.16016069 117:0.090087429 118:0.22115846 119:0.074346796 120:0.073980026 121:0.14946499 122:0.059427496 123:0.19989365 124:0.19218366 125:0.18906952 126:0.21098655 127:0.04990951 128:0.030246725 129:0.048039317 130:0.23335262 131:0.23335262 132:0.23335262 133:0.13486156 134:0.10153095 135:0.046094716 136:0.23335262 137:0.15886 138:0.18783624 139:0.23335262 140:0.23335262 141:0.23335262 142:0.17211562 143:0.13306892 144:0.1864893 145:0.2186341 146:0.15614212 147:0.17304112 148:0.12831295 149:0.049694706 150:0.14131512 151:0.10100265 152:0.14604427 153:0.19489175 154:0.10379212 155:0.23111418 156:0.23111418 157:0.22098716 158:0.18959472 159:0.10729845 160:0.095185988 161:0.052298766 162:0.1552043 163:0.23111418 164:0.23111418 165:0.23111418 166:0.20928369 167:0.176792 168:0.20855068 169:0.10206551 170:0.16521065 171:0.23111418 172:0.13035586 173:0.23111418 174:0.23111418 175:0.14611238 176:0.083615743 177:0.058093786 178:0.04102667 179:0.041081324 180:0.092456624 181:0.10446705 182:0.10168625 183:0.15013811 184:0.21820746 185:0.28799388 186:0.16183993 187:0.15875952 188:0.079137258 189:0.18650913 190:0.068968318 191:0.027330773 192:0.048540752 193:0.13194175 194:0.28799388 195:0.28799388 196:0.28799388 197:0.20671198 198:0.11590892 199:0.023486901 200:0.10420529 201:0.13663676 202:0.13518241 203:0.21914715 204:0.063748598 205:0.11030519 206:0.0082817823 207:0.019676214 208:0.052139882 209:0.060524818 210:0.038699459 211:0.15748815 212:0.28799388 213:0.28799388 214:0.28799388 215:0.046985582 216:0.057402655 217:0.056756932 218:0.023799704 219:0.059741192 220:0.20996958 221:0.25436693 222:0.24291974 223:0.10180104 224:0.077314079 225:0.046611249 226:0.21260975 227:0.10502572 228:0.1403428 229:0.25436693 230:0.25436693 231:0.25436693 232:0.13652296 233:0.13482586 234:0.18478762 235:0.062899694 236:0.0089068823 237:0.0405595 238:0.077201143 239:0.19836549 240:0.099190846 241:0.043548744 242:0.059880804 243:0.089476191 244:0.25436693 245:0.12246042 246:0.093975641 247:0.15527448 248:0.25436693 249:0.25436693 250:0.1304629 251:0.25436693 252:0.25436693 253:0.26661095 254:0.1628221 255:0.12462223 256:0.18975934 257:0.26661095 258:0.12479673 259:0.084933832 260:0.18400808 261:0.26661095 262:0.12796597 263:0.096776798 264:0.092757754 265:0.032313932 266:0.043785408 267:0.043792803 268:0.04061006 269:0.10704141 270:0.15036613 271:0.26661095 272:0.24093975 273:0.094543912 274:0.10515986 275:0.19175959 276:0.14399131 277:0.15550795 278:0.26661095 279:0.26661095 280:0.22324671 281:0.10708956 282:0.016022986 283:0.1000018 284:0.12241069 285:0.09128999 286:0.091055445 287:0.16497497 288:0.26661095 289:0.018326623 290:0.038235273 291:0.039076701 292:0.04574303 293:0.23347618 294:0.045195311 295:0.036456153 296:0.027613549 297:0.018040035 298:0.070316561 299:0.13238198 300:0.079810672 301:0.2657589 302:0.36179337 303:0.34616506 304:0.11100903 305:0.072130956 306:0.13361186 307:0.06945508 308:0.043318573 309:0.0078083584 310:0.05835044 311:0.27768862 312:0.081668876 313:0.044578232 314:0.054903891 315:0.046304911 316:0.18123306 317:0.18462273 318:0.076386407 319:0.19091305 320:0.36179337 321:0.2905947 322:0.071722791 323:0.14328964 324:0.30839172 
-0.025602180972817221 1:0.19053856 2:0.034409244 3:0.018209632 4:0.1197534 5:0.1551517 6:0.12020353 7:0.16460462 8:0.099598639 9:0.20497043 10:0.035078548 11:0.0019899672 12:0.00068247807 13:0.015735339 14:0.030360859 15:0.073390268 16:0.10525823 17:0.055903554 18:0.045388032 19:0.27256885 20:0.10844145 21:0.052231189 22:0.24769317 23:0.27256885 24:0.27256885 25:0.27256885 26:0.25532302 27:0.27256885 28:0.19976938 29:0.043759391 30:0.022924757 31:0.082677774 32:0.14078279 33:0.2412665 34:0.27256885 35:0.26354319 36:0.14160214 37:0.0063643116 38:0.0013998125 39:0.0020021738 40:0.0074810572 41:0.024327353 42:0.0020443564 43:0.014065589 44:0.0089400588 45:0.0069299056 46:0.078188077 47:0.1963436 48:0.10065441 49:0.38060105 50:0.38060105 51:0.19469747 52:0.00025191242 53:0.041448031 54:0.05168407 55:0.17716685 56:0.026549041 57:0.065157853 58:0.075695753 59:0.10005543 60:0.071800649 61:0.28515932 62:0.15151182 63:0.14214997 64:0.088127911 65:0.18696694 66:0.26736996 67:0.38060105 68:0.38060105 69:0.082502514 70:0.024981106 71:0.02011029 72:0.12204438 73:0.08332669 74:0.19731878 75:0.087754712 76:0.25585341 77:0.25585341 78:0.16466583 79:0.067077473 80:0.17412817 81:0.081108905 82:0.064482689 83:0.11151645 84:0.13065872 85:0.25585341 86:0.25585341 87:0.1917637 88:0.19169439 89:0.25585341 90:0.11458744 91:0.025712572 92:0.090804063 93:0.11830532 94:0.25585341 95:0.25585341 96:0.13249324 97:0.06457568 98:0.012063502 99:0.044449676 100:0.0078091663 101:0.032161497 102:0.1106111 103:0.15301818 104:0.25585341 105:0.25585341 106:0.25585341 107:0.1259772 108:0.03258305 109:0.11791209 110:0.072118849 111:0.029679738 112:0.16520649 113:0.27412441 114:0.18662784 115:0.21744475 116:0.090534352 117:0.09094955 118:0.27412441 119:0.071915261 120:0.074050188 121:0.13607083 122:0.27412441 123:0.1955971 124:0.27412441 125:0.23965682 126:0.14010715 127:0.062151633 128:0.03117585 129:0.017341379 130:0.11875959 131:0.27412441 132:0.11572671 133:0.032969456 134:0.022252962 135:0.073212579 136:0.27412441 137:0.094173603 138:0.090807371 139:0.20678149 140:0.27412441 141:0.22079442 142:0.078107983 143:0.14444284 144:0.075735852 145:0.23796646 146:0.10134821 147:0.1778924 148:0.10439547 149:0.18331094 150:0.14800079 151:0.23796646 152:0.19537196 153:0.17183815 154:0.16631982 155:0.23796646 156:0.23796646 157:0.23796646 158:0.20502892 159:0.074805625 160:0.058225036 161:0.0299259 162:0.063757882 163:0.23796646 164:0.15295927 165:0.18263985 166:0.16390951 167:0.23796646 168:0.22170404 169:0.11276937 170:0.14300832 171:0.1129249 172:0.22566435 173:0.21588649 174:0.21176083 175:0.065647043 176:0.060070116 177:0.080318727 178:0.04720623 179:0.024412826 180:0.057425462 181:0.080448337 182:0.20240845 183:0.24180947 184:0.29258269 185:0.27148059 186:0.12192115 187:0.093800247 188:0.0035876557 189:0.048946831 190:0.025840839 191:0.029225344 192:0.052394494 193:0.12211826 194:0.30146661 195:0.30146661 196:0.30146661 197:0.30146661 198:0.10448079 199:0.066154696 200:0.10370579 201:0.10633378 202:0.060581934 203:0.056260485 204:0.021603722 205:0.013031513 206:0.004691822 207:0.017745888 208:0.028911021 209:0.0098733315 210:0.026315439 211:0.1471215 212:0.30146661 213:0.30146661 214:0.15784077 215:0.21111274 216:0.057512466 217:0.08883886 218:0.013344551 219:0.026888665 220:0.078174934 221:0.28362644 222:0.21070772 223:0.038497481 224:0.035913527 225:0.14824454 226:0.18584834 227:0.051942024 228:0.081587136 229:0.26637778 230:0.28362644 231:0.28362644 232:0.13323079 233:0.17527083 234:0.28362644 235:0.050193079 236:0.0026359523 237:0.010122382 238:0.0096580982 239:0.1192246 240:0.1252588 241:0.037252016 242:0.026242087 243:0.10973415 244:0.28362644 245:0.075005107 246:0.086491115 247:0.13509645 248:0.1510053 249:0.28362644 250:0.25246677 251:0.14846516 252:0.28362644 253:0.22387549 254:0.071017839 255:0.12563065 256:0.19569957 257:0.22698732 258:0.22698732 259:0.10651162 260:0.16204979 261:0.22698732 262:0.14341643 263:0.067846052 264:0.10812394 265:0.040524002 266:0.1574692 267:0.075467758 268:0.071278147 269:0.052524071 270:0.13869041 271:0.22698732 272:0.13220032 273:0.21997805 274:0.14700563 275:0.16371387 276:0.22153367 277:0.19629073 278:0.15116353 279:0.22698732 280:0.22698732 281:0.10831329 282:0.22698732 283:0.067231774 284:0.22698732 285:0.094616853 286:0.18072447 287:0.092185877 288:0.22698732 289:0.073955178 290:0.038823124 291:0.046764642 292:0.0065201973 293:0.19577184 294:0.014400801 295:0.041325681 296:0.0087825321 297:0.091106214 298:0.12919228 299:0.063685812 300:0.043903355 301:0.16438732 302:0.38735107 303:0.2234486 304:0.067223877 305:0.14941768 306:0.10669821 307:0.14236976 308:0.06086975 309:0.15410881 310:0.013045928 311:0.38735107 312:0.034680277 313:0.12550958 314:0.031663734 315:0.18107377 316:0.34457788 317:0.085513905 318:0.13657209 319:0.072490022 320:0.38735107 321:0.068619587 322:0.067439102 323:0.15631324 324:0.26085091 
-0.16046486596052145 1:0.18035758 2:0.035990123 3:0.072935365 4:0.062581919 5:0.24930726 6:0.17685021 7:0.19641604 8:0.12234668 9:0.24930726 10:0.03381383 11:0.0061450345 12:0.00087565224 13:0.005673164 14:0.086473167 15:0.093681842 16:0.10526036 17:0.06039666 18:0.053539842 19:0.2487223 20:0.050228264 21:0.087042257 22:0.10761704 23:0.24930726 24:0.24930726 25:0.24930726 26:0.22134243 27:0.24930726 28:0.22407462 29:0.033835422 30:0.077196762 31:0.10187878 32:0.22470041 33:0.24930726 34:0.21951349 35:0.19602077 36:0.24930726 37:0.0050556283 38:0.0047684191 39:0.0032736277 40:0.032237746 41:0.13659355 42:0.028013734 43:0.0049605318 44:0.0028938961 45:0.0084226448 46:0.17377502 47:0.12487774 48:0.30985016 49:0.30985016 50:0.30985016 51:0.30985016 52:0.059356544 53:0.014098713 54:0.16982946 55:0.14244984 56:0.0062068566 57:0.029868471 58:0.09246663 59:0.25058565 60:0.12389797 61:0.078033857 62:0.1024673 63:0.22079077 64:0.17429903 65:0.10546242 66:0.1748675 67:0.30985016 68:0.30985016 69:0.22264479 70:0.051656775 71:0.044190168 72:0.1494431 73:0.16547744 74:0.068778373 75:0.23572735 76:0.23572735 77:0.23572735 78:0.22092246 79:0.12371162 80:0.055941105 81:0.23572735 82:0.1089989 83:0.02258894 84:0.18661445 85:0.23572735 86:0.23572735 87:0.19812435 88:0.12787758 89:0.10458201 90:0.23572735 91:0.10486422 92:0.080789752 93:0.12652569 94:0.23572735 95:0.23572735 96:0.17065965 97:0.074494436 98:0.082402579 99:0.091186456 100:0.071529567 101:0.076354869 102:0.086432561 103:0.16002698 104:0.20504229 105:0.20128676 106:0.15510325 107:0.19849256 108:0.10522386 109:0.10697979 110:0.03430938 111:0.071318619 112:0.1179323 113:0.25291803 114:0.1401964 115:0.086934194 116:0.071162842 117:0.1235152 118:0.25291803 119:0.13459644 120:0.23856759 121:0.25291803 122:0.25291803 123:0.12706672 124:0.10013951 125:0.12125073 126:0.25291803 127:0.097795203 128:0.05897624 129:0.10370988 130:0.16022673 131:0.25291803 132:0.10781935 133:0.058597568 134:0.032752097 135:0.0862507 136:0.21847324 137:0.25291803 138:0.25291803 139:0.25291803 140:0.25291803 141:0.10954478 142:0.1021663 143:0.06301713 144:0.12474413 145:0.25382492 146:0.13203071 147:0.20365609 148:0.25382492 149:0.25382492 150:0.12568875 151:0.13374737 152:0.19242702 153:0.25382492 154:0.14632627 155:0.035721678 156:0.05627802 157:0.12839745 158:0.25382492 159:0.10876811 160:0.055361774 161:0.085836336 162:0.13121863 163:0.25382492 164:0.25382492 165:0.25382492 166:0.25382492 167:0.25382492 168:0.063398995 169:0.091840051 170:0.12550887 171:0.24044701 172:0.080539562 173:0.022382267 174:0.059231658 175:0.07336574 176:0.15297361 177:0.026668958 178:0.024217144 179:0.0565366 180:0.10933193 181:0.16196218 182:0.069418035 183:0.063994475 184:0.18912221 185:0.27666846 186:0.20279305 187:0.14255957 188:0.20150591 189:0.12801637 190:0.15528558 191:0.15758476 192:0.027991612 193:0.17744835 194:0.27666846 195:0.27666846 196:0.27666846 197:0.27666846 198:0.23077136 199:0.037978005 200:0.0075834016 201:0.018636271 202:0.015203255 203:0.064900115 204:0.019844711 205:0.029545652 206:0.035112642 207:0.039592117 208:0.078822695 209:0.073221982 210:0.018373789 211:0.079195008 212:0.27666846 213:0.26342925 214:0.27666846 215:0.1327545 216:0.14842376 217:0.095763929 218:0.081722192 219:0.12092695 220:0.15603946 221:0.23178314 222:0.11936224 223:0.071508609 224:0.063200817 225:0.11129506 226:0.26844126 227:0.26844126 228:0.26844126 229:0.26844126 230:0.26844126 231:0.13026328 232:0.11615921 233:0.06535808 234:0.26844126 235:0.069202252 236:0.028752238 237:0.04243296 238:0.04772054 239:0.124235 240:0.058523949 241:0.026450766 242:0.026128449 243:0.07254371 244:0.26844126 245:0.19720413 246:0.13577718 247:0.22459097 248:0.26844126 249:0.11063169 250:0.11229831 251:0.044018894 252:0.26844126 253:0.27988064 254:0.27988064 255:0.23207396 256:0.27988064 257:0.27988064 258:0.051056392 259:0.11989475 260:0.061525941 261:0.27988064 262:0.063667864 263:0.022389069 264:0.044208534 265:0.10358549 266:0.14386939 267:0.019673282 268:0.037309863 269:0.024518065 270:0.080054328 271:0.27988064 272:0.27275351 273:0.19305731 274:0.27988064 275:0.27988064 276:0.058626801 277:0.11556615 278:0.036916699 279:0.27988064 280:0.045538694 281:0.039284226 282:0.071927711 283:0.11420394 284:0.12578145 285:0.012772127 286:0.027053637 287:0.008815866 288:0.049039073 289:0.012908229 290:0.0042975703 291:0.013451527 292:0.010200857 293:0.062148612 294:0.0075852387 295:0.0015639317 296:0.0023248135 297:0.010255516 298:0.14610769 299:0.069319524 300:0.087066643 301:0.08490257 302:0.36249018 303:0.21126902 304:0.1687582 305:0.10424304 306:0.14698516 307:0.021665623 308:0.011166387 309:0.046065424 310:0.032427788 311:0.18713342 312:0.022876114 313:0.0056276806 314:0.027429959 315:0.015675761 316:0.36249018 317:0.13602223 318:0.36249018 319:0.16337103 320:0.36249018 321:0.19679879 322:0.094654329 323:0.23480165 324:0.36249018 
-0.052203627618422711 1:0.13182673 2:0.046416476 3:0.024976682 4:0.072816812 5:0.10847399 6:0.081392273 7:0.23327707 8:0.29594663 9:0.078680314 10:0.014267584 11:0.0021021392 12:0.0022039781 13:0.00030503754 14:0.0065601515 15:0.035221044 16:0.16117293 17:0.13815339 18:0.020581584 19:0.17863666 20:0.090527147 21:0.083029956 22:0.15537794 23:0.29597619 24:0.24227847 25:0.29597619 26:0.29597619 27:0.051023919 28:0.19455978 29:0.074048303 30:0.039197274 31:0.067931861 32:0.1860812 33:0.23287685 34:0.29597619 35:0.29597619 36:0.22184677 37:0.0041598715 38:0.0022416401 39:0.0045614466 40:0.031391457 41:0.16813456 42:0.0039480277 43:0.017272841 44:0.008159996 45:0.0059533925 46:0.012157921 47:0.072117023 48:0.095256068 49:0.34067336 50:0.34067336 51:0.019436292 52:0.02857222 53:0.0087466892 54:0.0020627305 55:0.16336076 56:0.2196981 57:0.15843047 58:0.077638716 59:0.15638624 60:0.059296567 61:0.24027415 62:0.11623651 63:0.20454361 64:0.03402983 65:0.34067336 66:0.34067336 67:0.34067336 68:0.34067336 69:0.019365583 70:0.071210518 71:0.021795794 72:0.024912041 73:0.016063346 74:0.082000978 75:0.076411225 76:0.27837896 77:0.27837896 78:0.094100088 79:0.1424782 80:0.054898918 81:0.019803934 82:0.0083581731 83:0.028504746 84:0.023333676 85:0.17873298 86:0.27837896 87:0.14614297 88:0.2109805 89:0.08953166 90:0.025698584 91:0.0025494706 92:0.10971995 93:0.17692542 94:0.27837896 95:0.27837896 96:0.097586982 97:0.27837896 98:0.076119736 99:0.005750759 100:0.0039065341 101:0.0054727816 102:0.039337501 103:0.089098074 104:0.27837896 105:0.27837896 106:0.27837896 107:0.27837896 108:0.027192332 109:0.030082462 110:0.034308352 111:0.036476865 112:0.084958903 113:0.38488004 114:0.14087135 115:0.19787553 116:0.086339816 117:0.0076860096 118:0.19740695 119:0.070218436 120:0.086217128 121:0.10237385 122:0.38488004 123:0.18396358 124:0.3136465 125:0.14949204 126:0.17911257 127:0.0025539014 128:0.0046156393 129:0.0067593404 130:0.064673923 131:0.38488004 132:0.073880538 133:0.01784528 134:0.0025539782 135:0.003015236 136:0.09830372 137:0.019698309 138:0.077925049 139:0.12461261 140:0.38488004 141:0.13899504 142:0.05468842 143:0.056112789 144:0.10421599 145:0.25554281 146:0.25554281 147:0.25554281 148:0.069369778 149:0.16184528 150:0.062854409 151:0.21923362 152:0.12765986 153:0.23836938 154:0.1277664 155:0.25554281 156:0.25554281 157:0.22988851 158:0.13420938 159:0.0085254777 160:0.066613443 161:0.034870856 162:0.068376102 163:0.25554281 164:0.11417974 165:0.15844104 166:0.091685593 167:0.25554281 168:0.090882093 169:0.09646377 170:0.10627603 171:0.24065992 172:0.17762728 173:0.20002909 174:0.19377016 175:0.046842221 176:0.061719 177:0.0371705 178:0.086597964 179:0.054046802 180:0.16238517 181:0.014345562 182:0.21664475 183:0.31356815 184:0.22857255 185:0.18606566 186:0.1051445 187:0.21333963 188:0.053238403 189:0.0026638072 190:0.0040666806 191:0.0084339157 192:0.062312435 193:0.18251976 194:0.27992135 195:0.31356815 196:0.31356815 197:0.31356815 198:0.042862885 199:0.020362208 200:0.068214633 201:0.083778806 202:0.057294399 203:0.15129194 204:0.03902531 205:0.043249607 206:0.0093891276 207:0.020443225 208:0.0024929733 209:0.0037387162 210:0.06635879 211:0.31356815 212:0.31356815 213:0.17016426 214:0.13821878 215:0.036071435 216:0.0089021781 217:0.008090944 218:0.051209822 219:0.078209721 220:0.079309419 221:0.31006953 222:0.048818778 223:0.017205503 224:0.012834192 225:0.0038927719 226:0.073277682 227:0.095947996 228:0.13412789 229:0.13332193 230:0.31006953 231:0.10661634 232:0.081566207 233:0.1294937 234:0.13746321 235:0.083479941 236:0.31006953 237:0.31006953 238:0.16096069 239:0.31006953 240:0.08434657 241:0.043357514 242:0.067895085 243:0.035285916 244:0.14442281 245:0.31006953 246:0.31006953 247:0.19556569 248:0.20006137 249:0.042446535 250:0.076486997 251:0.12048551 252:0.18137607 253:0.16970748 254:0.11722025 255:0.117894 256:0.074770547 257:0.20861717 258:0.14185749 259:0.1515543 260:0.22118199 261:0.2390846 262:0.10321139 263:0.059441395 264:0.034236152 265:0.012986219 266:0.14850949 267:0.20096931 268:0.2390846 269:0.12108376 270:0.18460873 271:0.14158157 272:0.16772094 273:0.17391196 274:0.066625491 275:0.15481067 276:0.2390846 277:0.13653187 278:0.18242723 279:0.23817517 280:0.10354151 281:0.049404319 282:0.045112573 283:0.0066744694 284:0.2390846 285:0.2390846 286:0.2390846 287:0.20612372 288:0.2390846 289:0.01711886 290:0.0049825516 291:0.041472998 292:0.05447628 293:0.19856241 294:0.083888277 295:0.089891128 296:0.017511344 297:0.027969552 298:0.019537574 299:0.030861113 300:0.2134842 301:0.29871058 302:0.29871058 303:0.013020604 304:0.012591246 305:0.0011237415 306:0.0038867383 307:0.20606729 308:0.10147275 309:0.12464224 310:0.14440851 311:0.29157701 312:0.23559375 313:0.13834189 314:0.096810088 315:0.29871058 316:0.16378233 317:0.20620689 318:0.29871058 319:0.29871058 320:0.29871058 321:0.05104721 322:0.010334211 323:0.0085801203 324:0.15309928 
