svm_type c_svc
kernel_type linear
nr_class 3
total_sv 22
rho 0.17277762492642046 0.061611227336054619 -0.051471263278212144
label 2 4 5
probA -3.0479228822728652 -2.9993001195985829 -3.1337819705505447
probB 0.07078577013802155 -0.02396238285858732 -0.050218140082575406
nr_sv 6 8 8
SV
0.22304445647086973 0.05589994135388314 1:0.25242472 2:0.12220506 3:0.35682067 4:0 5:0.35682067 6:0 7:0 8:0 9:0.25242472 10:0.108488 11:0.025847714 12:0.077345923 13:0 14:0.35682067 15:0 16:0 17:0 18:0.108488 19:0.040406246 20:0.13375029 21:0.35682067 22:0 23:0.35682067 24:0 25:0.02133311 26:0.0071291695 27:0.040406246 28:0.016830163 29:0.06149286 30:0.18400937 31:0 32:0.35682067 33:0 34:0.0085332431 35:0.0028516673 36:0.016830163 37:0.0072447984 38:0.0022705472 39:0.0067943432 40:0 41:0.087802134 42:0 43:0 44:0 45:0.0072447984 46:0.11239409 47:0.15852232 48:0.38193804 49:0 50:0.38193804 51:0 52:0 53:0 54:0.11239409 55:0.018111996 56:0.069089882 57:0.20674329 58:0 59:0.30578411 60:0 61:0 62:0 63:0.018111996 64:0.23468187 65:0.32029769 66:0.38193804 67:0 68:0.38193804 69:0 70:0 71:0 72:0.23468187 73:0.18187377 74:0.28184813 75:0.32775056 76:0 77:0.32775056 78:0 79:0 80:0 81:0.18187377 82:0.22984807 83:0.18295972 84:0.32775056 85:0 86:0.24536344 87:0 88:0.030609598 89:0.010229217 90:0.22984807 91:0.17969766 92:0.18381092 93:0.32775056 94:0 95:0.32775056 96:0 97:0 98:0 99:0.17969766 100:0.049843334 101:0.022927627 102:0.068608209 103:0 104:0.071265422 105:0 106:0 107:0 108:0.049843334 109:0 110:0.089313291 111:0.26725841 112:0 113:0.35986018 114:0 115:0.10574509 116:0.035338242 117:0 118:0 119:0.044282027 120:0.13250825 121:0 122:0.35942417 123:0 124:0.04229803 125:0.014135295 126:0 127:0.025799148 128:0.060566388 129:0.18123712 130:0 131:0.35986018 132:0 133:0.35986018 134:0.14167105 135:0.025799148 136:0.087876193 137:0.10612028 138:0.31755206 139:0 140:0.34854355 141:0 142:0.22926565 143:0.076616757 144:0.087876193 145:0.0025069918 146:0.096097194 147:0.28755948 148:0 149:0.32174566 150:0 151:0 152:0 153:0.0025069918 154:0.051011652 155:0.18458763 156:0.33017591 157:0 158:0.33017591 159:0 160:0 161:0 162:0.051011652 163:0.033024177 164:0.213066 165:0.33017591 166:0 167:0.33017591 168:0 169:0.0053069843 170:0.0017735055 171:0.033024177 172:0.0068005314 173:0.24528994 174:0.33017591 175:0 176:0.33017591 177:0 178:0 179:0 180:0.0068005314 181:0.099560991 182:0.073241286 183:0.21916555 184:0 185:0.33311108 186:0 187:0.082491651 188:0.027567256 189:0.099560991 190:0.071803264 191:0.019414242 192:0.058094591 193:0 194:0.23870029 195:0 196:0.14573123 197:0.048700817 198:0.071803264 199:0.053539395 200:0.23329785 201:0.33311108 202:0 203:0.33311108 204:0 205:0.20873547 206:0.069755733 207:0.053539395 208:0.053852443 209:0.13900346 210:0.33311108 211:0 212:0.33311108 213:0 214:0.33311108 215:0.14743288 216:0.053852443 217:0.10510477 218:0.021220459 219:0.063499585 220:0 221:0.29255792 222:0 223:0.29255792 224:0.17579132 225:0.10510477 226:0.29255792 227:0.14464933 228:0.29255792 229:0 230:0.18639268 231:0 232:0.29255792 233:0.11207786 234:0.29255792 235:0.089791082 236:0.0017491298 237:0.0052340631 238:0 239:0.29255792 240:0 241:0.29255792 242:0.14144735 243:0.089791082 244:0.23778656 245:0.047988474 246:0.1435997 247:0 248:0.061499223 249:0 250:0.098087713 251:0.032779269 252:0.23778656 253:0.11469862 254:0.19036093 255:0.33657533 256:0 257:0.2120986 258:0 259:0.013042685 260:0.0043586469 261:0.11469862 262:0 263:0.24305618 264:0.33657533 265:0 266:0.33657533 267:0 268:0 269:0 270:0 271:0.11940429 272:0.12472673 273:0.33657533 274:0 275:0.20137936 276:0 277:0.005217073 278:0.0017434589 279:0.11940429 280:0.043359134 281:0.24844275 282:0.33657533 283:0 284:0.33657533 285:0 286:0 287:0 288:0.043359134 289:0 290:0.18519752 291:0.30512559 292:0 293:0.30512559 294:0 295:0.1126735 296:0.037653506 297:0 298:0.0016522971 299:0.11662079 300:0.30512559 301:0 302:0.30512559 303:0 304:0.27319294 305:0.091296293 306:0.0016522971 307:0.0020623563 308:0.10653326 309:0.30512559 310:0 311:0.30512559 312:0 313:0.1249591 314:0.041759145 315:0.0020623563 316:0.019344712 317:0.081911005 318:0.24510896 319:0 320:0.30512559 321:0 322:0.30512559 323:0.10439786 324:0.019344712 
0 0.10389567945972633 1:0.29407305 2:0.1513662 3:0.3503215 4:0 5:0.3503215 6:0 7:0 8:0 9:0.29407305 10:0.1073615 11:0.021838218 12:0.065348104 13:0 14:0.29751599 15:0 16:0 17:0 18:0.1073615 19:0.12722071 20:0.16784781 21:0.3503215 22:0 23:0.3503215 24:0 25:0 26:0 27:0.12722071 28:0.038905036 29:0.026740843 30:0.080018528 31:0 32:0.3503215 33:0 34:0 35:0 36:0.038905036 37:0 38:0.007146379 39:0.021384692 40:0 41:0.055559531 42:0 43:0 44:0 45:0 46:0.13438642 47:0.18112051 48:0.37858254 49:0 50:0.37858254 51:0 52:0 53:0 54:0.13438642 55:0 56:0.096846558 57:0.28980187 58:0 59:0.29660156 60:0 61:0 62:0 63:0 64:0.11344159 65:0.37858254 66:0.37858254 67:0 68:0.37858254 69:0 70:0 71:0 72:0.11344159 73:0.23032331 74:0.2828387 75:0.31111813 76:0 77:0.31111813 78:0 79:0 80:0 81:0.23032331 82:0.31111813 83:0.22368045 84:0.31111813 85:0 86:0.072470509 87:0 88:0.03163546 89:0.010572041 90:0.31111813 91:0.12233297 92:0.1936654 93:0.31111813 94:0 95:0.31111813 96:0 97:0 98:0 99:0.12233297 100:0.035305768 101:0.02183851 102:0.065349154 103:0 104:0.046470366 105:0 106:0 107:0 108:0.035305768 109:0.0069925049 110:0.12142124 111:0.36333725 112:0 113:0.37921131 114:0 115:0.05474912 116:0.018296242 117:0.0069925049 118:0 119:0.026186464 120:0.078359716 121:0 122:0.22908716 123:0 124:0.004862119 125:0.0016248389 126:0 127:0.020700453 128:0.048201486 129:0.14423667 130:0 131:0.37921131 132:0 133:0.37921131 134:0.20712009 135:0.020700453 136:0.049859475 137:0.11178952 138:0.33451691 139:0 140:0.37921131 141:0 142:0.11705732 143:0.039118607 144:0.049859475 145:0 146:0.099588215 147:0.29800591 148:0 149:0.33069095 150:0 151:0 152:0 153:0 154:0.022136139 155:0.18564174 156:0.33069095 157:0 158:0.33069095 159:0 160:0 161:0 162:0.022136139 163:0.0088579506 164:0.19593437 165:0.33069095 166:0 167:0.33069095 168:0 169:0 170:0 171:0.0088579506 172:0.029034069 173:0.23832524 174:0.33069095 175:0 176:0.33069095 177:0 178:0 179:0 180:0.029034069 181:0.13542034 182:0.094321921 183:0.28224665 184:0 185:0.28184056 186:0 187:0.06324102 188:0.021134039 189:0.13542034 190:0.12114003 191:0.02662687 192:0.07967744 193:0 194:0.1361127 195:0 196:0.15810256 197:0.052835103 198:0.12114003 199:0.17703094 200:0.20599297 201:0.37343004 202:0 203:0.37343004 204:0 205:0.11311412 206:0.037800752 207:0.17703094 208:0.15201895 209:0.056365766 210:0.16866723 211:0 212:0.37343004 213:0 214:0.2827853 215:0.094501883 216:0.15201895 217:0.15596406 218:0.0040620794 219:0.012155244 220:0 221:0.26519129 222:0 223:0.26519129 224:0.1715768 225:0.15596406 226:0.26519129 227:0.11818742 228:0.26519129 229:0 230:0.26519129 231:0 232:0.1776128 233:0.059355225 234:0.26519129 235:0.19567807 236:0 237:0 238:0 239:0.25043812 240:0 241:0.26519129 242:0.11706232 243:0.19567807 244:0.26519129 245:0.074232124 246:0.22213063 247:0 248:0.13549189 249:0 250:0.099060483 251:0.033104364 252:0.26519129 253:0.091975011 254:0.15114038 255:0.31181118 256:0 257:0.31181118 258:0 259:0 260:0 261:0.091975011 262:0.012539216 263:0.2152272 264:0.31181118 265:0 266:0.31181118 267:0 268:0 269:0 270:0.012539216 271:0.16892974 272:0.14107259 273:0.31181118 274:0 275:0.31181118 276:0 277:0 278:0 279:0.16892974 280:0.10366066 281:0.18495454 282:0.31181118 283:0 284:0.31181118 285:0 286:0 287:0 288:0.10366066 289:0.021440456 290:0.14801268 291:0.41175261 292:0 293:0.41175261 294:0 295:0.016776297 296:0.005606344 297:0.021440456 298:0.015587839 299:0.015386649 300:0.046042543 301:0 302:0.41175261 303:0 304:0.041940749 305:0.014015862 306:0.015587839 307:0.020308679 308:0.086751997 309:0.25959438 310:0 311:0.41175261 312:0 313:0 314:0 315:0.020308679 316:0 317:0.066866644 318:0.2000905 319:0 320:0.41175261 321:0 322:0 323:0 324:0 
0.27229858803698248 0 1:0.065065175 2:0.18137883 3:0.34980473 4:0 5:0.34980473 6:0 7:0.049970839 8:0.016699418 9:0.065065175 10:0.013840931 11:0.10184479 12:0.30475742 13:0 14:0.34980473 15:0 16:0.066627778 17:0.022265887 18:0.013840931 19:0 20:0.15506272 21:0.34980473 22:0 23:0.34980473 24:0 25:0.019649399 26:0.0065665012 27:0 28:0 29:0.09244702 30:0.27663568 31:0 32:0.34980473 33:0 34:0.007859759 35:0.0026266002 36:0 37:0 38:0.018423822 39:0.055130918 40:0 41:0.22640215 42:0 43:0.019390576 44:0.0064800065 45:0 46:0.10866049 47:0.17344032 48:0.4156518 49:0 50:0.14180389 51:0 52:0 53:0 54:0.10866049 55:0 56:0.10314797 57:0.30865797 58:0 59:0.23150761 60:0 61:0 62:0 63:0 64:0.090604112 65:0.4156518 66:0.4156518 67:0 68:0.4156518 69:0 70:0 71:0 72:0.090604112 73:0.22212225 74:0.20440839 75:0.29936597 76:0 77:0.18463525 78:0 79:0 80:0 81:0.22212225 82:0.29936597 83:0.21785016 84:0.29936597 85:0 86:0.24519058 87:0 88:0 89:0 90:0.29936597 91:0.15395691 92:0.25122687 93:0.29936597 94:0 95:0.29936597 96:0 97:0 98:0 99:0.15395691 100:0.10981511 101:0.061200645 102:0.18313569 103:0 104:0.072379582 105:0 106:0 107:0 108:0.10981511 109:0.0095133977 110:0.0431193 111:0.12902889 112:0 113:0.33725378 114:0 115:0.15593405 116:0.052110557 117:0.0095133977 118:0.023053944 119:0.028192429 120:0.084362291 121:0 122:0.29294521 123:0 124:0.06788297 125:0.022685355 126:0.023053944 127:0.13860917 128:0 129:0 130:0 131:0.33725378 132:0 133:0.30025473 134:0.10034011 135:0.13860917 136:0.30483893 137:0.090196803 138:0.26990324 139:0 140:0.29986179 141:0 142:0.33725378 143:0.11989974 144:0.30483893 145:0.012820349 146:0.1240405 147:0.31129223 148:0 149:0.24091581 150:0 151:0 152:0 153:0.012820349 154:0.014987513 155:0.23970373 156:0.31129223 157:0 158:0.31129223 159:0 160:0 161:0 162:0.014987513 163:0.18364699 164:0.20547411 165:0.31129223 166:0 167:0.31129223 168:0 169:0.087898165 170:0.0293741 171:0.18364699 172:0.064808913 173:0.24545027 174:0.31129223 175:0 176:0.31129223 177:0 178:0 179:0 180:0.064808913 181:0.074407578 182:0.11928542 183:0.35694689 184:0 185:0.21570851 186:0 187:0 188:0 189:0.074407578 190:0.1093623 191:0.053068131 192:0.1587995 193:0 194:0.23991843 195:0 196:0 197:0 198:0.1093623 199:0.1473441 200:0.24843121 201:0.35949844 202:0 203:0.35949844 204:0 205:0 206:0 207:0.1473441 208:0.15480287 209:0.1327689 210:0.35949844 211:0 212:0.35949844 213:0 214:0 215:0 216:0.15480287 217:0.13441205 218:0 219:0 220:0 221:0.26388109 222:0 223:0.25826752 224:0.086308569 225:0.13441205 226:0.26388109 227:0.066963449 228:0.20038015 229:0 230:0.087516136 231:0 232:0.25694817 233:0.08586777 234:0.26388109 235:0.23002107 236:0 237:0 238:0 239:0.11825063 240:0 241:0.26388109 242:0.24145401 243:0.23002107 244:0.26388109 245:0.10147849 246:0.26388109 247:0 248:0.023672841 249:0 250:0.26388109 251:0.12393814 252:0.26388109 253:0.18302192 254:0.11895046 255:0.29799375 256:0 257:0.14713748 258:0 259:0.066418812 260:0.022196053 261:0.18302192 262:0.089316465 263:0.25836837 264:0.29799375 265:0 266:0.29799375 267:0 268:0 269:0 270:0.089316465 271:0.22284721 272:0.20703098 273:0.29799375 274:0 275:0.18255107 276:0 277:0.056930438 278:0.019025153 279:0.22284721 280:0.16005208 281:0.21267803 282:0.29799375 283:0 284:0.29502243 285:0 286:0 287:0 288:0.16005208 289:0.043944184 290:0.19668493 291:0.39321524 292:0 293:0.39321524 294:0 295:0 296:0 297:0.043944184 298:0.026229974 299:0.089606673 300:0.26813695 301:0 302:0.39321524 303:0 304:0 305:0 306:0.026229974 307:0.018702071 308:0.080801971 309:0.24178964 310:0 311:0.39321524 312:0 313:0 314:0 315:0.018702071 316:0.011026749 317:0.057748694 318:0.1728061 319:0 320:0.39321524 321:0 322:0 323:0 324:0.011026749 
0.064830265462961237 0.036236315249809276 1:0.28264254 2:0.12679872 3:0.32848272 4:0 5:0.32848272 6:0 7:0.062416941 8:0.020858698 9:0.28264254 10:0.13150635 11:0.077833071 12:0.23290534 13:0 14:0.32848272 15:0 16:0.083222568 17:0.027811592 18:0.13150635 19:0.020024527 20:0.10964705 21:0.32810488 22:0 23:0.32848272 24:0 25:0.020782942 26:0.0069453027 27:0.020024527 28:0.0086222282 29:0.073051184 30:0.21859618 31:0 32:0.32848272 33:0 34:0.013870426 35:0.0046352651 36:0.0086222282 37:0.0079171192 38:0.019140149 39:0.057274476 40:0 41:0.12419129 42:0 43:0.019144056 44:0.006397624 45:0.0079171192 46:0.041709114 47:0.23710029 48:0.38327014 49:0 50:0.38327014 51:0 52:0 53:0 54:0.041709114 55:0 56:0.082330801 57:0.24636506 58:0 59:0.33895972 60:0 61:0.0031906758 62:0.0010662704 63:0 64:0.0025585578 65:0.38327014 66:0.38327014 67:0 68:0.38327014 69:0 70:0 71:0 72:0.0025585578 73:0.14566924 74:0.34061375 75:0.34061375 76:0 77:0.34061375 78:0 79:0 80:0 81:0.14566924 82:0.17009833 83:0.19839105 84:0.34061375 85:0 86:0.082883336 87:0 88:0 89:0 90:0.17009833 91:0.049749941 92:0.26125297 93:0.34061375 94:0 95:0.34061375 96:0 97:0 98:0 99:0.049749941 100:0.1052636 101:0.052039057 102:0.15572025 103:0 104:0.17786211 105:0 106:0 107:0 108:0.1052636 109:0 110:0.017949911 111:0.053712852 112:0 113:0.37813869 114:0 115:0.078002922 116:0.026067253 117:0 118:0.010056891 119:0.013722028 120:0.041061446 121:0 122:0.37813869 123:0 124:0.040087011 125:0.013396408 126:0.010056891 127:0.054195259 128:0 129:0 130:0 131:0.37813869 132:0 133:0.31405583 134:0.10495219 135:0.054195259 136:0.25475463 137:0.073700689 138:0.22054055 139:0 140:0.37813869 141:0 142:0.31604931 143:0.1056184 144:0.25475463 145:0.028661387 146:0.087669648 147:0.26234102 148:0 149:0.31728014 150:0 151:0 152:0 153:0.028661387 154:0.014330695 155:0.18242784 156:0.31728014 157:0 158:0.31728014 159:0 160:0 161:0 162:0.014330695 163:0.22222704 164:0.16643098 165:0.31728014 166:0 167:0.31728014 168:0 169:0.03308871 170:0.011057696 171:0.22222704 172:0.062752694 173:0.21156195 174:0.31728014 175:0 176:0.31728014 177:0 178:0 179:0 180:0.062752694 181:0.033141036 182:0.1223964 183:0.36415526 184:0 185:0.34710044 186:0 187:0 188:0 189:0.033141036 190:0.082852595 191:0.082595497 192:0.24715628 193:0 194:0.36415526 195:0 196:0 197:0 198:0.082852595 199:0.0094320253 200:0.18882944 201:0.36415526 202:0 203:0.36415526 204:0 205:0 206:0 207:0.0094320253 208:0.023580067 209:0.087994464 210:0.26331198 211:0 212:0.36415526 213:0 214:0 215:0 216:0.023580067 217:0.080951944 218:0 219:0 220:0 221:0.28035095 222:0 223:0.28035095 224:0.10677078 225:0.080951944 226:0.28035095 227:0.078655414 228:0.235367 229:0 230:0.22761789 231:0 232:0.28035095 233:0.095004477 234:0.28035095 235:0.12187225 236:0.0033006868 237:0.0098768761 238:0 239:0.28035095 240:0 241:0.28035095 242:0.23219927 243:0.12187225 244:0.24537757 245:0.073834695 246:0.22094081 247:0 248:0 249:0 250:0.19362609 251:0.06470646 252:0.24537757 253:0.20355652 254:0.10337227 255:0.30932906 256:0 257:0.22476515 258:0 259:0.038475364 260:0.012857824 261:0.20355652 262:0.09473373 263:0.2087096 264:0.30947956 265:0 266:0.30947956 267:0 268:0 269:0 270:0.09473373 271:0.16494513 272:0.18909229 273:0.30947956 274:0 275:0.14315936 276:0 277:0.021912025 278:0.0073226178 279:0.16494513 280:0.13604192 281:0.25863528 282:0.30947956 283:0 284:0.30947956 285:0 286:0 287:0 288:0.13604192 289:0.017974976 290:0.14649254 291:0.42930007 292:0 293:0.42930007 294:0 295:0 296:0 297:0.017974976 298:0 299:0.021083096 300:0.063088417 301:0 302:0.42930007 303:0 304:0 305:0 306:0 307:0.035419278 308:0.065511011 309:0.19603316 310:0 311:0.42930007 312:0 313:0.0076718279 314:0.0025637902 315:0.035419278 316:0.0039209123 317:0.00080334564 318:0.0024039072 319:0 320:0.42930007 321:0 322:0.04603095 323:0.015382735 324:0.0039209123 
0 0.17929626780595759 1:0.060829837 2:0.2017794 3:0.41566071 4:0 5:0.41566071 6:0 7:0.046028715 8:0.015382027 9:0.060829837 10:0.025457945 11:0.069116011 12:0.2068207 13:0 14:0.40424386 15:0 16:0.034521528 17:0.011536518 18:0.025457945 19:0 20:0.089466982 21:0.26771849 22:0 23:0.41566071 24:0 25:0 26:0 27:0 28:0 29:0.03440316 30:0.10294697 31:0 32:0.34930009 33:0 34:0 35:0 36:0 37:0 38:0.0067713344 39:0.020262415 40:0 41:0.077783309 42:0 43:0 44:0 45:0 46:0 47:0.26085401 48:0.40429106 49:0 50:0.40429106 51:0 52:0 53:0 54:0 55:0 56:0.074929729 57:0.22421832 58:0 59:0.26955608 60:0 61:0 62:0 63:0 64:0 65:0.37290195 66:0.40429106 67:0 68:0.40429106 69:0 70:0 71:0 72:0 73:0 74:0.32977065 75:0.34255895 76:0 77:0.34255895 78:0 79:0 80:0 81:0 82:0 83:0.095135488 84:0.28468168 85:0 86:0.17459691 87:0 88:0 89:0 90:0 91:0.061881982 92:0.26273209 93:0.34255895 94:0 95:0.34255895 96:0 97:0.013122058 98:0.0043851612 99:0.061881982 100:0.15470499 101:0.087010197 102:0.26036677 103:0 104:0.3014389 105:0 106:0.078732312 107:0.026310958 108:0.15470499 109:0 110:0.015252619 111:0.045641605 112:0 113:0.43788433 114:0 115:0.005603259 116:0.0018725109 117:0 118:0 119:0.0066466783 120:0.019889377 121:0 122:0.36739251 123:0 124:0 125:0 126:0 127:0.0041409526 128:0.031169079 129:0.093269773 130:0 131:0.43788433 132:0 133:0.34158593 134:0.11415226 135:0.0041409526 136:0.036914598 137:0.10865663 138:0.32514203 139:0 140:0.43788433 141:0 142:0.14372678 143:0.048031088 144:0.036914598 145:0 146:0.092523299 147:0.27686501 148:0 149:0.30496719 150:0 151:0 152:0 153:0 154:0 155:0.20014966 156:0.3361927 157:0 158:0.3361927 159:0 160:0 161:0 162:0 163:0.01758654 164:0.20800182 165:0.3361927 166:0 167:0.3361927 168:0 169:0.0025617415 170:0.00085609121 171:0.01758654 172:0 173:0.23731281 174:0.3361927 175:0 176:0.3361927 177:0 178:0 179:0 180:0 181:0.030339384 182:0.14403085 183:0.34007001 184:0 185:0.34007001 186:0 187:0.022499649 188:0.0075189876 189:0.030339384 190:0.075848468 191:0.093676314 192:0.28031418 193:0 194:0.34007001 195:0 196:0.13499783 197:0.045113906 198:0.075848468 199:0.0026943574 200:0.16724412 201:0.34007001 202:0 203:0.34007001 204:0 205:0.030286102 206:0.010121082 207:0.0026943574 208:0.0067358944 209:0.097509652 210:0.29178533 211:0 212:0.34007001 213:0 214:0.18171653 215:0.060726475 216:0.0067358944 217:0.051409028 218:0.034425031 219:0.10301283 220:0 221:0.30824038 222:0 223:0.30824038 224:0.19319743 225:0.051409028 226:0.18657663 227:0.20212495 228:0.30824038 229:0 230:0.21647473 231:0 232:0.30794841 233:0.10291122 234:0.18657663 235:0.059122253 236:0.017395454 237:0.052053832 238:0 239:0.30824038 240:0 241:0.30824038 242:0.13771723 243:0.059122253 244:0.16987813 245:0.093418002 246:0.27954224 247:0 248:0.070082277 249:0 250:0.153585 251:0.051325541 252:0.16987813 253:0.071415305 254:0.20845535 255:0.33034024 256:0 257:0.21299593 258:0 259:0.011140814 260:0.003723074 261:0.071415305 262:0 263:0.24026281 264:0.33034024 265:0 266:0.33034024 267:0 268:0 269:0 270:0 271:0.096901529 272:0.12507235 273:0.33034024 274:0 275:0.30810195 276:0 277:0.0083556091 278:0.0027923051 279:0.096901529 280:0.040960159 281:0.22865507 282:0.33034024 283:0 284:0.33034024 285:0 286:0 287:0 288:0.040960159 289:0 290:0.15546642 291:0.34283051 292:0 293:0.34283051 294:0 295:0.026800839 296:0.0089563709 297:0 298:0.0060726767 299:0.087636515 300:0.26224175 301:0 302:0.34283051 303:0 304:0.16080497 305:0.053738195 306:0.0060726767 307:0.0023247083 308:0.095501177 309:0.28577504 310:0 311:0.34283051 312:0 313:0.049954128 314:0.016693791 315:0.0023247083 316:0.02170039 317:0.092019767 318:0.27535823 319:0 320:0.34283051 321:0 322:0.29972461 323:0.10016272 324:0.02170039 
0 0.10866633110201689 1:0.061860006 2:0.1585411 3:0.40898785 4:0 5:0.40898785 6:0 7:0 8:0 9:0.061860006 10:0.025889082 11:0.038326532 12:0.11468718 13:0 14:0.40898785 15:0 16:0 17:0 18:0.025889082 19:0 20:0.10168006 21:0.30426469 22:0 23:0.40898785 24:0 25:0 26:0 27:0 28:0 29:0.028157124 30:0.08425653 31:0 32:0.40898785 33:0 34:0 35:0 36:0 37:0 38:0.0066063064 39:0.019768586 40:0 41:0.042415388 42:0 43:0 44:0 45:0 46:0 47:0.24441007 48:0.39574176 49:0 50:0.39574176 51:0 52:0 53:0 54:0 55:0 56:0.089527585 57:0.26790071 58:0 59:0.26689535 60:0 61:0 62:0 63:0 64:0 65:0.39574176 66:0.39574176 67:0 68:0.39574176 69:0 70:0 71:0 72:0 73:0.01035514 74:0.3542538 75:0.36472586 76:0 77:0.36472586 78:0 79:0 80:0 81:0.01035514 82:0.025887853 83:0.099064127 84:0.29643765 85:0 86:0.16502205 87:0 88:0 89:0 90:0.025887853 91:0.072032034 92:0.25239721 93:0.36472586 94:0 95:0.36472586 96:0 97:0.0343934 98:0.01149367 99:0.072032034 100:0.12883791 101:0.038249452 102:0.11445656 103:0 104:0.28444213 105:0 106:0.0859835 107:0.028734175 108:0.12883791 109:0 110:0.026537219 111:0.079409324 112:0 113:0.40137172 114:0 115:0.012651579 116:0.0042279358 117:0 118:0 119:0.010379637 120:0.031059766 121:0 122:0.36280498 123:0 124:0 125:0 126:0 127:0 128:0.0078088879 129:0.023367172 130:0 131:0.40137172 132:0 133:0.37025088 134:0.12373163 135:0 136:0.056111895 137:0.13354534 138:0.39961857 139:0 140:0.40137172 141:0 142:0.17989407 143:0.060117587 144:0.056111895 145:0 146:0.092916317 147:0.27804103 148:0 149:0.33063319 150:0 151:0 152:0 153:0 154:0 155:0.19145159 156:0.33063319 157:0 158:0.33063319 159:0 160:0 161:0 162:0 163:0.083167024 164:0.19669102 165:0.33063319 166:0 167:0.33063319 168:0 169:0.0026292235 170:0.00087864255 171:0.083167024 172:0.021564633 173:0.23540553 174:0.33063319 175:0 176:0.33063319 177:0 178:0 179:0 180:0.021564633 181:0.043007381 182:0.10917 183:0.32667738 184:0 185:0.36775556 186:0 187:0.036363076 188:0.012151902 189:0.043007381 190:0.076923825 191:0.061685599 192:0.18458612 193:0 194:0.36775556 195:0 196:0.090907693 197:0.030379755 198:0.076923825 199:0.0071678953 200:0.1928656 201:0.36775556 202:0 203:0.36775556 204:0 205:0.032908432 206:0.010997419 207:0.0071678953 208:0.012820637 209:0.086624704 210:0.25921333 211:0 212:0.36775556 213:0 214:0.14654224 215:0.048971847 216:0.012820637 217:0.041118074 218:0.028107136 219:0.084107265 220:0 221:0.31421575 222:0 223:0.31421575 224:0.17564408 225:0.041118074 226:0.1260996 227:0.24269149 228:0.31421575 229:0 230:0.26484451 231:0 232:0.31186104 233:0.10421875 234:0.1260996 235:0.054824091 236:0.018588703 237:0.055624492 238:0 239:0.31421575 240:0 241:0.31421575 242:0.13498312 243:0.054824091 244:0.10954207 245:0.10375703 246:0.31048056 247:0 248:0.12838806 249:0 250:0.12302685 251:0.041113507 252:0.10954207 253:0.097652897 254:0.19638611 255:0.32838082 256:0 257:0.21688232 258:0 259:0.011366463 260:0.0037984822 261:0.097652897 262:0.024714425 263:0.23486069 264:0.32838082 265:0 266:0.32838082 267:0 268:0 269:0 270:0.024714425 271:0.069912449 272:0.12346777 273:0.32838082 274:0 275:0.32838082 276:0 277:0.0085248463 278:0.002848861 279:0.069912449 280:0.04482422 281:0.22706781 282:0.32838082 283:0 284:0.32838082 285:0 286:0 287:0 288:0.04482422 289:0 290:0.17129856 291:0.3788999 292:0 293:0.3788999 294:0 295:0.020248009 296:0.0067665288 297:0 298:0 299:0.060701214 300:0.18164092 301:0 302:0.3788999 303:0 304:0.121488 305:0.04059916 306:0 307:0.0024420319 308:0.087462284 309:0.26171961 310:0 311:0.3788999 312:0 313:0.044818945 314:0.014977704 315:0.0024420319 316:0.0041513871 317:0.060709041 318:0.18166457 319:0 320:0.3788999 321:0 322:0.26891351 323:0.089866184 324:0.0041513871 
-0.0073184028103193358 0 1:0 2:0.042800583 3:0.12807566 4:0 5:0.042988513 6:0 7:0 8:0 9:0 10:0.10017107 11:0.21781547 12:0.3692449 13:0 14:0.3692449 15:0 16:0 17:0 18:0.10017107 19:0.022510219 20:0.22615115 21:0.3692449 22:0 23:0.17264861 24:0 25:0 26:0 27:0.022510219 28:0.065952115 29:0.3692449 30:0.3692449 31:0 32:0.3692449 33:0 34:0 35:0 36:0.065952115 37:0.10424607 38:0.19066872 39:0.32194903 40:0 41:0.32194903 42:0 43:0.012284433 44:0.004105242 45:0.10424607 46:0.072786741 47:0.1106026 48:0.32194903 49:0 50:0.32194903 51:0 52:0.19633791 53:0.065612681 54:0.072786741 55:0.076488443 56:0.17920038 57:0.32194903 58:0 59:0.31922877 60:0 61:0.0020474053 62:0.0006842069 63:0.076488443 64:0.019866768 65:0.087603845 66:0.26214364 67:0 68:0.32194903 69:0 70:0.15878506 71:0.05306318 72:0.019866768 73:0.027249688 74:0.014920749 75:0.044648394 76:0 77:0.47447744 78:0 79:0.18566296 80:0.062045317 81:0.027249688 82:0 83:0 84:0 85:0 86:0.47447744 87:0 88:0.0093527166 89:0.0031255218 90:0 91:0 92:0.04979058 93:0.14899237 94:0 95:0.47447744 96:0 97:0.15855978 98:0.052987896 99:0 100:0 101:0 102:0 103:0 104:0.47447744 105:0 106:0 107:0 108:0 109:0.070208512 110:0.22280331 111:0.29896259 112:0 113:0.29896259 114:0 115:0.028185461 116:0.0094191097 117:0.070208512 118:0.028298747 119:0.25823507 120:0.29896259 121:0 122:0.29896259 123:0 124:0.082249008 125:0.027486244 126:0.028298747 127:0.058836404 128:0.085592777 129:0.25612611 130:0 131:0.29896259 132:0 133:0.10889005 134:0.036389235 135:0.058836404 136:0.20835233 137:0.057085268 138:0.17082043 139:0 140:0.29896259 141:0 142:0.29896259 143:0.15126386 144:0.20835233 145:0.047472492 146:0.09304034 147:0.27841118 148:0 149:0.22267547 150:0 151:0.023757281 152:0.0079392856 153:0.047472492 154:0.030550623 155:0.092306927 156:0.27621749 157:0 158:0.31288657 159:0 160:0.12185376 161:0.040721398 162:0.030550623 163:0.31288657 164:0.050079852 165:0.14985791 166:0 167:0.11111461 168:0 169:0.18952106 170:0.063334771 171:0.31288657 172:0.31288657 173:0.090030737 174:0.26940635 175:0 176:0.31288657 177:0 178:0.082031481 179:0.027413517 180:0.31288657 181:0.007986946 182:0.061492771 183:0.18400981 184:0 185:0.35424301 186:0 187:0.13686018 188:0.045736317 189:0.007986946 190:0.026397642 191:0 192:0 193:0 194:0.35424301 195:0 196:0.05082358 197:0.016984392 198:0.026397642 199:0.146267 200:0.041988842 201:0.12564664 202:0 203:0.35424301 204:0 205:0.26579216 206:0.088823259 207:0.146267 208:0.30039182 209:0 210:0 211:0 212:0.30200052 213:0 214:0.35424301 215:0.14527218 216:0.30039182 217:0.090892054 218:0.0074490416 219:0.022290375 220:0 221:0.17634144 222:0 223:0.10969383 224:0.03665781 225:0.090892054 226:0.29689544 227:0.015692424 228:0.04695772 229:0 230:0.063187599 231:0 232:0.31887126 233:0.10656144 234:0.29689544 235:0.37538695 236:0 237:0 238:0 239:0.071958475 240:0 241:0.25109577 242:0.083911799 243:0.37538695 244:0.37538695 245:0 246:0 247:0 248:0 249:0 250:0 251:0 252:0.37538695 253:0.30325511 254:0.034780715 255:0.10407718 256:0 257:0.016878229 258:0 259:0.13084729 260:0.043726981 261:0.30325511 262:0.30325511 263:0.03985627 264:0.11926517 265:0 266:0.16013768 267:0 268:0.018332684 269:0.0061264769 270:0.30325511 271:0.30325511 272:0 273:0 274:0 275:0.015045793 276:0 277:0.024759727 278:0.0082742656 279:0.30325511 280:0.30325511 281:0.005774539 282:0.017279558 283:0 284:0.30325511 285:0 286:0.29212433 287:0.097622834 288:0.30325511 289:0.14821641 290:0.013871569 291:0.041509025 292:0 293:0.14718057 294:0 295:0.11991947 296:0.040075082 297:0.14821641 298:0.27425337 299:0.0031933871 300:0.0095557962 301:0 302:0.27425337 303:0 304:0.27425337 305:0.144098 306:0.27425337 307:0.21807672 308:0.074774452 309:0.22375281 310:0 311:0.27425337 312:0 313:0.1774559 314:0.059302647 315:0.21807672 316:0.27425337 317:0.12692182 318:0.27425337 319:0 320:0.27425337 321:0 322:0.11250532 323:0.037597403 324:0.27425337 
-0.11025741574389848 0 1:0 2:0.025143223 3:0.075238109 4:0 5:0.038362157 6:0 7:0 8:0 9:0 10:0 11:0.25744873 12:0.38265574 13:0 14:0.23722021 15:0 16:0 17:0 18:0 19:0.1115174 20:0.19367515 21:0.38265574 22:0 23:0.19012274 24:0 25:0 26:0 27:0.1115174 28:0.13267055 29:0.38265574 30:0.38265574 31:0 32:0.38265574 33:0 34:0 35:0 36:0.13267055 37:0.020285498 38:0.22262791 39:0.33194789 40:0 41:0.17759478 42:0 43:0.011926066 44:0.0039854823 45:0.020285498 46:0.072489157 47:0.11546308 48:0.33194789 49:0 50:0.33194789 51:0 52:0.086612903 53:0.028944509 54:0.072489157 55:0.060958732 56:0.24864869 57:0.33194789 58:0 59:0.26861238 60:0 61:0.0089445496 62:0.0029891115 63:0.060958732 64:0.032725859 65:0.13733377 66:0.33194789 67:0 68:0.33194789 69:0 70:0.22994556 71:0.076843776 72:0.032725859 73:0.035121113 74:0.015461252 75:0.046265792 76:0 77:0.47707611 78:0 79:0.060322776 80:0.020158811 81:0.035121113 82:0 83:0 84:0 85:0 86:0.47707611 87:0 88:0 89:0 90:0 91:0.014048444 92:0.044175379 93:0.13218945 94:0 95:0.47707611 96:0 97:0.2246756 98:0.07508263 99:0.014048444 100:0 101:0 102:0 103:0 104:0.47707611 105:0 106:0 107:0 108:0 109:0.13308167 110:0.18726388 111:0.2908833 112:0 113:0.2908833 114:0 115:0.0072664833 116:0.0024283372 117:0.13308167 118:0.10814709 119:0.26367912 120:0.2908833 121:0 122:0.2908833 123:0 124:0.018166211 125:0.0060708439 126:0.10814709 127:0.063738197 128:0.092316009 129:0.2762444 130:0 131:0.2908833 132:0 133:0.10342199 134:0.034561906 135:0.063738197 136:0.17576852 137:0.075824618 138:0.2268953 139:0 140:0.2908833 141:0 142:0.2908833 143:0.13076533 144:0.17576852 145:0.068601027 146:0.13786486 147:0.37319455 148:0 149:0.27464589 150:0 151:0.0046527381 152:0.0015548675 153:0.068601027 154:0.0064645587 155:0.088993959 156:0.26630354 157:0 158:0.37319455 159:0 160:0.13403466 161:0.04479203 162:0.0064645587 163:0.23079938 164:0.055842422 165:0.16710155 166:0 167:0.16585936 168:0 169:0.22934559 170:0.076643474 171:0.23079938 172:0.15156892 173:0.10149686 174:0.30371734 175:0 176:0.37319455 177:0 178:0.057142101 179:0.019095935 180:0.15156892 181:0 182:0.052051153 183:0.15575689 184:0 185:0.4693501 186:0 187:0.1066053 188:0.035625618 189:0 190:0 191:0 192:0 193:0 194:0.4693501 195:0 196:0 197:0 198:0 199:0.054263871 200:0.041230246 201:0.12337662 202:0 203:0.4693501 204:0 205:0.12650689 206:0.04227649 207:0.054263871 208:0.06165548 209:0 210:0 211:0 212:0.4693501 213:0 214:0.15394457 215:0.051445704 216:0.06165548 217:0.097677916 218:0.013662002 219:0.040881891 220:0 221:0.15853783 222:0 223:0.11770546 224:0.039335188 225:0.097677916 226:0.29745618 227:0.0058958572 228:0.017642587 229:0 230:0.13412361 231:0 232:0.30715653 233:0.1517943 234:0.29745618 235:0.30715653 236:0 237:0 238:0 239:0.050694462 240:0 241:0.30715653 242:0.11736668 243:0.30715653 244:0.30715653 245:0.05332794 246:0.15957692 247:0 248:0 249:0 250:0.30715653 251:0.10976443 252:0.30715653 253:0.26825532 254:0.051696617 255:0.154696 256:0 257:0.040369861 258:0 259:0.26825532 260:0.1058517 261:0.26825532 262:0.26825532 263:0.11796481 264:0.26825532 265:0 266:0.26825532 267:0 268:0.11312671 269:0.037805054 270:0.26825532 271:0.26825532 272:0.045080233 273:0.13489681 274:0 275:0.0047212616 276:0 277:0.26825532 278:0.11849676 279:0.26825532 280:0.20672233 281:0.013040083 282:0.039020903 283:0 284:0.067929998 285:0 286:0.26825532 287:0.11000092 288:0.20672233 289:0.14430848 290:0.033040874 291:0.098870903 292:0 293:0.30514881 294:0 295:0.30514881 296:0.10697079 297:0.14430848 298:0.23718366 299:0 300:0 301:0 302:0.30514881 303:0 304:0.30514881 305:0.24218909 306:0.23718366 307:0.11342137 308:0.0025965355 309:0.0077698245 310:0 311:0.096102476 312:0 313:0.16172522 314:0.054045826 315:0.11342137 316:0.21021718 317:0.034083743 318:0.10199115 319:0 320:0.30514881 321:0 322:0.30514881 323:0.19767296 324:0.21021718 
-0 0.11789146740337531 1:0.048775557 2:0.018128363 3:0.054246981 4:0 5:0.075929627 6:0 7:0 8:0 9:0.048775557 10:0.1521036 11:0.19956706 12:0.32949266 13:0 14:0.32250115 15:0 16:0 17:0 18:0.1521036 19:0.15294936 20:0.1749763 21:0.32949266 22:0 23:0.32949266 24:0 25:0 26:0 27:0.15294936 28:0.23691455 29:0.2456018 30:0.32949266 31:0 32:0.32949266 33:0 34:0 35:0 36:0.23691455 37:0.14881688 38:0.2026661 39:0.33382478 40:0 41:0.33382478 42:0 43:0.013718916 44:0.0045846207 45:0.14881688 46:0.15721206 47:0.073331542 48:0.21943526 49:0 50:0.33382478 51:0 52:0.15240172 53:0.05092999 54:0.15721206 55:0.0765903 56:0.12416664 57:0.33382478 58:0 59:0.33382478 60:0 61:0.0022864856 62:0.00076410343 63:0.0765903 64:0.017222445 65:0.054939616 66:0.16440001 67:0 68:0.33382478 69:0 70:0.22420111 71:0.074924104 72:0.017222445 73:0.044598497 74:0.028529484 75:0.085370772 76:0 77:0.43413067 78:0 79:0.19236179 80:0.064284027 81:0.044598497 82:0 83:0.018564986 84:0.055553298 85:0 86:0.43413067 87:0 88:0.072403796 89:0.024196139 90:0 91:0.0018877221 92:0.069442868 93:0.20779906 94:0 95:0.43413067 96:0 97:0.31803986 98:0.10628346 99:0.0018877221 100:0 101:0.029020755 102:0.086840831 103:0 104:0.43413067 105:0 106:0.097059004 107:0.032435499 108:0 109:0.089699045 110:0.1834798 111:0.34922507 112:0 113:0.34922507 114:0 115:0.012546932 116:0.0041929753 117:0.089699045 118:0.0748 119:0.095585451 120:0.28602755 121:0 122:0.34922507 123:0 124:0.075281568 125:0.025157839 126:0.0748 127:0.037697192 128:0.046971157 129:0.14055561 130:0 131:0.34922507 132:0 133:0.072157182 134:0.024113704 135:0.037697192 136:0.20797595 137:0.007146514 138:0.021385022 139:0 140:0.34922507 141:0 142:0.31561989 143:0.1054749 144:0.20797595 145:0.017378019 146:0.027389523 147:0.081959613 148:0 149:0.33884466 150:0 151:0.028505303 152:0.0095259957 153:0.017378019 154:0.0013206223 155:0.071465857 156:0.21385302 157:0 158:0.33884466 159:0 160:0.11587346 161:0.038722903 162:0.0013206223 163:0.33884466 164:0.0089314943 165:0.026726412 166:0 167:0.33884466 168:0 169:0.19985089 170:0.066786826 171:0.33884466 172:0.27210447 173:0.058747657 174:0.17579541 175:0 176:0.33884466 177:0 178:0.06932918 179:0.023168655 180:0.27210447 181:0 182:0.076804586 183:0.22982828 184:0 185:0.41126615 186:0 187:0.23018795 188:0.076924905 189:0 190:0 191:0.019738501 192:0.059064895 193:0 194:0.41126615 195:0 196:0.12796408 197:0.042763464 198:0 199:0.087888613 200:0.03604747 201:0.10786773 202:0 203:0.41126615 204:0 205:0.1841796 206:0.061549749 207:0.087888613 208:0.10886542 209:0.0032897496 210:0.0098441476 211:0 212:0.41126615 213:0 214:0.28409135 215:0.094938591 216:0.10886542 217:0.13767943 218:0.021154314 219:0.063301586 220:0 221:0.11347786 222:0 223:0.288995 224:0.11516207 225:0.13767943 226:0.288995 227:0.0064797876 228:0.019389922 229:0 230:0.22394665 231:0 232:0.2428057 233:0.081141531 234:0.288995 235:0.288995 236:0.040498674 237:0.12118701 238:0 239:0.0044682184 240:0 241:0.288995 242:0.16894573 243:0.288995 244:0.288995 245:0.01619947 246:0.048474807 247:0 248:0 249:0 250:0.288995 251:0.1154722 252:0.288995 253:0.27569103 254:0.0056274571 255:0.016839499 256:0 257:0.11371067 258:0 259:0.16768269 260:0.056036722 261:0.27569103 262:0.27569103 263:0.033764731 264:0.10103696 265:0 266:0.27569103 267:0 268:0.047443174 269:0.015854705 270:0.27569103 271:0.27569103 272:0 273:0 274:0 275:0.055934973 276:0 277:0.27569103 278:0.1071331 279:0.27569103 280:0.27569103 281:0.003016246 282:0.0090257237 283:0 284:0.27569103 285:0 286:0.27569103 287:0.110127 288:0.27569103 289:0.15557611 290:0.015502213 291:0.046388533 292:0 293:0.28809851 294:0 295:0.10687272 296:0.035715077 297:0.15557611 298:0.21799806 299:0 300:0 301:0 302:0.28809851 303:0 304:0.28809851 305:0.19751702 306:0.21799806 307:0.16887836 308:0.032048784 309:0.095901825 310:0 311:0.28809851 312:0 313:0.11627129 314:0.038855847 315:0.16887836 316:0.28809851 317:0.064574912 318:0.193232 319:0 320:0.28809851 321:0 322:0.28809851 323:0.10842985 324:0.28809851 
-0.13293382750605373 0 1:0.036143031 2:0.047828186 3:0.14312017 4:0 5:0 6:0 7:0 8:0 9:0.036143031 10:0.13509266 11:0.23073432 12:0.37159911 13:0 14:0.072111383 15:0 16:0 17:0 18:0.13509266 19:0.15088424 20:0.24131678 21:0.37159911 22:0 23:0.19867942 24:0 25:0 26:0 27:0.15088424 28:0.22719841 29:0.37159911 30:0.37159911 31:0 32:0.27774885 33:0 34:0 35:0 36:0.22719841 37:0.12393991 38:0.18896516 39:0.30375344 40:0 41:0.20118032 42:0 43:0 44:0 45:0.12393991 46:0.22685455 47:0.13837101 48:0.30375344 49:0 50:0.30375344 51:0 52:0.0097835669 53:0.0032694964 54:0.22685455 55:0.14142019 56:0.22958924 57:0.30375344 58:0 59:0.22312117 60:0 61:0 62:0 63:0.14142019 64:0.156094 65:0.13867359 66:0.30375344 67:0 68:0.30375344 69:0 70:0.058701377 71:0.019616969 72:0.156094 73:0.1397635 74:0.095462322 75:0.28565884 76:0 77:0.37850571 78:0 79:0.074291192 80:0.024826858 81:0.1397635 82:0.0064436514 83:0.066906653 84:0.2002095 85:0 86:0.37850571 87:0 88:0.07993041 89:0.026711404 90:0.0064436514 91:0.073554635 92:0.13678692 93:0.37850571 94:0 95:0.37850571 96:0 97:0.1080043 98:0.036093153 99:0.073554635 100:0.0025774604 101:0.069987692 102:0.20942916 103:0 104:0.37850571 105:0 106:0.02925881 107:0.0097777909 108:0.0025774604 109:0.1161138 110:0.18303898 111:0.31632945 112:0 113:0.31632945 114:0 115:0.013252363 116:0.0044287178 117:0.1161138 118:0.064433336 119:0.26261371 120:0.31632945 121:0 122:0.31632945 123:0 124:0.10271332 125:0.034325074 126:0.064433336 127:0.035851534 128:0.043036774 129:0.12878235 130:0 131:0.31632945 132:0 133:0.058569647 134:0.01957299 135:0.035851534 136:0.14648496 137:0.066663496 138:0.19948183 139:0 140:0.31632945 141:0 142:0.31632945 143:0.18642481 144:0.14648496 145:0.045860283 146:0.14174859 147:0.31973195 148:0 149:0.23413578 150:0 151:0.042251613 152:0.014119783 153:0.045860283 154:0.024945334 155:0.072448798 156:0.2167941 157:0 158:0.31973195 159:0 160:0.031412788 161:0.010497602 162:0.024945334 163:0.27333012 164:0.035334907 165:0.1057352 166:0 167:0.12854296 168:0 169:0.31973195 170:0.12544531 171:0.27333012 172:0.25856358 173:0.11634095 174:0.31973195 175:0 176:0.31973195 177:0 178:0.088042028 179:0.029422173 180:0.25856358 181:0.0013822198 182:0.082075931 183:0.24560207 184:0 185:0.41844541 186:0 187:0.042288382 188:0.014132034 189:0.0013822198 190:0 191:0.031409163 192:0.093987897 193:0 194:0.41844541 195:0 196:0.0070480625 197:0.002355339 198:0 199:0.053974025 200:0.077707656 201:0.23253094 202:0 203:0.41844541 204:0 205:0.22983316 206:0.076806389 207:0.053974025 208:0.059994597 209:0.0007542625 210:0.0022570409 211:0 212:0.41844541 213:0 214:0.2759414 215:0.092215016 216:0.059994597 217:0.14155889 218:0.024876932 219:0.074440978 220:0 221:0.28832644 222:0 223:0.28832644 224:0.11083513 225:0.14155889 226:0.20115435 227:0.004146155 228:0.012406829 229:0 230:0.061285816 231:0 232:0.28832644 233:0.15079513 234:0.20115435 235:0.26836208 236:0.033169236 237:0.099254631 238:0 239:0.063294396 240:0 241:0.28832644 242:0.18310583 243:0.26836208 244:0.28832644 245:0.0055282055 246:0.016542437 247:0 248:0 249:0 250:0.28832644 251:0.23717664 252:0.28832644 253:0.26808017 254:0.0065865633 255:0.019709509 256:0 257:0.029766584 258:0 259:0.26808017 260:0.10538127 261:0.26808017 262:0.26808017 263:0.07370723 264:0.22056015 265:0 266:0.26808017 267:0 268:0.10120209 269:0.033820044 270:0.26808017 271:0.26808017 272:0 273:0 274:0 275:0.061243691 276:0 277:0.26808017 278:0.14093627 279:0.26808017 280:0.26808017 281:0 282:0 283:0 284:0.26808017 285:0 286:0.17337321 287:0.057938278 288:0.26808017 289:0.11275194 290:0.043752369 291:0.13092379 292:0 293:0.30807152 294:0 295:0.30807152 296:0.13884808 297:0.11275194 298:0.24838431 299:0.018966973 300:0.056756195 301:0 302:0.23523805 303:0 304:0.30807152 305:0.25535771 306:0.24838431 307:0.11692001 308:0 309:0 310:0 311:0.15951821 312:0 313:0.10951713 314:0.036598776 315:0.11692001 316:0.20569663 317:0.067777477 318:0.20281528 319:0 320:0.30807152 321:0 322:0.30807152 323:0.12097958 324:0.20569663 
-0 0.084849689916447923 1:0.021859469 2:0.028654143 3:0.085744128 4:0 5:0.019293247 6:0 7:0 8:0 9:0.021859469 10:0.034773149 11:0.2704128 12:0.38203749 13:0 14:0.20805328 15:0 16:0 17:0 18:0.034773149 19:0.077416696 20:0.22321466 21:0.38203749 22:0 23:0.2071892 24:0 25:0 26:0 27:0.077416696 28:0.12913683 29:0.38203749 30:0.38203749 31:0 32:0.38203749 33:0 34:0 35:0 36:0.12913683 37:0.029669186 38:0.2296986 39:0.33297876 40:0 41:0.13131149 42:0 43:0.017350117 44:0.0057981047 45:0.029669186 46:0.064300276 47:0.096412554 48:0.2885026 49:0 50:0.33297876 51:0 52:0.10410065 53:0.034788609 54:0.064300276 55:0.042440452 56:0.27177629 57:0.33297876 58:0 59:0.25579935 60:0 61:0.031032754 62:0.010370602 63:0.042440452 64:0.06467624 65:0.12048485 66:0.33297876 67:0 68:0.33297876 69:0 70:0.28532612 71:0.095350981 72:0.06467624 73:0.021385735 74:0.0063276407 75:0.018934654 76:0 77:0.48411083 78:0 79:0.06131025 80:0.020488812 81:0.021385735 82:0 83:0 84:0 85:0 86:0.48411083 87:0 88:0 89:0 90:0 91:0.021510778 92:0.009173031 93:0.027449101 94:0 95:0.48411083 96:0 97:0.21304426 98:0.071195647 99:0.021510778 100:0 101:0 102:0 103:0 104:0.48411083 105:0 106:0 107:0 108:0 109:0.061747752 110:0.20864591 111:0.29341647 112:0 113:0.24619037 114:0 115:0.011473185 116:0.003834147 117:0.061747752 118:0.04057356 119:0.28232053 120:0.29341647 121:0 122:0.29341647 123:0 124:0.068839096 125:0.023004873 126:0.04057356 127:0.047859199 128:0.097530246 129:0.29184762 130:0 131:0.29341647 132:0 133:0.046162315 134:0.015426669 135:0.047859199 136:0.19017769 137:0.1172962 138:0.29341647 139:0 140:0.29341647 141:0 142:0.28860962 143:0.096448533 144:0.19017769 145:0.015349368 146:0.1809362 147:0.31673637 148:0 149:0.20776525 150:0 151:0.03146714 152:0.010515787 153:0.015349368 154:0.0063694967 155:0.051130209 156:0.15300059 157:0 158:0.31673637 159:0 160:0.20913452 161:0.069889098 162:0.0063694967 163:0.31200501 164:0.064593032 165:0.1932863 166:0 167:0.17070873 168:0 169:0.17793031 170:0.059461333 171:0.31200501 172:0.24225879 173:0.10559689 174:0.31598616 175:0 176:0.31673637 177:0 178:0.11510141 179:0.03846493 180:0.24225879 181:0.0013515833 182:0.006166257 183:0.018451776 184:0 185:0.43155345 186:0 187:0.15768217 188:0.052694611 189:0.0013515833 190:0 191:0 192:0 193:0 194:0.43155345 195:0 196:0 197:0 198:0 199:0.052777704 200:0.071828678 201:0.2149388 202:0 203:0.43155345 204:0 205:0.26482472 206:0.088499948 207:0.052777704 208:0.058664829 209:0 210:0 211:0 212:0.43155345 213:0 214:0.26982525 215:0.090171091 216:0.058664829 217:0.036762699 218:0.025831932 219:0.077298984 220:0 221:0.251764 222:0 223:0.2391073 224:0.07990548 225:0.036762699 226:0.25142097 227:0.0063089002 228:0.018878564 229:0 230:0.23996955 231:0 232:0.1644931 233:0.054970842 234:0.25142097 235:0.30876979 236:0.0062906086 237:0.018823897 238:0 239:0.0096696177 240:0 241:0.30876979 242:0.24704365 243:0.30876979 244:0.30876979 245:0 246:0 247:0 248:0 249:0 250:0.30876979 251:0.11220515 252:0.30876979 253:0.28698009 254:0.010538035 255:0.031533785 256:0 257:0.12348545 258:0 259:0.16736348 260:0.055930085 261:0.28698009 262:0.28698009 263:0.1154155 264:0.28698009 265:0 266:0.26014397 267:0 268:0.098816447 269:0.03302281 270:0.28698009 271:0.28698009 272:0 273:0 274:0 275:0.0054519633 276:0 277:0.25545436 278:0.085368358 279:0.28698009 280:0.23720552 281:0 282:0 283:0 284:0.063830324 285:0 286:0.28698009 287:0.098723523 288:0.23720552 289:0.12378824 290:0.069902837 291:0.20917596 292:0 293:0.3080124 294:0 295:0.3080124 296:0.15243869 297:0.12378824 298:0.27269644 299:0 300:0 301:0 302:0.3080124 303:0 304:0.3080124 305:0.28035241 306:0.27269644 307:0.056610133 308:0 309:0 310:0 311:0.036319062 312:0 313:0.14955656 314:0.049979266 315:0.056610133 316:0.15428478 317:0 318:0 319:0 320:0.3080124 321:0 322:0.3080124 323:0.1328212 324:0.15428478 
-0.10162490961296133 0.10664804987446445 1:0.096678451 2:0.086001962 3:0.25735068 4:0 5:0 6:0 7:0 8:0 9:0.096678451 10:0.1517517 11:0.25530469 12:0.30848047 13:0 14:0 15:0 16:0 17:0 18:0.1517517 19:0.28012121 20:0.19762385 21:0.30848047 22:0 23:0.11201051 24:0 25:0.0079649007 26:0.0026617367 27:0.28012121 28:0.2876536 29:0.28429925 30:0.30848047 31:0 32:0.21760631 33:0 34:0.071003243 35:0.023728095 36:0.2876536 37:0.15399961 38:0.24220195 39:0.3325305 40:0 41:0.0019490899 42:0 43:0 44:0 45:0.15399961 46:0.12928264 47:0.2561574 48:0.3325305 49:0 50:0.15000497 51:0 52:0.1290168 53:0.043115154 54:0.12928264 55:0.16798899 56:0.25872901 57:0.3325305 58:0 59:0.080124512 60:0 61:0.032577969 62:0.010887012 63:0.16798899 64:0.05913379 65:0.21875101 66:0.3325305 67:0 68:0.3325305 69:0 70:0.10311616 71:0.034459606 72:0.05913379 73:0.060904827 74:0.081644885 75:0.24431178 76:0 77:0.39078805 78:0 79:0.17613699 80:0.058861893 81:0.060904827 82:0 83:0.096422829 84:0.28853279 85:0 86:0.39078805 87:0 88:0.037381336 89:0.012492186 90:0 91:0.017333671 92:0.099459618 93:0.29762033 94:0 95:0.39078805 96:0 97:0.16623859 98:0.055554025 99:0.017333671 100:0 101:0.071255751 102:0.21322367 103:0 104:0.39078805 105:0 106:0.047769353 107:0.015963679 108:0 109:0.1257202 110:0.10475589 111:0.27603546 112:0 113:0.27418053 114:0 115:0.026879301 116:0.0089826146 117:0.1257202 118:0.26134771 119:0.1145909 120:0.27603546 121:0 122:0.27603546 123:0 124:0.27603546 125:0.15140375 126:0.26134771 127:0.10994918 128:0.0068501327 129:0.020498209 130:0 131:0.17687774 132:0 133:0.27603546 134:0.096776247 135:0.10994918 136:0.20391096 137:0 138:0 139:0 140:0.27603546 141:0 142:0.27603546 143:0.15554641 144:0.20391096 145:0.18077058 146:0.093212321 147:0.25185916 148:0 149:0.25185916 150:0 151:0.22220621 152:0.074257597 153:0.18077058 154:0.064879782 155:0.11361989 156:0.25185916 157:0 158:0.25185916 159:0 160:0.052247249 161:0.017460151 162:0.064879782 163:0.25185916 164:0.0069480734 165:0.020791285 166:0 167:0.22123019 168:0 169:0.25185916 170:0.11839545 171:0.25185916 172:0.25185916 173:0.15318571 174:0.25185916 175:0 176:0.25185916 177:0 178:0.23137993 179:0.077323303 180:0.25185916 181:0.0021224171 182:0.11944628 183:0.3574284 184:0 185:0.39230993 186:0 187:0.0273683 188:0.0091460105 189:0.0021224171 190:0 191:0.064427376 192:0.19279073 193:0 194:0.39230993 195:0 196:0.008459283 197:0.0028269438 198:0 199:0.061387159 200:0.11983933 201:0.35860488 202:0 203:0.39230993 204:0 205:0.10286485 206:0.034375709 207:0.061387159 208:0.045328356 209:0.020730926 210:0.062034678 211:0 212:0.39230993 213:0 214:0.15158355 215:0.050656699 216:0.045328356 217:0.27978885 218:0 219:0 220:0 221:0.025700472 222:0 223:0.27978885 224:0.18569666 225:0.27978885 226:0.27978885 227:0 228:0 229:0 230:0.042124543 231:0 232:0.27978885 233:0.15587685 234:0.27978885 235:0.20573413 236:0 237:0 238:0 239:0 240:0 241:0.27978885 242:0.10247934 243:0.20573413 244:0.27978885 245:0 246:0 247:0 248:0 249:0 250:0.27978885 251:0.24086311 252:0.27978885 253:0.26043788 254:0.0043268735 255:0.012947656 256:0 257:0.042826317 258:0 259:0.28341013 260:0.11646082 261:0.26043788 262:0.21001677 263:0.067776099 264:0.20281193 265:0 266:0.11514141 267:0 268:0.16345125 269:0.054622658 270:0.21001677 271:0.28341013 272:0 273:0 274:0 275:0.067773543 276:0 277:0.28341013 278:0.28341013 279:0.28341013 280:0.19037984 281:0 282:0 283:0 284:0.28341013 285:0 286:0.28341013 287:0.17233506 288:0.19037984 289:0.12274131 290:0.048769314 291:0.14593638 292:0 293:0.35406765 294:0 295:0.23928273 296:0.079964288 297:0.12274131 298:0.13383779 299:0.00096251245 300:0.0028802042 301:0 302:0.35406765 303:0 304:0.35406765 305:0.2842463 306:0.13383779 307:0.033283189 308:0 309:0 310:0 311:0.15821382 312:0 313:0.16149385 314:0.053968482 315:0.033283189 316:0.036669813 317:0 318:0 319:0 320:0.35406765 321:0 322:0.35406765 323:0.27681389 324:0.036669813 
-0.13408084588955124 0.31441125201492898 1:0.019145722 2:0.0065000276 3:0.01945056 4:0 5:0.023545079 6:0 7:0 8:0 9:0.019145722 10:0.17242506 11:0.0086667016 12:0.025934076 13:0 14:0.28611058 15:0 16:0 17:0 18:0.17242506 19:0.2267641 20:0.16330647 21:0.3367959 22:0 23:0.3367959 24:0 25:0 26:0 27:0.2267641 28:0.3367959 29:0.20677851 30:0.3367959 31:0 32:0.3367959 33:0 34:0 35:0 36:0.3367959 37:0.26277927 38:0.0011044323 39:0.0033048829 40:0 41:0.32879198 42:0 43:0.0070227622 44:0.002346884 45:0.26277927 46:0.30801362 47:0.018547736 48:0.055501685 49:0 50:0.32879198 51:0 52:0.28020409 53:0.093639284 54:0.30801362 55:0.22493392 56:0.027735189 57:0.082994089 58:0 59:0.32879198 60:0 61:0 62:0 63:0.22493392 64:0.13238591 65:0.0015309134 66:0.0045810589 67:0 68:0.32879198 69:0 70:0.039677918 71:0.013259663 72:0.13238591 73:0.25055853 74:0.08179263 75:0.24475379 76:0 77:0.38220015 78:0 79:0.33969674 80:0.11352069 81:0.25055853 82:0.070527643 83:0.050886426 84:0.152271 85:0 86:0.38220015 87:0 88:0.028016711 89:0.0093626939 90:0.070527643 91:0.15063003 92:0.0086520854 93:0.025890239 94:0 95:0.38220015 96:0 97:0.052579623 98:0.017571187 99:0.15063003 100:0.050999314 101:0.0064890636 102:0.019417677 103:0 104:0.38220015 105:0 106:0.0046694512 107:0.0015604488 108:0.050999314 109:0.18445948 110:0.1209248 111:0.26057926 112:0 113:0.26057926 114:0 115:0 116:0 117:0.18445948 118:0.15020429 119:0.12605606 120:0.26057926 121:0 122:0.26057926 123:0 124:0.013055207 125:0.0043628323 126:0.15020429 127:0.26057926 128:0.11001727 129:0.26057926 130:0 131:0.26057926 132:0 133:0 134:0 135:0.26057926 136:0.26057926 137:0.09410964 138:0.26057926 139:0 140:0.26057926 141:0 142:0.12632878 143:0.042216964 144:0.26057926 145:0.09960822 146:0.043884516 147:0.13131879 148:0 149:0.28449422 150:0 151:0.023943869 152:0.0080016414 153:0.09960822 154:0.10595684 155:0.0088797556 156:0.02657159 157:0 158:0.28449422 159:0 160:0.021362718 161:0.0071390639 162:0.10595684 163:0.28449422 164:0.06678874 165:0.19985698 166:0 167:0.28449422 168:0 169:0.28449422 170:0.13925546 171:0.28449422 172:0.25022325 173:0.086690105 174:0.25940964 175:0 176:0.28449422 177:0 178:0.28449422 179:0.14978881 180:0.25022325 181:0.19190425 182:0.014263331 183:0.042681251 184:0 185:0.28925955 186:0 187:0.072402686 188:0.024195768 189:0.19190425 190:0.076761693 191:0.0063732616 192:0.019071171 193:0 194:0.26007655 195:0 196:0.054302014 197:0.018146826 198:0.076761693 199:0.19232385 200:0.12441591 201:0.28925955 202:0 203:0.28925955 204:0 205:0.28925955 206:0.10136335 207:0.19232385 208:0.2425752 209:0.13645564 210:0.28925955 211:0 212:0.28925955 213:0 214:0.28925955 215:0.10373696 216:0.2425752 217:0.26127222 218:0.051107399 219:0.15293244 220:0 221:0.26127222 222:0 223:0.0583716 224:0.019506764 225:0.26127222 226:0.26127222 227:0.087698705 228:0.26127222 229:0 230:0.21210703 231:0 232:0.18289615 233:0.061120786 234:0.26127222 235:0.26127222 236:0.052533641 237:0.1572001 238:0 239:0.16853717 240:0 241:0.14592899 242:0.048766915 243:0.26127222 244:0.26127222 245:0.099957891 246:0.26127222 247:0 248:0.066603564 249:0 250:0.17193052 251:0.057456162 252:0.26127222 253:0.2449307 254:0.074799277 255:0.22382744 256:0 257:0.18481342 258:0 259:0.23307401 260:0.07788939 261:0.2449307 262:0.16572791 263:0.051075898 264:0.15283842 265:0 266:0.26319563 267:0 268:0.26319563 269:0.18584344 270:0.16572791 271:0.21077235 272:0.066587366 273:0.19925426 274:0 275:0.13761576 276:0 277:0.15830891 278:0.052904084 279:0.21077235 280:0.2240025 281:0.022993438 282:0.068805069 283:0 284:0.26319563 285:0 286:0.26319563 287:0.22185723 288:0.2240025 289:0.13553648 290:0.052618034 291:0.15745315 292:0 293:0.24605393 294:0 295:0.24605393 296:0.10010459 297:0.13553648 298:0.21973489 299:0.091636822 300:0.24605393 301:0 302:0.17399305 303:0 304:0.24605393 305:0.086883634 306:0.21973489 307:0.24605393 308:0.028085606 309:0.084042758 310:0 311:0.24605393 312:0 313:0.24605393 314:0.12754872 315:0.24605393 316:0.24605393 317:0.073048025 318:0.21858722 319:0 320:0.1689662 321:0 322:0.24605393 323:0.093158521 324:0.24605393 
-0.073957908408029321 0 1:0.043117929 2:0.010877565 3:0.032549817 4:0 5:0.021052679 6:0 7:0 8:0 9:0.043117929 10:0.19293426 11:0.053215839 12:0.15924208 13:0 14:0.30283865 15:0 16:0.19774432 17:0.066082723 18:0.19293426 19:0.23934725 20:0.21718307 21:0.30283865 22:0 23:0.26859435 24:0 25:0 26:0 27:0.23934725 28:0.30283865 29:0.19464116 30:0.30283865 31:0 32:0.30283865 33:0 34:0.14536016 35:0.048576821 36:0.30283865 37:0.22505209 38:0.071382284 39:0.21360272 40:0 41:0.29932794 42:0 43:0.21647055 44:0.072340727 45:0.22505209 46:0.29932794 47:0.087430045 48:0.26162326 49:0 50:0.29932794 51:0 52:0.063653588 53:0.021271953 54:0.29932794 55:0.17177767 56:0.037559915 57:0.11239331 58:0 59:0.29932794 60:0 61:0.11507583 62:0.038456332 63:0.17177767 64:0.20619319 65:0.0059802197 66:0.017895028 67:0 68:0.29932794 69:0 70:0.037374727 71:0.012490006 72:0.20619319 73:0.35658798 74:0.075267993 75:0.22522968 76:0 77:0.35658798 78:0 79:0.044759981 80:0.014958038 81:0.35658798 82:0.077294521 83:0.0090056444 84:0.026948221 85:0 86:0.27093402 87:0 88:0.0074599972 89:0.0024930062 90:0.077294521 91:0.35658798 92:0.021235319 93:0.063543923 94:0 95:0.35658798 96:0 97:0.12417883 98:0.04149849 99:0.35658798 100:0.088229872 101:0.00639281 102:0.019129653 103:0 104:0.2198028 105:0 106:0.049671523 107:0.016599393 108:0.088229872 109:0.13688846 110:0.17834732 111:0.27459481 112:0 113:0.27459481 114:0 115:0.025359832 116:0.0084748315 117:0.13688846 118:0.20632181 119:0.10820021 120:0.27459481 121:0 122:0.27459481 123:0 124:0.073365428 125:0.024517491 126:0.20632181 127:0.20483926 128:0.06666816 129:0.19949648 130:0 131:0.27459481 132:0 133:0.073278993 134:0.024488617 135:0.20483926 136:0.27459481 137:0.019990835 138:0.059820045 139:0 140:0.27459481 141:0 142:0.27340829 143:0.091368482 144:0.27459481 145:0.10067202 146:0.032865781 147:0.098346666 148:0 149:0.16310713 150:0 151:0.040285494 152:0.013462732 153:0.10067202 154:0.18245719 155:0.015876293 156:0.047507793 157:0 158:0.30495748 159:0 160:0.037983865 161:0.012693574 162:0.18245719 163:0.30495748 164:0.077871077 165:0.23301966 166:0 167:0.14989543 168:0 169:0.22390814 170:0.074826352 171:0.30495748 172:0.30495748 173:0.17470022 174:0.30495748 175:0 176:0.30495748 177:0 178:0.20507048 179:0.068531133 180:0.30495748 181:0.2229851 182:0.032233078 183:0.096453294 184:0 185:0.30405372 186:0 187:0.10437533 188:0.034880497 189:0.2229851 190:0.03858038 191:0.012893232 192:0.038581315 193:0 194:0.12727931 195:0 196:0.041750129 197:0.013952196 198:0.03858038 199:0.30405372 200:0.14973843 201:0.30405372 202:0 203:0.30405372 204:0 205:0.1920305 206:0.064173386 207:0.30405372 208:0.30405372 209:0.040706765 210:0.12181006 211:0 212:0.11946008 213:0 214:0.30405372 215:0.13610366 216:0.30405372 217:0.3061026 218:0.019837663 219:0.059361696 220:0 221:0.3061026 222:0 223:0.1341897 224:0.044843867 225:0.3061026 226:0.3061026 227:0.014221432 228:0.042555828 229:0 230:0.079454973 231:0 232:0.17485186 233:0.058432546 234:0.3061026 235:0.3061026 236:0.034858491 237:0.10430949 238:0 239:0.021940811 240:0 241:0.23787798 242:0.079494648 243:0.3061026 244:0.3061026 245:0.026143866 246:0.078232117 247:0 248:0.003402696 249:0 250:0.067768447 251:0.022647029 252:0.3061026 253:0.27425295 254:0.040701255 255:0.12179349 256:0 257:0.084314212 258:0 259:0.13457681 260:0.044973288 261:0.27425295 262:0.27425295 263:0.11595748 264:0.27425295 265:0 266:0.27425295 267:0 268:0.19552723 269:0.06534189 270:0.27425295 271:0.27425295 272:0.0017857918 273:0.0053437701 274:0 275:0.010082725 276:0 277:0.12360534 278:0.041306738 279:0.27425295 280:0.27425295 281:0.022594715 282:0.067611843 283:0 284:0.27308935 285:0 286:0.20920792 287:0.069913633 288:0.27425295 289:0.2424676 290:0.072789945 291:0.21781524 292:0 293:0.2424676 294:0 295:0.14897302 296:0.049784258 297:0.2424676 298:0.22943436 299:0.021032492 300:0.062937185 301:0 302:0.20248826 303:0 304:0.2424676 305:0.16052179 306:0.22943436 307:0.2424676 308:0.057940692 309:0.17338008 310:0 311:0.2424676 312:0 313:0.17602491 314:0.058824483 315:0.2424676 316:0.23629366 317:0.04450167 318:0.13316548 319:0 320:0.2424676 321:0 322:0.2424676 323:0.12389734 324:0.23629366 
-0.036795243772979283 -0.15383128763247308 1:0.29552847 2:0.14882556 3:0.29552847 4:0 5:0.29552847 6:0 7:0 8:0 9:0.29552847 10:0.29552847 11:0.058003467 12:0.1735685 13:0 14:0 15:0 16:0 17:0 18:0.29552847 19:0.14038837 20:0.065269642 21:0.19531108 22:0 23:0.29552847 24:0 25:0.038070243 26:0.012722407 27:0.14038837 28:0.23380445 29:0.053775933 30:0.16091746 31:0 32:0.087138236 33:0 34:0.29552847 35:0.1164768 36:0.23380445 37:0.11189112 38:0.038226444 39:0.11438789 40:0 41:0.26728517 42:0 43:0.050704338 44:0.016944543 45:0.11189112 46:0.033057392 47:0.10351023 48:0.3097409 49:0 50:0.47198901 51:0 52:0.24932928 53:0.083321683 54:0.033057392 55:0.033982456 56:0.0088319797 57:0.026428552 58:0 59:0.47198901 60:0 61:0.14607544 62:0.048815843 63:0.033982456 64:0 65:0.028921189 66:0.086542882 67:0 68:0.47198901 69:0 70:0 71:0 72:0 73:0.0044317264 74:0.039997607 75:0.11968768 76:0 77:0.45712826 78:0 79:0.11273803 80:0.037675139 81:0.0044317264 82:0.051570006 83:0.010836621 84:0.032427303 85:0 86:0.45712826 87:0 88:0.13422874 89:0.044856939 90:0.051570006 91:0 92:0.013617489 93:0.040748604 94:0 95:0.45712826 96:0 97:0.11158789 98:0.037290715 99:0 100:0.0017655923 101:0.0086692963 102:0.025941843 103:0 104:0.45712826 105:0 106:0.27896976 107:0.093226798 108:0.0017655923 109:0.090476714 110:0.04223413 111:0.12638015 112:0 113:0.35543394 114:0 115:0.045670211 116:0.015262197 117:0.090476714 118:0.1375429 119:0.046242256 120:0.13837399 121:0 122:0.33270249 123:0 124:0.35543394 125:0.1465345 126:0.1375429 127:0.018823111 128:0.04038265 129:0.12083981 130:0 131:0.35543394 132:0 133:0.17663847 134:0.059029613 135:0.018823111 136:0.02509748 137:0.077644303 138:0.23234102 139:0 140:0.35543394 141:0 142:0.35543394 143:0.15541208 144:0.02509748 145:0.025063846 146:0.0091052214 147:0.027246254 148:0 149:0.35355118 150:0 151:0.34067032 152:0.11384605 153:0.025063846 154:0 155:0.00092682551 156:0.0027734155 157:0 158:0.35355118 159:0 160:0.13427906 161:0.0448738 162:0 163:0.0038169313 164:0.065697052 165:0.19659063 166:0 167:0.35355118 168:0 169:0.35355118 170:0.13606718 171:0.0038169313 172:0.029661726 173:0.024245935 174:0.072553076 175:0 176:0.35355118 177:0 178:0.35355118 179:0.16188343 180:0.029661726 181:0 182:0.023417499 183:0.070074081 184:0 185:0.3683266 186:0 187:0.090715706 188:0.030315645 189:0 190:0 191:0.058543749 192:0.17518523 193:0 194:0.3683266 195:0 196:0.084852301 197:0.028356152 198:0 199:0.10854726 200:0.09451665 201:0.28282982 202:0 203:0.3683266 204:0 205:0.32572767 206:0.10885274 207:0.10854726 208:0.095888734 209:0.12191656 210:0.36482081 211:0 212:0.3683266 213:0 214:0.011539564 215:0.0038563295 216:0.095888734 217:0 218:0.054784156 219:0.16393445 220:0 221:0.41739938 222:0 223:0.1132765 224:0.037855115 225:0 226:0.0018733529 227:0.07187175 228:0.21506721 229:0 230:0.41739938 231:0 232:0.25288674 233:0.084510379 234:0.0018733529 235:0.19694775 236:0.050550155 237:0.15126476 238:0 239:0.41739938 240:0 241:0.053271685 242:0.017802462 243:0.19694775 244:0.058124416 245:0.025677158 246:0.07683555 247:0 248:0.41739938 249:0 250:0.10727482 251:0.035849359 252:0.058124416 253:0.0097578298 254:0.051134843 255:0.15301494 256:0 257:0.35457706 258:0 259:0.29801962 260:0.099592939 261:0.0097578298 262:0.079922162 263:0.032500897 264:0.097255073 265:0 266:0.35457706 267:0 268:0.35457706 269:0.14378467 270:0.079922162 271:0.12014268 272:0 273:0 274:0 275:0.35457706 276:0 277:0.31836289 278:0.1063913 279:0.12014268 280:0.093577892 281:0.0039964034 282:0.011958764 283:0 284:0.35457706 285:0 286:0.18897676 287:0.063152745 288:0.093577892 289:0.23997802 290:0.12468921 291:0.30419141 292:0 293:0.30419141 294:0 295:0.30419141 296:0.1349889 297:0.23997802 298:0.17164937 299:0.1327659 300:0.30419141 301:0 302:0.30419141 303:0 304:0.023562146 305:0.0078740763 306:0.17164937 307:0.07650999 308:0.019511905 309:0.058387011 310:0 311:0.10016913 312:0 313:0.044219635 314:0.014777463 315:0.07650999 316:0.1906835 317:0.15057147 318:0.30419141 319:0 320:0.30419141 321:0 322:0.0039270245 323:0.0013123458 324:0.1906835 
-0 -0.033066159041037851 1:0.19854507 2:0.1214989 3:0.28385416 4:0 5:0.28385416 6:0 7:0 8:0 9:0.19854507 10:0.20566747 11:0.039061327 12:0.11688637 13:0 14:0 15:0 16:0 17:0 18:0.20566747 19:0.12891801 20:0.11006515 21:0.28385416 22:0 23:0.28385416 24:0 25:0.029072063 26:0.0097153736 27:0.12891801 28:0.28385416 29:0.099915601 30:0.28385416 31:0 32:0.28385416 33:0 34:0.28385416 35:0.14946397 36:0.28385416 37:0.07072971 38:0.0073936991 39:0.022124769 40:0 41:0.47816345 42:0 43:0.020034375 44:0.0066951532 45:0.07072971 46:0.016605202 47:0 48:0 49:0 50:0.47816345 51:0 52:0.026712494 53:0.0089268684 54:0.016605202 55:0.069061495 56:0.0050915312 57:0.015235744 58:0 59:0.47816345 60:0 61:0.22944713 62:0.076677196 63:0.069061495 64:0 65:0 66:0 67:0 68:0.47816345 69:0 70:0 71:0 72:0 73:0.0054065026 74:0.0059847631 75:0.017908694 76:0 77:0.46806762 78:0 79:0.021525081 80:0.0071933116 81:0.0054065026 82:0.047974579 83:0.029358016 84:0.087850124 85:0 86:0.46806762 87:0 88:0.19062233 89:0.063702784 90:0.047974579 91:0 92:0.016246293 93:0.048615105 94:0 95:0.46806762 96:0 97:0.10739677 98:0.035890114 99:0 100:0 101:0.04316505 102:0.12916605 103:0 104:0.46806762 105:0 106:0.16556051 107:0.055327438 108:0 109:0.038805991 110:0.057712063 111:0.17269583 112:0 113:0.46028051 114:0 115:0.01307328 116:0.0043688607 117:0.038805991 118:0.094742648 119:0.052285492 120:0.1564575 121:0 122:0.46028051 123:0 124:0.23817043 125:0.079592377 126:0.094742648 127:0 128:0.014561087 129:0.043572158 130:0 131:0.46028051 132:0 133:0 134:0 135:0 136:0 137:0.007138636 138:0.021361437 139:0 140:0.46028051 141:0 142:0.026326289 143:0.0087977834 144:0 145:0.027390573 146:0.0030551332 147:0.0091420887 148:0 149:0.40169331 150:0 151:0.22291721 152:0.074495055 153:0.027390573 154:0.0033471494 155:0.0012108452 156:0.0036233107 157:0 158:0.40169331 159:0 160:0.19398291 161:0.064825855 162:0.0033471494 163:0 164:0 165:0 166:0 167:0.40169331 168:0 169:0.14670862 170:0.049027555 171:0 172:0.084262647 173:0.020799952 174:0.062241387 175:0 176:0.40169331 177:0 178:0.40169331 179:0.21922997 180:0.084262647 181:0.0080312109 182:0.039005004 183:0.11671785 184:0 185:0.37527993 186:0 187:0.16035044 188:0.053586368 189:0.0080312109 190:0.0032124838 191:0.050544497 192:0.15124841 193:0 194:0.37527993 195:0 196:0.12101417 197:0.040440813 198:0.0032124838 199:0.16338125 200:0.08555001 201:0.25599828 202:0 203:0.37527993 204:0 205:0.34385762 206:0.11491144 207:0.16338125 208:0.062652603 209:0.090007991 210:0.26933798 211:0 212:0.37527993 213:0 214:0.032072712 215:0.010718138 216:0.062652603 217:0 218:0.049418099 219:0.14787725 220:0 221:0.39369521 222:0 223:0.10831078 224:0.036195613 225:0 226:0 227:0.019767238 228:0.05915089 229:0 230:0.39369521 231:0 232:0.15606603 233:0.052154552 234:0 235:0.077538058 236:0.081668161 237:0.24438131 238:0 239:0.39369521 240:0 241:0.37032023 242:0.12375458 243:0.077538058 244:0.016805677 245:0.032667261 246:0.097752519 247:0 248:0.39369521 249:0 250:0.24312304 251:0.081247494 252:0.016805677 253:0 254:0 255:0 256:0 257:0.35325336 258:0 259:0.3191618 260:0.10665831 261:0 262:0.10288036 263:0.019732976 264:0.059048593 265:0 266:0.15369394 267:0 268:0.35325336 269:0.14435728 270:0.10288036 271:0.058009699 272:0 273:0 274:0 275:0.35325336 276:0 277:0.35325336 278:0.21097048 279:0.058009699 280:0.11047262 281:0 282:0 283:0 284:0.35325336 285:0 286:0.32042402 287:0.10708007 288:0.11047262 289:0.18763833 290:0.060695857 291:0.18162513 292:0 293:0.12042505 294:0 295:0.21041356 296:0.070316702 297:0.18763833 298:0.077546664 299:0.16032764 300:0.35189769 301:0 302:0.35189769 303:0 304:0 305:0 306:0.077546664 307:0.12116305 308:0.044248477 309:0.13240778 310:0 311:0.33138564 312:0 313:0.021198113 314:0.0070840376 315:0.12116305 316:0.18989603 317:0.24764529 318:0.35189769 319:0 320:0.35189769 321:0 322:0 323:0 324:0.18989603 
-0.26138969485254299 -0 1:0.15541022 2:0.31515205 3:0.36851305 4:0 5:0.36851305 6:0 7:0 8:0 9:0.15541022 10:0.096759349 11:0.14531361 12:0.36851305 13:0 14:0.066798732 15:0 16:0 17:0 18:0.096759349 19:0.073129684 20:0.14052151 21:0.36851305 22:0 23:0.36851305 24:0 25:0.038033973 26:0.012710285 27:0.073129684 28:0.20282967 29:0.022210931 30:0.066463329 31:0 32:0.07835719 33:0 34:0 35:0 36:0.20282967 37:0.019606922 38:0.038776152 39:0.11603266 40:0 41:0.45956546 42:0 43:0.013746041 44:0.0045936978 45:0.019606922 46:0 47:0.09681654 48:0.28971106 49:0 50:0.45956546 51:0 52:0.073541254 53:0.024576226 54:0 55:0.048619702 56:0.019320769 57:0.057814885 58:0 59:0.45956546 60:0 61:0 62:0 63:0.048619702 64:0 65:0.050288573 66:0.15048207 67:0 68:0.45956546 69:0 70:0.039405216 71:0.01316853 72:0 73:0.0051650745 74:0.074585214 75:0.22318727 76:0 77:0.45809484 78:0 79:0.13677828 80:0.04570891 81:0.0051650745 82:0.012912688 83:0.047714934 84:0.14278129 85:0 86:0.45809484 87:0 88:0.11547218 89:0.038588792 90:0.012912688 91:0 92:0.023939932 93:0.07163731 94:0 95:0.45809484 96:0 97:0.13097934 98:0.043770999 99:0 100:0 101:0.025495365 102:0.076291695 103:0 104:0.45809484 105:0 106:0.098234497 107:0.032828245 108:0 109:0.068461306 110:0.091676578 111:0.2743305 112:0 113:0.33604667 114:0 115:0.055090729 116:0.018410355 117:0.068461306 118:0.22914951 119:0.060574401 120:0.18126108 121:0 122:0.31293198 123:0 124:0.038449194 125:0.012849046 126:0.22914951 127:0.034636833 128:0.11780139 129:0.33604667 130:0 131:0.33604667 132:0 133:0.066276968 134:0.022148602 135:0.034636833 136:0.11757553 137:0.13300863 138:0.33604667 139:0 140:0.33604667 141:0 142:0.15865666 143:0.053020272 144:0.11757553 145:0.10151397 146:0.0083487434 147:0.024982585 148:0 149:0.39839646 150:0 151:0.041655976 152:0.013920704 153:0.10151397 154:0 155:0.0041130329 156:0.012307764 157:0 158:0.39839646 159:0 160:0.022094786 161:0.007383707 162:0 163:0.050748896 164:0.060983479 165:0.1824858 166:0 167:0.39839646 168:0 169:0.26429123 170:0.088321596 171:0.050748896 172:0.032723695 173:0.053618222 174:0.16044618 175:0 176:0.39839646 177:0 178:0.39839646 179:0.16702148 180:0.032723695 181:0 182:0.015591902 183:0.046656914 184:0 185:0.40354544 186:0 187:0.013406859 188:0.0044803401 189:0 190:0 191:0.052607618 192:0.15742157 193:0 194:0.40354544 195:0 196:0.047941066 197:0.016021099 198:0 199:0.02908691 200:0.12437194 201:0.37216827 202:0 203:0.40354544 204:0 205:0.17572848 206:0.058725528 207:0.02908691 208:0.0025831284 209:0.10910634 210:0.32648727 211:0 212:0.40354544 213:0 214:0.054801207 215:0.01831365 216:0.0025831284 217:0 218:0.034317203 219:0.10268989 220:0 221:0.4770731 222:0 223:0.044092651 224:0.014734988 225:0 226:0 227:0.048240609 228:0.14435418 229:0 230:0.4770731 231:0 232:0.1219098 233:0.040740117 234:0 235:0.012653221 236:0.029985886 237:0.089728892 238:0 239:0.4770731 240:0 241:0.025446601 242:0.0085038068 243:0.012653221 244:0 245:0.0046568238 246:0.013934939 247:0 248:0.4770731 249:0 250:0.13764617 251:0.045998931 252:0 253:0 254:0.057329211 255:0.17155087 256:0 257:0.41312978 258:0 259:0.32600471 260:0.10894518 261:0 262:0.12950349 263:0.081528544 264:0.24396452 265:0 266:0.29984778 267:0 268:0.41312978 269:0.23785643 270:0.12950349 271:0 272:0 273:0 274:0 275:0.41312978 276:0 277:0.23655771 278:0.079053432 279:0 280:0.051801391 281:0.0092448117 282:0.027664002 283:0 284:0.11628193 285:0 286:0.065981045 287:0.022049755 288:0.051801391 289:0.10720626 290:0.14472479 291:0.40084729 292:0 293:0.22712009 294:0 295:0.26545665 296:0.088711172 297:0.10720626 298:0.0095206928 299:0.10513802 300:0.31461251 301:0 302:0.40084729 303:0 304:0.011600357 305:0.0038766456 306:0.0095206928 307:0.042882506 308:0.02887029 309:0.086390741 310:0 311:0.11564961 312:0 313:0.027592951 314:0.0092211021 315:0.042882506 316:0.0038082767 317:0.2069744 318:0.40084729 319:0 320:0.40084729 321:0 322:0 323:0 324:0.0038082767 
-0 -2.7808694355484218e-06 1:0.2486458 2:0.086563811 3:0.25903198 4:0 5:0.11251602 6:0 7:0 8:0 9:0.2486458 10:0.23304136 11:0.22059017 12:0.26113236 13:0 14:0.20610268 15:0 16:0.03882654 17:0.012975147 18:0.23304136 19:0.23551255 20:0.13609535 21:0.26113236 22:0 23:0.26113236 24:0 25:0.16694658 26:0.055790618 27:0.23551255 28:0.26113236 29:0.11457369 30:0.26113236 31:0 32:0.039987415 33:0 34:0.026056651 35:0.0087076752 36:0.26113236 37:0.055953693 38:0.18286711 39:0.4687832 40:0 41:0.3801493 42:0 43:0.071960285 44:0.024047863 45:0.055953693 46:0.028289564 47:0.061507747 48:0.18405405 49:0 50:0.4687832 51:0 52:0.17330298 53:0.057914954 54:0.028289564 55:0.11955657 56:0.062039163 57:0.18564475 58:0 59:0 60:0 61:0.061914597 62:0.020690769 63:0.11955657 64:0.0047144447 65:0.0012834955 66:0.0038407079 67:0 68:0.4687832 69:0 70:0.04450598 71:0.014873141 72:0.0047144447 73:0.042230967 74:0.046601113 75:0.13944776 76:0 77:0.43820667 78:0 79:0.097055823 80:0.032434437 81:0.042230967 82:0.016720772 83:0.077163085 84:0.2309013 85:0 86:0.43820667 87:0 88:0.21784857 89:0.072801173 90:0.016720772 91:0 92:0 93:0 94:0 95:0.43820667 96:0 97:0.016175969 98:0.0054057389 99:0 100:0 101:0.0071934615 102:0.02152558 103:0 104:0.43820667 105:0 106:0.26568821 107:0.088788338 108:0 109:0.021038409 110:0.077482097 111:0.23185556 112:0 113:0.3730092 114:0 115:0.14623769 116:0.048870072 117:0.021038409 118:0.17242822 119:0.099047571 120:0.29638699 121:0 122:0.20101129 123:0 124:0.11287773 125:0.037721757 126:0.17242822 127:0.0031590736 128:0.092940547 129:0.27811274 130:0 131:0.3730092 132:0 133:0.09788876 134:0.032712705 135:0.0031590736 136:0.079170123 137:0.13539426 138:0.3730092 139:0 140:0.3730092 141:0 142:0.1203346 143:0.040213708 144:0.079170123 145:0.14855328 146:0.032868098 147:0.098353505 148:0 149:0.19819652 150:0 151:0.25047377 152:0.083703928 153:0.14855328 154:0.0077214143 155:0 156:0 157:0 158:0.42128998 159:0 160:0.11283604 161:0.03770785 162:0.0077214143 163:0.071967855 164:0.036267694 165:0.10852636 166:0 167:0.42128998 168:0 169:0.33446997 170:0.111774 171:0.071967855 172:0.0053118481 173:0 174:0 175:0 176:0.42128998 177:0 178:0.35140425 179:0.1174333 180:0.0053118481 181:0 182:0 183:0 184:0 185:0.39176914 186:0 187:0.04817554 188:0.01609946 189:0 190:0 191:0.017450357 192:0.052218124 193:0 194:0.39176914 195:0 196:0.039926667 197:0.013342799 198:0 199:0.03836108 200:0.015423332 201:0.046152499 202:0 203:0.39176914 204:0 205:0.36687124 206:0.12260223 207:0.03836108 208:0.064057112 209:0.20843317 210:0.39176914 211:0 212:0.39176914 213:0 214:0.11498971 215:0.038427636 216:0.064057112 217:0 218:0.017861478 219:0.053448178 220:0 221:0.49466321 222:0 223:0.03251721 224:0.01086668 225:0 226:0 227:0.021861028 228:0.065416269 229:0 230:0.49466321 231:0 232:0.035938244 233:0.01200993 234:0 235:0 236:0 237:0 238:0 239:0.49466321 240:0 241:0.038662843 242:0.012920476 243:0 244:0 245:0 246:0 247:0 248:0.49466321 249:0 250:0.06063262 251:0.020262402 252:0 253:0 254:0.0045737233 255:0.013686271 256:0 257:0.37100562 258:0 259:0.21021637 260:0.070250615 261:0 262:0.0094421403 263:0 264:0 265:0 266:0.37100562 267:0 268:0.36328572 269:0.12140387 270:0.0094421403 271:0 272:0 273:0 274:0 275:0.37100562 276:0 277:0.28413495 278:0.094952904 279:0 280:0.0070816036 281:0 282:0 283:0 284:0.37100562 285:0 286:0.37100562 287:0.14829154 288:0.0070816036 289:0.15769766 290:0.036833055 291:0.11021855 292:0 293:0.29005289 294:0 295:0.29005289 296:0.17945762 297:0.15769766 298:0.23655474 299:0.27193359 300:0.29005289 301:0 302:0.29005289 303:0 304:0.21753637 305:0.072697014 306:0.23655474 307:0.10311126 308:0.012749407 309:0.038151089 310:0 311:0.14591025 312:0 313:0.22060958 314:0.073723964 315:0.10311126 316:0.1449642 317:0.11381412 318:0.29005289 319:0 320:0.29005289 321:0 322:0.068004355 323:0.022725916 324:0.1449642 
-0 -0.20979533901190503 1:0.2486458 2:0.086563811 3:0.25903198 4:0 5:0.11251602 6:0 7:0 8:0 9:0.2486458 10:0.23304136 11:0.22059017 12:0.26113236 13:0 14:0.20610268 15:0 16:0.03882654 17:0.012975147 18:0.23304136 19:0.23551255 20:0.13609535 21:0.26113236 22:0 23:0.26113236 24:0 25:0.16694658 26:0.055790618 27:0.23551255 28:0.26113236 29:0.11457369 30:0.26113236 31:0 32:0.039987415 33:0 34:0.026056651 35:0.0087076752 36:0.26113236 37:0.055953693 38:0.18286711 39:0.4687832 40:0 41:0.3801493 42:0 43:0.071960285 44:0.024047863 45:0.055953693 46:0.028289564 47:0.061507747 48:0.18405405 49:0 50:0.4687832 51:0 52:0.17330298 53:0.057914954 54:0.028289564 55:0.11955657 56:0.062039163 57:0.18564475 58:0 59:0 60:0 61:0.061914597 62:0.020690769 63:0.11955657 64:0.0047144447 65:0.0012834955 66:0.0038407079 67:0 68:0.4687832 69:0 70:0.04450598 71:0.014873141 72:0.0047144447 73:0.042230967 74:0.046601113 75:0.13944776 76:0 77:0.43820667 78:0 79:0.097055823 80:0.032434437 81:0.042230967 82:0.016720772 83:0.077163085 84:0.2309013 85:0 86:0.43820667 87:0 88:0.21784857 89:0.072801173 90:0.016720772 91:0 92:0 93:0 94:0 95:0.43820667 96:0 97:0.016175969 98:0.0054057389 99:0 100:0 101:0.0071934615 102:0.02152558 103:0 104:0.43820667 105:0 106:0.26568821 107:0.088788338 108:0 109:0.021038409 110:0.077482097 111:0.23185556 112:0 113:0.3730092 114:0 115:0.14623769 116:0.048870072 117:0.021038409 118:0.17242822 119:0.099047571 120:0.29638699 121:0 122:0.20101129 123:0 124:0.11287773 125:0.037721757 126:0.17242822 127:0.0031590736 128:0.092940547 129:0.27811274 130:0 131:0.3730092 132:0 133:0.09788876 134:0.032712705 135:0.0031590736 136:0.079170123 137:0.13539426 138:0.3730092 139:0 140:0.3730092 141:0 142:0.1203346 143:0.040213708 144:0.079170123 145:0.14855328 146:0.032868098 147:0.098353505 148:0 149:0.19819652 150:0 151:0.25047377 152:0.083703928 153:0.14855328 154:0.0077214143 155:0 156:0 157:0 158:0.42128998 159:0 160:0.11283604 161:0.03770785 162:0.0077214143 163:0.071967855 164:0.036267694 165:0.10852636 166:0 167:0.42128998 168:0 169:0.33446997 170:0.111774 171:0.071967855 172:0.0053118481 173:0 174:0 175:0 176:0.42128998 177:0 178:0.35140425 179:0.1174333 180:0.0053118481 181:0 182:0 183:0 184:0 185:0.39176914 186:0 187:0.04817554 188:0.01609946 189:0 190:0 191:0.017450357 192:0.052218124 193:0 194:0.39176914 195:0 196:0.039926667 197:0.013342799 198:0 199:0.03836108 200:0.015423332 201:0.046152499 202:0 203:0.39176914 204:0 205:0.36687124 206:0.12260223 207:0.03836108 208:0.064057112 209:0.20843317 210:0.39176914 211:0 212:0.39176914 213:0 214:0.11498971 215:0.038427636 216:0.064057112 217:0 218:0.017861478 219:0.053448178 220:0 221:0.49466321 222:0 223:0.03251721 224:0.01086668 225:0 226:0 227:0.021861028 228:0.065416269 229:0 230:0.49466321 231:0 232:0.035938244 233:0.01200993 234:0 235:0 236:0 237:0 238:0 239:0.49466321 240:0 241:0.038662843 242:0.012920476 243:0 244:0 245:0 246:0 247:0 248:0.49466321 249:0 250:0.06063262 251:0.020262402 252:0 253:0 254:0.0045737233 255:0.013686271 256:0 257:0.37100562 258:0 259:0.21021637 260:0.070250615 261:0 262:0.0094421403 263:0 264:0 265:0 266:0.37100562 267:0 268:0.36328572 269:0.12140387 270:0.0094421403 271:0 272:0 273:0 274:0 275:0.37100562 276:0 277:0.28413495 278:0.094952904 279:0 280:0.0070816036 281:0 282:0 283:0 284:0.37100562 285:0 286:0.37100562 287:0.14829154 288:0.0070816036 289:0.15769766 290:0.036833055 291:0.11021855 292:0 293:0.29005289 294:0 295:0.29005289 296:0.17945762 297:0.15769766 298:0.23655474 299:0.27193359 300:0.29005289 301:0 302:0.29005289 303:0 304:0.21753637 305:0.072697014 306:0.23655474 307:0.10311126 308:0.012749407 309:0.038151089 310:0 311:0.14591025 312:0 313:0.22060958 314:0.073723964 315:0.10311126 316:0.1449642 317:0.11381412 318:0.29005289 319:0 320:0.29005289 321:0 322:0.068004355 323:0.022725916 324:0.1449642 
-0 -0.068298603551077461 1:0.27517512 2:0.10077407 3:0.27517512 4:0 5:0.10641758 6:0 7:0 8:0 9:0.27517512 10:0.19035341 11:0.050452281 12:0.15097246 13:0 14:0 15:0 16:0.007980925 17:0.0026670918 18:0.19035341 19:0.27517512 20:0.16269544 21:0.27517512 22:0 23:0.27517512 24:0 25:0.031043723 26:0.010374268 27:0.27517512 28:0.27517512 29:0.074040599 30:0.22155683 31:0 32:0.27517512 33:0 34:0.18626226 35:0.062245581 36:0.27517512 37:0.064314961 38:0.0098501593 39:0.029475365 40:0 41:0.44174156 42:0 43:0.094159059 44:0.031466383 45:0.064314961 46:0.0085103167 47:0.0074465917 48:0.022282954 49:0 50:0.44174156 51:0 52:0.10864522 53:0.036307409 54:0.0085103167 55:0.086142302 56:0.065387227 57:0.19566277 58:0 59:0.44174156 60:0 61:0.16566955 62:0.055363934 63:0.086142302 64:0 65:0.087182954 66:0.26088366 67:0 68:0.44174156 69:0 70:0.12920484 71:0.0431781 72:0 73:0.0087234993 74:0.0075868838 75:0.022702841 76:0 77:0.46562967 78:0 79:0.15124822 80:0.050544508 81:0.0087234993 82:0.046444055 83:0.0089265071 84:0.026711514 85:0 86:0.46562967 87:0 88:0.24329719 89:0.081305698 90:0.046444055 91:0 92:0.015799254 93:0.047277272 94:0 95:0.46562967 96:0 97:0.095218316 98:0.031820305 99:0 100:0 101:0.024360413 102:0.072895445 103:0 104:0.46562967 105:0 106:0.10632174 107:0.035530858 108:0 109:0.09464176 110:0.12243133 111:0.36635977 112:0 113:0.41575885 114:0 115:0.066280238 116:0.022149736 117:0.09464176 118:0.14632507 119:0.04450601 120:0.13317843 121:0 122:0.41575885 123:0 124:0.092978463 125:0.031071778 126:0.14632507 127:0.0090409704 128:0.039122939 129:0.11707031 130:0 131:0.41575885 132:0 133:0.18665825 134:0.062378068 135:0.0090409704 136:0 137:0.0075614946 138:0.022626789 139:0 140:0.41575885 141:0 142:0.070768297 143:0.023649553 144:0 145:0.034380406 146:0.029260356 147:0.0875578 148:0 149:0.3691631 150:0 151:0.21743591 152:0.072663411 153:0.034380406 154:0.0097641721 155:0.043295216 156:0.12955534 157:0 158:0.3691631 159:0 160:0.3094303 161:0.10340645 162:0.0097641721 163:0.0097641721 164:0 165:0 166:0 167:0.3691631 168:0 169:0.17576605 170:0.058738053 171:0.0097641721 172:0.1536379 173:0.039431792 174:0.11799497 175:0 176:0.3691631 177:0 178:0.3691631 179:0.17014372 180:0.1536379 181:0.0067454851 182:0.052968338 183:0.1585014 184:0 185:0.36946306 186:0 187:0.055664551 188:0.018602164 189:0.0067454851 190:0 191:0.077958487 192:0.23328122 193:0 194:0.36946306 195:0 196:0 197:0 198:0 199:0.10794117 200:0.14284262 201:0.36946306 202:0 203:0.36946306 204:0 205:0.18532088 206:0.061931144 207:0.10794117 208:0.0074354159 209:0.11852314 210:0.35466635 211:0 212:0.36946306 213:0 214:0 215:0 216:0.0074354159 217:0.0084631527 218:0.049958814 219:0.14949526 220:0 221:0.40456849 222:0 223:0.077548139 224:0.025915289 225:0.0084631527 226:0 227:0.008326469 228:0.024915874 229:0 230:0.40456849 231:0 232:0.18326443 233:0.061243765 234:0 235:0.055294972 236:0.081294991 237:0.24326469 238:0 239:0.40456849 240:0 241:0.1153111 242:0.038534943 243:0.055294972 244:0 245:0.0083751539 246:0.025061559 247:0 248:0.40456849 249:0 250:0.40456849 251:0.14317326 252:0 253:0.011217387 254:0 255:0 256:0 257:0.35521477 258:0 259:0.23886159 260:0.079823382 261:0.011217387 262:0.20042646 263:0.043926198 264:0.13144395 265:0 266:0.35521477 267:0 268:0.28735894 269:0.096030541 270:0.20042646 271:0 272:0 273:0 274:0 275:0.35521477 276:0 277:0.35521477 278:0.3163203 279:0 280:0.033082109 281:0.003205592 282:0.0095923543 283:0 284:0.13978601 285:0 286:0.32139042 287:0.10740305 288:0.033082109 289:0.15834741 290:0.10667829 291:0.31922215 292:0 293:0.34099075 294:0 295:0.13180313 296:0.044046406 297:0.15834741 298:0.018184215 299:0.16492048 300:0.34099075 301:0 302:0.34099075 303:0 304:0 305:0 306:0.018184215 307:0.052677944 308:0.071060449 309:0.21263923 310:0 311:0.17766531 312:0 313:0.0064632231 314:0.0021598956 315:0.052677944 316:0.021394992 317:0.34099075 318:0.34099075 319:0 320:0.34099075 321:0 322:0 323:0 324:0.021394992 
-0.091752650961519827 -0 1:0.072934881 2:0.10766115 3:0.30591458 4:0 5:0.30591458 6:0 7:0 8:0 9:0.072934881 10:0.15873824 11:0.0019753575 12:0.0059110234 13:0 14:0.010484154 15:0 16:0 17:0 18:0.15873824 19:0.13547845 20:0.13650516 21:0.30591458 22:0 23:0.30591458 24:0 25:0.030551499 26:0.010209775 27:0.13547845 28:0.30591458 29:0.10500016 30:0.30591458 31:0 32:0.30591458 33:0 34:0.30591458 35:0.12045868 36:0.30591458 37:0.094664805 38:0.00952233 39:0.028494336 40:0 41:0.12563968 42:0 43:0.03424738 44:0.011444903 45:0.094664805 46:0.034303032 47:0.057133954 48:0.17096592 49:0 50:0.44537511 51:0 52:0.15277433 53:0.051054627 54:0.034303032 55:0.081115164 56:0.044559013 57:0.13333704 58:0 59:0.44537511 60:0 61:0.20588131 62:0.068801925 63:0.081115164 64:0 65:0.15605842 66:0.44537511 67:0 68:0.44537511 69:0 70:0.030119948 71:0.010065584 72:0 73:0.013002711 74:0.075871564 75:0.22703649 76:0 77:0.3406592 78:0 79:0.14164357 80:0.047334824 81:0.013002711 82:0.11648296 83:0.085916772 84:0.25709575 85:0 86:0.3406592 87:0 88:0.21766308 89:0.072739251 90:0.11648296 91:0 92:0.096639954 93:0.28918314 94:0 95:0.3406592 96:0 97:0.22271053 98:0.074425958 99:0 100:0.026146477 101:0.075120203 102:0.22478829 103:0 104:0.3406592 105:0 106:0.2900553 107:0.09693139 108:0.026146477 109:0.038358893 110:0.057047144 111:0.17070614 112:0 113:0.45931792 114:0 115:0.012922658 116:0.0043185251 117:0.038358893 118:0.093651094 119:0.051683091 120:0.15465492 121:0 122:0.45931792 123:0 124:0.24764851 125:0.082759775 126:0.093651094 127:0 128:0.009165938 129:0.027427873 130:0 131:0.45931792 132:0 133:0 134:0 135:0 136:0 137:0.0049654348 138:0.014858416 139:0 140:0.45931792 141:0 142:0.048414484 143:0.016179271 144:0 145:0.028118938 146:0.0310768 147:0.092993274 148:0 149:0.38954252 150:0 151:0.22944315 152:0.076675907 153:0.028118938 154:0 155:0.077848651 156:0.23295195 157:0 158:0.38954252 159:0 160:0.12771466 161:0.042680107 162:0 163:0 164:0.0073015937 165:0.02184907 166:0 167:0.38954252 168:0 169:0.15452944 170:0.051641122 171:0 172:0.087889403 173:0.029919049 174:0.089529 175:0 176:0.38954252 177:0 178:0.38954252 179:0.19436318 180:0.087889403 181:0 182:0.073694654 183:0.22052225 184:0 185:0.34329903 186:0 187:0.16243866 188:0.054284178 189:0 190:0.012693884 191:0.070933975 192:0.21226147 193:0 194:0.34329903 195:0 196:0.16802256 197:0.056150198 198:0.012693884 199:0.12458234 200:0.090888917 201:0.27197424 202:0 203:0.34329903 204:0 205:0.31931272 206:0.10670896 207:0.12458234 208:0.027853636 209:0.11512522 210:0.34329903 211:0 212:0.34329903 213:0 214:0.02484587 215:0.0083030621 216:0.027853636 217:0.0042203474 218:0.096982092 219:0.29020631 220:0 221:0.41521817 222:0 223:0 224:0 225:0.0042203474 226:0 227:0.024459109 228:0.073190704 229:0 230:0.41521817 231:0 232:0 233:0 234:0 235:0.049410839 236:0.1657639 237:0.41521817 238:0 239:0.38082966 240:0 241:0 242:0 243:0.049410839 244:0 245:0.028943608 246:0.086609982 247:0 248:0.41521817 249:0 250:0.13705175 251:0.045800295 252:0 253:0 254:0 255:0 256:0 257:0.46349582 258:0 259:0.073285043 260:0.024490638 261:0 262:0.17758791 263:0.019349314 264:0.057900529 265:0 266:0.27928701 267:0 268:0.46349582 269:0.19036403 270:0.17758791 271:0 272:0 273:0 274:0 275:0.46349582 276:0 277:0.32896668 278:0.10993489 279:0 280:0.029178644 281:0.0017183593 282:0.0051419865 283:0 284:0.18298398 285:0 286:0.086684026 287:0.028968293 288:0.029178644 289:0.24563825 290:0.083293103 291:0.24924472 292:0 293:0.29351825 294:0 295:0.34447888 296:0.12026495 297:0.24563825 298:0.062549725 299:0.11539116 300:0.34447888 301:0 302:0.34447888 303:0 304:0.022720566 305:0.0075928331 306:0.062549725 307:0.047215283 308:0.027182184 309:0.081339225 310:0 311:0.033722598 312:0 313:0.022720566 314:0.0075928331 315:0.047215283 316:0.015127632 317:0.27778408 318:0.34447888 319:0 320:0.34447888 321:0 322:0.0037867606 323:0.0012654723 324:0.015127632 
-0.094056945384351054 -0.15880628910328773 1:0.080144964 2:0.049420606 3:0.14788523 4:0 5:0.35935777 6:0 7:0 8:0 9:0.080144964 10:0.21810825 11:0.0061402312 12:0.01837386 13:0 14:0.048717499 15:0 16:0.023330655 17:0.0077966955 18:0.21810825 19:0.20185736 20:0.099470571 21:0.2976532 22:0 23:0.35935777 24:0 25:0 26:0 27:0.20185736 28:0.35935777 29:0.036547344 30:0.10936317 31:0 32:0.35935777 33:0 34:0.13998388 35:0.046780154 36:0.35935777 37:0.13909963 38:0.0050352337 39:0.015067281 40:0 41:0.14099029 42:0 43:0.026079794 44:0.0087154144 45:0.13909963 46:0.048908804 47:0.030211389 48:0.090403654 49:0 50:0.44346067 51:0 52:0.037551474 53:0.012549074 54:0.048908804 55:0.16809078 56:0.050753001 57:0.15187173 58:0 59:0.44346067 60:0 61:0.11892725 62:0.039743394 63:0.16809078 64:0 65:0.18985844 66:0.44346067 67:0 68:0.44346067 69:0 70:0 71:0 72:0 73:0.013406314 74:0.017936708 75:0.053673349 76:0 77:0.44852385 78:0 79:0.014027962 80:0.0046879104 81:0.013406314 82:0.25274521 83:0.039904505 84:0.11940949 85:0 86:0.44852385 87:0 88:0.042228416 89:0.014112032 90:0.25274521 91:0 92:0.062045235 93:0.18566234 94:0 95:0.44852385 96:0 97:0 98:0 99:0 100:0.020535979 101:0.014974482 102:0.044809368 103:0 104:0.44852385 105:0 106:0.0070380694 107:0.0023520051 108:0.020535979 109:0.0498273 110:0.076193057 111:0.22799794 112:0 113:0.4597753 114:0 115:0 116:0 117:0.0498273 118:0.11630968 119:0.029951937 120:0.089627281 121:0 122:0.4597753 123:0 124:0.047065776 125:0.015728556 126:0.11630968 127:0.0042143161 128:0.06833189 129:0.20447448 130:0 131:0.4597753 132:0 133:0.0047521074 134:0.0015880708 135:0.0042143161 136:0 137:0.01449683 138:0.043379877 139:0 140:0.4597753 141:0 142:0 143:0 144:0 145:0.036638509 146:0.027222378 147:0.081459418 148:0 149:0.40883431 150:0 151:0.082648292 152:0.027619649 153:0.036638509 154:0 155:0.083129041 156:0.24875285 157:0 158:0.40883431 159:0 160:0.12797675 161:0.0427677 162:0 163:0 164:0.0020350867 165:0.0060897325 166:0 167:0.40883431 168:0 169:0.11605906 170:0.038784996 171:0 172:0.059113663 173:0.024926739 174:0.074590251 175:0 176:0.40883431 177:0 178:0.40883431 179:0.16537413 180:0.059113663 181:0 182:0.057719544 183:0.17271854 184:0 185:0.35979423 186:0 187:0.04069506 188:0.013599609 189:0 190:0.011593898 191:0.065724723 192:0.19667347 193:0 194:0.35979423 195:0 196:0 197:0 198:0.011593898 199:0.088815667 200:0.15911207 201:0.35979423 202:0 203:0.35979423 204:0 205:0.23345573 206:0.078016989 207:0.088815667 208:0.037310582 209:0.19223738 210:0.35979423 211:0 212:0.35979423 213:0 214:0 215:0 216:0.037310582 217:0.099176168 218:0.13071254 219:0.3911404 220:0 221:0.44146925 222:0 223:0.03183528 224:0.010638792 225:0.099176168 226:0 227:0.013488978 228:0.040364008 229:0 230:0.44146925 231:0 232:0.019115128 233:0.0063879401 234:0 235:0.11576591 236:0.071094677 237:0.21274154 238:0 239:0.10731818 240:0 241:0.023876458 242:0.0079790931 243:0.11576591 244:0 245:0.0076374132 246:0.022853965 247:0 248:0.44146925 249:0 250:0.339277 251:0.1133804 252:0 253:0 254:0 255:0 256:0 257:0.39031115 258:0 259:0.081138648 260:0.027115162 261:0 262:0.1780837 263:0.033962943 264:0.10163008 265:0 266:0.39031115 267:0 268:0.39031115 269:0.13533849 270:0.1780837 271:0 272:0 273:0 274:0 275:0.39031115 276:0 277:0.39031115 278:0.19011046 279:0 280:0.061336368 281:0.004366478 282:0.013066169 283:0 284:0.21252422 285:0 286:0.20078982 287:0.067100458 288:0.061336368 289:0.24883506 290:0.17017905 291:0.33259496 292:0 293:0.2834062 294:0 295:0.22852658 296:0.07636977 297:0.24883506 298:0.05306083 299:0.21971987 300:0.33259496 301:0 302:0.33259496 303:0 304:0 305:0 306:0.05306083 307:0.11712848 308:0.018374113 309:0.054982312 310:0 311:0.079593629 312:0 313:0.019452894 314:0.0065008327 315:0.11712848 316:0.074195616 317:0.22345716 318:0.33259496 319:0 320:0.33259496 321:0 322:0 323:0 324:0.074195616 
