svm_type c_svc
kernel_type linear
nr_class 4
total_sv 76
rho -0.052799909384002683 -0.25779816305666453 0.2196622141661424 -0.084011142574900041 0.19512475235460072 0.34615889971689162
label 1 2 4 5
probA -4.5597082052211837 -4.2273529862106676 -4.3099753952047397 -4.7154999574620131 -4.5184859408525577 -4.0935233556209125
probB 0.11189079644329841 -0.088748581479076008 0.057158779467063957 -0.042144109955360602 -0.080846358710593064 0.13878799520080595
nr_sv 14 15 22 25
SV
0 0.14551029823467229 0 1:0.19294506 2:0.047288954 3:0.14150652 4:0 5:0.2815291 6:0 7:0 8:0 9:0.19294506 10:0.25726008 11:0.041099053 12:0.12298371 13:0 14:0.29321152 15:0 16:0 17:0 18:0.25726008 19:0.12283974 20:0.15700391 21:0.29321152 22:0 23:0.29321152 24:0 25:0.011730676 26:0.0039201956 27:0.12283974 28:0.29321152 29:0.098058298 30:0.29321152 31:0 32:0.29321152 33:0 34:0.070384026 35:0.023521163 36:0.29321152 37:0.10297306 38:0.023818016 39:0.071272314 40:0 41:0.30573234 42:0 43:0 44:0 45:0.10297306 46:0 47:0 48:0 49:0 50:0 51:0 52:0 53:0 54:0 55:0.39850339 56:0.087706216 57:0.26244989 58:0 59:0.39850339 60:0 61:0.064477526 62:0.021547314 63:0.39850339 64:0.39850339 65:0.0069001974 66:0.020648021 67:0 68:0 69:0 70:0 71:0 72:0.39850339 73:0 74:0 75:0 76:0 77:0 78:0 79:0 80:0 81:0 82:0.091293201 83:0.014386146 84:0.04304884 85:0 86:0.19885786 87:0 88:0 89:0 90:0.091293201 91:0.40850338 92:0 93:0 94:0 95:0 96:0 97:0 98:0 99:0.40850338 100:0.40850338 101:0.21921089 102:0.40850338 103:0 104:0.23498328 105:0 106:0 107:0 108:0.40850338 109:0.072263777 110:0.11570291 111:0.30015218 112:0 113:0.30015218 114:0 115:0.027900735 116:0.0093239509 117:0.072263777 118:0.30015218 119:0.056445856 120:0.16890717 121:0 122:0.30015218 123:0 124:0.13151051 125:0.043948594 126:0.30015218 127:0.30015218 128:0.030370189 129:0.090878993 130:0 131:0.22814198 132:0 133:0.060360912 134:0.020171558 135:0.30015218 136:0.30015218 137:0.046259511 138:0.1384256 139:0 140:0 141:0 142:0.14680248 143:0.049058829 144:0.30015218 145:0.33997044 146:0.039024994 147:0.11677755 148:0 149:0.074376158 150:0 151:0.062357835 152:0.020838935 153:0.33997044 154:0.33997044 155:0.012430404 156:0.037196428 157:0 158:0 159:0 160:0.01369006 161:0.0045749773 162:0.33997044 163:0.33997044 164:0.022542322 165:0.067455031 166:0 167:0 168:0 169:0.1035614 170:0.034608409 171:0.33997044 172:0.33997044 173:0.045625128 174:0.13652727 175:0 176:0 177:0 178:0.082140319 179:0.027449854 180:0.33997044 181:0.32283935 182:0.0032419884 183:0.0097012287 184:0 185:0 186:0 187:0.018640086 188:0.0062291897 189:0.32283935 190:0.32283935 191:0.070048273 192:0.20961115 193:0 194:0.018751858 195:0 196:0.0031066809 197:0.0010381982 198:0.32283935 199:0.32283935 200:0.01945192 201:0.058207344 202:0 203:0 204:0 205:0.11184047 206:0.037375122 207:0.32283935 208:0.32283935 209:0 210:0 211:0 212:0.23162523 213:0 214:0.19426464 215:0.064919829 216:0.32283935 217:0.36589894 218:0.017862609 219:0.053451534 220:0 221:0.098273858 222:0 223:0.060207475 224:0.020120284 225:0.36589894 226:0.36589894 227:0.044656526 228:0.13362883 229:0 230:0 231:0 232:0.13496405 233:0.045102619 234:0.36589894 235:0.10827932 236:0.038143877 237:0.11414103 238:0 239:0.079967089 240:0 241:0 242:0 243:0.10827932 244:0.36589894 245:0.068224877 246:0.20415485 247:0 248:0.1758277 249:0 250:0.11425526 251:0.038182199 252:0.36589894 253:0.30838472 254:0.01184532 255:0.035445578 256:0 257:0 258:0 259:0.064576611 260:0.021580368 261:0.30838472 262:0.30838472 263:0.03018759 264:0.090332434 265:0 266:0.026552146 267:0 268:0.055351373 269:0.018497458 270:0.30838472 271:0.30838472 272:0.0083505735 273:0.0249881 274:0 275:0.25866833 276:0 277:0.14584994 278:0.04874061 279:0.30838472 280:0.30838472 281:0 282:0 283:0 284:0.30838472 285:0 286:0.16575333 287:0.05539199 288:0.30838472 289:0.30774283 290:0.011492358 291:0.03438938 292:0 293:0.047105853 294:0 295:0.066076279 296:0.022081532 297:0.30774283 298:0.30774283 299:0 300:0 301:0 302:0.30774283 303:0 304:0.2760334 305:0.092245519 306:0.30774283 307:0.23932017 308:0 309:0 310:0 311:0.30774283 312:0 313:0.049654782 314:0.016593799 315:0.23932017 316:0.24323541 317:0 318:0 319:0 320:0.30774283 321:0 322:0.068905376 323:0.023026967 324:0.24323541 
0.0079135155754920875 0 0 1:0 2:0 3:0 4:0 5:0 6:0 7:0 8:0 9:0 10:0 11:0 12:0 13:0 14:0 15:0 16:0 17:0 18:0 19:0.29632774 20:0.28977293 21:0.29632774 22:0 23:0.28785542 24:0 25:0.29632774 26:0.13284372 27:0.29632774 28:0.29133675 29:0.092174828 30:0.27582225 31:0 32:0.29632774 33:0 34:0.29632774 35:0.17712493 36:0.29133675 37:0 38:0 39:0 40:0 41:0 42:0 43:0 44:0 45:0 46:0 47:0 48:0 49:0 50:0 51:0 52:0 53:0 54:0 55:0 56:0 57:0 58:0 59:0.59925145 60:0 61:0.59925145 62:0.52517807 63:0 64:0 65:0 66:0 67:0 68:0 69:0 70:0 71:0 72:0 73:0 74:0 75:0 76:0 77:0 78:0 79:0 80:0 81:0 82:0 83:0 84:0 85:0 86:0 87:0 88:0 89:0 90:0 91:0 92:0 93:0 94:0 95:0 96:0 97:0 98:0 99:0 100:0 101:0 102:0 103:0 104:0 105:0 106:0 107:0 108:0 109:0.06348069 110:0.12789144 111:0.27494919 112:0 113:0.27494919 114:0 115:0.15922071 116:0.053208895 117:0.06348069 118:0.116748 119:0.029144065 120:0.087210149 121:0 122:0.27494919 123:0 124:0.27494919 125:0.098267108 126:0.116748 127:0.20618075 128:0.093697764 129:0.27494919 130:0 131:0.27494919 132:0 133:0.17343622 134:0.057959449 135:0.20618075 136:0.27494919 137:0.05614467 138:0.16800573 139:0 140:0.2163837 141:0 142:0.27494919 143:0.11605703 144:0.27494919 145:0.13692981 146:0 147:0 148:0 149:0.068085767 150:0 151:0.10287964 152:0.034380656 153:0.13692981 154:0.096153684 155:0.0077573461 156:0.02321294 157:0 158:0 159:0 160:0.041477524 161:0.013861095 162:0.096153684 163:0.36491352 164:0.036459994 165:0.10910178 166:0 167:0.047072493 168:0 169:0.36491352 170:0.14297564 171:0.36491352 172:0.36491352 173:0.079779387 174:0.23872995 175:0 176:0 177:0 178:0.36491352 179:0.15241951 180:0.36491352 181:0.12006663 182:0.015170507 183:0.045395944 184:0 185:0 186:0 187:0.013728799 188:0.0045879353 189:0.12006663 190:0.13620202 191:0.0043175654 192:0.012919803 193:0 194:0.024710588 195:0 196:0.02753387 197:0.0092013599 198:0.13620202 199:0.36526874 200:0.11326575 201:0.33893406 202:0 203:0.024710588 204:0 205:0.11251918 206:0.037602004 207:0.36526874 208:0.36526874 209:0.025905386 210:0.077518791 211:0 212:0.36526874 213:0 214:0.31470582 215:0.10516942 216:0.36526874 217:0.36189839 218:0.02725227 219:0.081549063 220:0 221:0.36189839 222:0 223:0.16292068 224:0.054445267 225:0.36189839 226:0.36189839 227:0.11618542 228:0.34766975 229:0 230:0.020163484 231:0 232:0.14981711 233:0.050066344 234:0.36189839 235:0.19316608 236:0.001653965 237:0.0049492749 238:0 239:0.011888877 240:0 241:0.021228733 242:0.0070942701 243:0.19316608 244:0.1814384 245:0.019364234 246:0.05794495 247:0 248:0 249:0 250:0.0053624087 251:0.0017920227 252:0.1814384 253:0.33680856 254:0.061366174 255:0.1836303 256:0 257:0.0018305999 258:0 259:0.33680856 260:0.14248385 261:0.33680856 262:0.33680856 263:0.1170162 264:0.33680856 265:0 266:0 267:0 268:0.33680856 269:0.18806992 270:0.33680856 271:0.067196205 272:0.012090092 273:0.036178026 274:0 275:0 276:0 277:0.086707279 278:0.028976051 279:0.067196205 280:0.14833635 281:0.037379142 282:0.11185221 283:0 284:0 285:0 286:0.13053316 287:0.043621894 288:0.14833635 289:0.36919913 290:0.10331623 291:0.30916086 292:0 293:0.021073222 294:0 295:0.10776938 296:0.036014672 297:0.36919913 298:0.36919913 299:0.012475836 300:0.037332457 301:0 302:0.36919913 303:0 304:0.20705664 305:0.069194876 306:0.36919913 307:0.18774296 308:0.023792095 309:0.071194746 310:0 311:0 312:0 313:0.023450751 314:0.0078368289 315:0.18774296 316:0.18411598 317:0 318:0 319:0 320:0.037593935 321:0 322:0 323:0 324:0.18411598 
0.072482535436996759 0.032024883173017431 0.0019313211348976167 1:0.1551227 2:0 3:0 4:0 5:0.26611385 6:0 7:0.024898507 8:0.0083206436 9:0.1551227 10:0.26611385 11:0.030590961 12:0.091539472 13:0 14:0.26611385 15:0 16:0.22919905 17:0.076594293 18:0.26611385 19:0.16950844 20:0.14580232 21:0.26611385 22:0 23:0.15305695 24:0 25:0.13796742 26:0.046106409 27:0.16950844 28:0.26611385 29:0.12790917 30:0.26611385 31:0 32:0.26611385 33:0 34:0.26611385 35:0.18158422 36:0.26611385 37:0.42327139 38:0.04584834 39:0.1371952 40:0 41:0.083292082 42:0 43:0.3383989 44:0.11308696 45:0.42327139 46:0.42327139 47:0.017795036 48:0.053249326 49:0 50:0 51:0 52:0.16733293 53:0.05591974 54:0.42327139 55:0.059058014 56:0.0086241355 57:0.025806705 58:0 59:0.17151301 60:0 61:0.21744008 62:0.072664835 63:0.059058014 64:0 65:0 66:0 67:0 68:0 69:0 70:0 71:0 72:0 73:0.47883198 74:0.075488001 75:0.225888 76:0 77:0.25504187 78:0 79:0.12014966 80:0.040152013 81:0.47883198 82:0.34804237 83:0.056615982 84:0.16941597 85:0 86:0.34005576 87:0 88:0.090112239 89:0.030114006 90:0.34804237 91:0 92:0 93:0 94:0 95:0 96:0 97:0 98:0 99:0 100:0 101:0 102:0 103:0 104:0 105:0 106:0 107:0 108:0 109:0.044508152 110:0.18350564 111:0.29719445 112:0 113:0.20887299 114:0 115:0.079567313 116:0.026590068 117:0.044508152 118:0.099173956 119:0.10093772 120:0.29719445 121:0 122:0.29719445 123:0 124:0.29719445 125:0.13540967 126:0.099173956 127:0.03430343 128:0.21084294 129:0.29719445 130:0 131:0.29719445 132:0 133:0.045817558 134:0.01531144 135:0.03430343 136:0.15043779 137:0.067345284 138:0.20152275 139:0 140:0.29719445 141:0 142:0.29719445 143:0.11993653 144:0.15043779 145:0.081043698 146:0.017553633 147:0.052527159 148:0 149:0.28650537 150:0 151:0.24859866 152:0.083077505 153:0.081043698 154:0.10901104 155:0.021059591 156:0.063018322 157:0 158:0 159:0 160:0.06874299 161:0.022972761 162:0.10901104 163:0.28650537 164:0.085619003 165:0.25620461 166:0 167:0.28650537 168:0 169:0.28650537 170:0.17030282 171:0.28650537 172:0.28650537 173:0.12970041 174:0.28650537 175:0 176:0 177:0 178:0.28650537 179:0.14570804 180:0.28650537 181:0.11254882 182:0.017558839 183:0.052542739 184:0 185:0 186:0 187:0.05663256 188:0.018925656 189:0.11254882 190:0.1009291 191:0.018768091 192:0.056161288 193:0 194:0 195:0 196:0.081843235 197:0.027350642 198:0.1009291 199:0.32562205 200:0.11228526 201:0.32562205 202:0 203:0 204:0 205:0.32562205 206:0.11676748 207:0.32562205 208:0.32562205 209:0.1260161 210:0.32562205 211:0 212:0.062917508 213:0 214:0.32562205 215:0.19781882 216:0.32562205 217:0.24856465 218:0.070947334 219:0.21230136 220:0 221:0.24856465 222:0 223:0.21357824 224:0.071374096 225:0.24856465 226:0.24856465 227:0.082604982 228:0.2471848 229:0 230:0.062313195 231:0 232:0.24856465 233:0.1109481 234:0.24856465 235:0.24856465 236:0.01801466 237:0.053906564 238:0 239:0.045166377 240:0 241:0.2083845 242:0.069638453 243:0.24856465 244:0.24856465 245:0.086542346 246:0.24856465 247:0 248:0 249:0 250:0.24856465 251:0.10068725 252:0.24856465 253:0.24783754 254:0.099584348 255:0.24783754 256:0 257:0.026321657 258:0 259:0.24783754 260:0.10615631 261:0.24783754 262:0.24783754 263:0.1038 264:0.24783754 265:0 266:0 267:0 268:0.24783754 269:0.11989127 270:0.24783754 271:0.21252704 272:0.083525166 273:0.24783754 274:0 275:0 276:0 277:0.21277389 278:0.071105294 279:0.21252704 280:0.24783754 281:0.076734483 282:0.22961795 283:0 284:0 285:0 286:0.24783754 287:0.08462403 288:0.24783754 289:0.27421552 290:0.091136061 291:0.27271315 292:0 293:0 294:0 295:0.17830858 296:0.059587672 297:0.27421552 298:0.27421552 299:0.08435221 300:0.25241336 301:0 302:0.07389731 303:0 304:0.27421552 305:0.11826323 306:0.27421552 307:0.27421552 308:0.068859279 309:0.20605244 310:0 311:0 312:0 313:0.089267701 314:0.029831698 315:0.27421552 316:0.27421552 317:0.046137068 318:0.13805918 319:0 320:0.021031367 321:0 322:0.17623042 323:0.058893107 324:0.27421552 
0.0019702598749471879 0 0 1:0.099781945 2:0.0955351 3:0.28587744 4:0 5:0.023430323 6:0 7:0.10668269 8:0.035651572 9:0.099781945 10:0.15634608 11:0.041143537 12:0.12311716 13:0 14:0.10901856 15:0 16:0.23551558 17:0.078705378 18:0.15634608 19:0.099206507 20:0.21143557 21:0.33024588 22:0 23:0.33024588 24:0 25:0.15462694 26:0.051673736 27:0.099206507 28:0.25671184 29:0.072479911 30:0.21688755 31:0 32:0.33024588 33:0 34:0.33024588 35:0.14877465 36:0.25671184 37:0.069974765 38:0 39:0 40:0 41:0.15489455 42:0 43:0.12703225 44:0.042452052 45:0.069974765 46:0 47:0 48:0 49:0 50:0 51:0 52:0 53:0 54:0 55:0.36261863 56:0.040794026 57:0.12207128 58:0 59:0.36261863 60:0 61:0.32645985 62:0.10909743 63:0.36261863 64:0.36261863 65:0.1437187 66:0.36261863 67:0 68:0 69:0 70:0 71:0 72:0.36261863 73:0 74:0 75:0 76:0 77:0 78:0 79:0 80:0 81:0 82:0 83:0 84:0 85:0 86:0 87:0 88:0 89:0 90:0 91:0.37826598 92:0.15060332 93:0.37826598 94:0 95:0 96:0 97:0.23641776 98:0.079006866 99:0.37826598 100:0.37826598 101:0.038400047 102:0.11490759 103:0 104:0 105:0 106:0.37826598 107:0.19548593 108:0.37826598 109:0.0080360509 110:0.12500235 111:0.30919996 112:0 113:0.30919996 114:0 115:0.023241796 116:0.0077670189 117:0.0080360509 118:0.22335187 119:0.01435277 120:0.042948961 121:0 122:0.30919996 123:0 124:0.19928421 125:0.066597454 126:0.22335187 127:0.19906582 128:0.11005928 129:0.30919996 130:0 131:0.30919996 132:0 133:0.18875505 134:0.06307862 135:0.19906582 136:0.30919996 137:0.013131397 138:0.039293993 139:0 140:0.11561098 141:0 142:0.13173932 143:0.044025015 144:0.30919996 145:0.28798753 146:0.038078427 147:0.11394518 148:0 149:0.28798753 150:0 151:0.10293455 152:0.03439901 153:0.28798753 154:0.28798753 155:0.10540392 156:0.28798753 157:0 158:0 159:0 160:0 161:0 162:0.28798753 163:0.28798753 164:0.057552375 165:0.17221817 166:0 167:0.039587744 168:0 169:0.039069891 170:0.013056499 171:0.28798753 172:0.28798753 173:0.10481603 174:0.28798753 175:0 176:0 177:0 178:0.015671417 179:0.0052371128 180:0.28798753 181:0.27497396 182:0.077232376 183:0.23110874 184:0 185:0 186:0 187:0.11223389 188:0.037506692 189:0.27497396 190:0.27497396 191:0.027385892 192:0.081948929 193:0 194:0.041737549 195:0 196:0.27497396 197:0.1181516 198:0.27497396 199:0.27497396 200:0.050791755 201:0.15198791 202:0 203:0 204:0 205:0.1359607 206:0.045435693 207:0.27497396 208:0.27497396 209:0.12022361 210:0.27497396 211:0 212:0.16500258 213:0 214:0.22581887 215:0.075464793 216:0.27497396 217:0.3015382 218:0.052868668 219:0.15820275 220:0 221:0.23724554 222:0 223:0.3015382 224:0.10427932 225:0.3015382 226:0.3015382 227:0.032939438 228:0.098566979 229:0 230:0 231:0 232:0.19857347 233:0.066359766 234:0.3015382 235:0.17213331 236:0.03339158 237:0.099920161 238:0 239:0.068762429 240:0 241:0.089147083 242:0.029791387 243:0.17213331 244:0.3015382 245:0.12420899 246:0.3015382 247:0 248:0.09864103 249:0 250:0.098959714 251:0.033070616 252:0.3015382 253:0.29210988 254:0.098632418 255:0.29210988 256:0 257:0 258:0 259:0.01479853 260:0.0049454095 261:0.29210988 262:0.29210988 263:0.13028999 264:0.29210988 265:0 266:0 267:0 268:0.024615591 269:0.0082260994 270:0.29210988 271:0.29210988 272:0.085520543 273:0.25590971 274:0 275:0.11243658 276:0 277:0.20048615 278:0.066999115 279:0.29210988 280:0.18905468 281:0.031475123 282:0.094185211 283:0 284:0.094405241 285:0 286:0.24448523 287:0.081702881 288:0.18905468 289:0.34005526 290:0.090054736 291:0.26947707 292:0 293:0 294:0 295:0.30304348 296:0.10127182 297:0.34005526 298:0.34005526 299:0.20833023 300:0.34005526 301:0 302:0.14378503 303:0 304:0.30481538 305:0.10186396 306:0.34005526 307:0.1003268 308:0.015009121 309:0.044912837 310:0 311:0.030666905 312:0 313:0.10103637 314:0.033764623 315:0.1003268 316:0.11127353 317:0.024420246 318:0.073074408 319:0 320:0 321:0 322:0.050802562 323:0.016977325 324:0.11127353 
0 0.26652982522703572 0.093862910811223291 1:0.017453579 2:0 3:0 4:0 5:0 6:0 7:0 8:0 9:0.017453579 10:0.036903914 11:0 12:0 13:0 14:0.042903211 15:0 16:0 17:0 18:0.036903914 19:0.27361518 20:0.30492327 21:0.32841936 22:0 23:0.077607431 24:0 25:0.17367889 26:0.058040589 27:0.27361518 28:0.32841936 29:0.16114461 30:0.32841936 31:0 32:0.32841936 33:0 34:0.32841936 35:0.19014947 36:0.32841936 37:0.15070565 38:0 39:0 40:0 41:0.18076581 42:0 43:0.30334377 44:0.10137216 45:0.15070565 46:0.33543023 47:0.079540528 48:0.23801465 49:0 50:0.33543023 51:0 52:0.33543023 53:0.28648192 54:0.33543023 55:0.16266654 56:0 57:0 58:0 59:0.33543023 60:0 61:0.21209078 62:0.070877187 63:0.16266654 64:0.043935888 65:0 66:0 67:0 68:0.043009024 69:0 70:0 71:0 72:0.043935888 73:0.27337277 74:0.094766386 75:0.28357607 76:0 77:0.30744389 78:0 79:0.21091364 80:0.07048364 81:0.27337277 82:0.30744389 83:0.13652676 84:0.30744389 85:0 86:0.30744389 87:0 88:0.08716356 89:0.029128565 90:0.30744389 91:0.074504763 92:0 93:0 94:0 95:0.11467668 96:0 97:0 98:0 99:0.074504763 100:0.20299801 101:0.020037103 102:0.059958652 103:0 104:0.30744389 105:0 106:0.057943758 107:0.019363787 108:0.20299801 109:0.070088267 110:0.19053406 111:0.30519131 112:0 113:0.2865907 114:0 115:0.054887444 116:0.018342467 117:0.070088267 118:0.2231729 119:0.084231198 120:0.25205189 121:0 122:0.30519131 123:0 124:0.22890513 125:0.076496273 126:0.2231729 127:0.044048157 128:0.11833095 129:0.30519131 130:0 131:0.30519131 132:0 133:0.020552946 134:0.0068684369 135:0.044048157 136:0.25172347 137:0.042206571 138:0.12629816 139:0 140:0.30519131 141:0 142:0.086560883 143:0.0289272 144:0.25172347 145:0.21187243 146:0.01720275 147:0.05147719 148:0 149:0.30404419 150:0 151:0.18985708 152:0.063447073 153:0.21187243 154:0.18695454 155:0.0085859252 156:0.025692362 157:0 158:0 159:0 160:0.08464919 161:0.028288344 162:0.18695454 163:0.30404419 164:0.043006871 165:0.12869297 166:0 167:0.30404419 168:0 169:0.28804076 170:0.096258409 171:0.30404419 172:0.30404419 173:0.041480597 174:0.12412578 175:0 176:0 177:0 178:0.30404419 179:0.10338637 180:0.30404419 181:0.17218158 182:0.0085404944 183:0.025556417 184:0 185:0 186:0 187:0.043559581 188:0.014556886 189:0.17218158 190:0.13688162 191:0.010854889 192:0.032481968 193:0 194:0.33519098 195:0 196:0.16376872 197:0.054728679 198:0.13688162 199:0.33519098 200:0.051242944 201:0.15333843 202:0 203:0 204:0 205:0.26135737 206:0.087341271 207:0.33519098 208:0.33519098 209:0.0085404916 210:0.025556408 211:0 212:0.25482789 213:0 214:0.33519098 215:0.15557975 216:0.33519098 217:0.32382107 218:0.025887329 219:0.077464767 220:0 221:0.32382107 222:0 223:0.089787096 224:0.030005271 225:0.32382107 226:0.32382107 227:0.007704414 228:0.023054548 229:0 230:0.075183704 231:0 232:0.072519414 233:0.024234733 234:0.32382107 235:0.32382107 236:0 237:0 238:0 239:0.12177556 240:0 241:0.067340307 242:0.02250395 243:0.32382107 244:0.32382107 245:0 246:0 247:0 248:0 249:0 250:0.06989266 251:0.0233569 252:0.32382107 253:0.31224787 254:0.0095209451 255:0.028490299 256:0 257:0.03166106 258:0 259:0.21099047 260:0.070509374 261:0.31224787 262:0.31224787 263:0.044006716 264:0.13168454 265:0 266:0 267:0 268:0.22170924 269:0.074091427 270:0.31224787 271:0.31224787 272:0 273:0 274:0 275:0 276:0 277:0.19279633 278:0.064429149 279:0.31224787 280:0.31224787 281:0.038624689 282:0.11557936 283:0 284:0 285:0 286:0.17845517 287:0.059636589 288:0.31224787 289:0.25777346 290:0.033510666 291:0.10027647 292:0 293:0 294:0 295:0.22843271 296:0.076338276 297:0.25777346 298:0.25777346 299:0.028633829 300:0.085683033 301:0 302:0.15903553 303:0 304:0.25777346 305:0.094541326 306:0.25777346 307:0.25777346 308:0.024519503 309:0.073371425 310:0 311:0 312:0 313:0.25777346 314:0.1260128 315:0.25777346 316:0.25777346 317:0.078919992 318:0.23615782 319:0 320:0.22532097 321:0 322:0.25777346 323:0.14245641 324:0.25777346 
0.019142058351927751 0 0 1:0.11799927 2:0.031176653 3:0.086765721 4:0.06749133 5:0.097810589 6:5.1289033e-05 7:0.0017618818 8:0.00021285393 9:0.071105473 10:0.28594831 11:0.040901437 12:0.1084338 13:0.082263246 14:0.12944819 15:0.022047624 16:0.018107548 17:0.042117268 18:0.28594831 19:0.10536144 20:0.17109701 21:0.28594831 22:0.28594831 23:0.28594831 24:0.0057899533 25:0.01095126 26:0.010424618 27:0.069628969 28:0.28594831 29:0.20390284 30:0.28594831 31:0.28594831 32:0.28594831 33:0.062212445 34:0.05101439 35:0.069249243 36:0.28594831 37:0.29661179 38:0.028383952 39:0.053745277 40:0.066634372 41:0.20842884 42:0.081582859 43:0.058353793 44:0.091749296 45:0.29661179 46:0.016356541 47:0.0034444861 48:0.012397152 49:0.018998465 50:0.12650989 51:0.033361129 52:0.022919899 53:0.018101241 54:0.057171304 55:0.29661179 56:0.2293584 57:0.29661179 58:0.29661179 59:0.29661179 60:0.16580443 61:0.11515096 62:0.13148126 63:0.29661179 64:0.1594924 65:0.05688788 66:0.10986606 67:0.083993599 68:0.29661179 69:0.057482805 70:0.038906444 71:0.03444235 72:0.19149762 73:0.0042277062 74:0 75:0 76:0.00019930951 77:0.013444395 78:0 79:0 80:0 81:0.0042277062 82:0.0049158251 83:0 84:0 85:0 86:0.0043449379 87:0 88:0 89:0 90:0.0049158251 91:0.36591837 92:0.071958512 93:0.22889365 94:0.083778292 95:0.040254496 96:0.0026966387 97:0.11074771 98:0.094433606 99:0.36591837 100:0.36591837 101:0.36591837 102:0.36591837 103:0.11266475 104:0.026864171 105:0.0010786555 106:0.24182282 107:0.18272579 108:0.36591837 109:0.013513518 110:0.16604733 111:0.27490205 112:0.27490205 113:0.27490205 114:0.015955759 115:0.006340506 116:0.010128124 117:0.016042657 118:0.079651438 119:0.10672395 120:0.22967467 121:0.18937406 122:0.27490205 123:0.065132946 124:0.06874112 125:0.02135816 126:0.12964679 127:0.21159355 128:0.11336376 129:0.27490205 130:0.26796505 131:0.27490205 132:0.071813747 133:0.031513039 134:0.04243324 135:0.21369907 136:0.27490205 137:0.011412176 138:0.031895533 139:0.033740912 140:0.20780569 141:0.031963017 142:0.046109546 143:0.0056462288 144:0.27490205 145:0.23312755 146:0.066257328 147:0.11046279 148:0.072627187 149:0.33366004 150:0.069962122 151:0.07780382 152:0.02488268 153:0.30586869 154:0.33366004 155:0.020247605 156:0.052571796 157:0.02338931 158:0.082334675 159:0.014479489 160:0.016590957 161:0.013031877 162:0.33366004 163:0.33366004 164:0 165:0 166:0.00018195048 167:0.1422987 168:0.031847313 169:0.05278983 170:0.0095017739 171:0.33366004 172:0.33366004 173:0.00072419358 174:0.018696893 175:0.0027040127 176:0.014893822 177:0.0054420615 178:0.0095958468 179:0.0053983275 180:0.33366004 181:0.30982441 182:0.04424401 183:0.12602314 184:0.029075263 185:0.0034365 186:0.0023042362 187:0.053522389 188:0.032591838 189:0.30982441 190:0.30982441 191:0.2104737 192:0.21699485 193:0.048233904 194:0.0068432023 195:0.0070829908 196:0.1224703 197:0.069543131 198:0.30982441 199:0.30982441 200:0.035221476 201:0.087674014 202:0.013017901 203:0.0046813707 204:0.0031737455 205:0.033675779 206:0.017521137 207:0.30982441 208:0.30982441 209:0.15193592 210:0.22389242 211:0.029951794 212:0.010950116 213:0.011537425 214:0.079863168 215:0.037296604 216:0.30982441 217:0.34977582 218:0.022902595 219:0.063099928 220:0.070364021 221:0.24023899 222:0.11164375 223:0.050613653 224:0.10219759 225:0.34977582 226:0.34977582 227:0.00022884888 228:0.0015381001 229:0.0055759423 230:0.010348418 231:0.00095874787 232:0.00046871498 233:0.00070986408 234:0.34977582 235:0.28973961 236:0 237:0 238:0 239:0.014639937 240:0.026378609 241:0.0099987751 242:0.039186712 243:0.28838712 244:0.34977582 245:0 246:0 247:0 248:0 249:0 250:0 251:0 252:0.34977582 253:0.36072764 254:0 255:0 256:2.2121252e-05 257:0.0054047666 258:2.4482701e-05 259:1.1969164e-05 260:0 261:0.36072764 262:0.36072764 263:0 264:0 265:0.00014954511 266:0.0013093706 267:0 268:0 269:0.0001989423 270:0.36072764 271:0.32834318 272:0 273:0 274:0 275:0 276:0 277:0 278:0 279:0.32834318 280:0.36072764 281:0 282:0 283:0 284:0 285:0 286:0 287:0 288:0.36072764 289:0.3524853 290:0.0011408707 291:0 292:0.00078750105 293:0.0022199256 294:0.00090640737 295:0 296:0.00088513229 297:0.3524853 298:0.3524853 299:0.042150296 300:0.13478391 301:0.0021693683 302:0.0048445305 303:0.0029920591 304:0 305:0.00080543658 306:0.3524853 307:0.33942652 308:0 309:0 310:0 311:0 312:0 313:0 314:0 315:0.33850965 316:0.3524853 317:0.014427993 318:0.031574469 319:0 320:0.0030372019 321:0 322:0 323:0 324:0.3524853 
0.063033266129244744 0 0.0044951898801313143 1:0.080893323 2:0.095834263 3:0.28677264 4:0 5:0.023503693 6:0 7:0.13108577 8:0.04380668 9:0.080893323 10:0.081366315 11:0.041272372 12:0.12350269 13:0 14:0.052025396 15:0 16:0.29642564 17:0.099060498 18:0.081366315 19:0.063077286 20:0.23540811 21:0.3198438 22:0 23:0.3198438 24:0 25:0.22527809 26:0.075284183 27:0.063077286 28:0.16512822 29:0.1266136 30:0.3198438 31:0 32:0.3198438 33:0 34:0.3198438 35:0.20048821 36:0.16512822 37:0.019492103 38:0 39:0 40:0 41:0.092479132 42:0 43:0.2273314 44:0.075970359 45:0.019492103 46:0 47:0 48:0 49:0 50:0 51:0 52:0 53:0 54:0 55:0.35580796 56:0.069650322 57:0.20841949 58:0 59:0.35580796 60:0 61:0.35580796 62:0.17648582 63:0.35580796 64:0.35580796 65:0.095427826 66:0.28555644 67:0 68:0 69:0 70:0 71:0 72:0.35580796 73:0 74:0 75:0 76:0 77:0 78:0 79:0 80:0 81:0 82:0 83:0 84:0 85:0 86:0 87:0 88:0 89:0 90:0 91:0.36039403 92:0.15592405 93:0.36039403 94:0 95:0 96:0 97:0 98:0 99:0.36039403 100:0.36039403 101:0.15226385 102:0.36039403 103:0 104:0.11641402 105:0 106:0.36039403 107:0.16175111 108:0.36039403 109:0.0095497174 110:0.13940121 111:0.29572123 112:0 113:0.29572123 114:0 115:0.05869605 116:0.019615239 117:0.0095497174 118:0.29572123 119:0.05246675 120:0.15700008 121:0 122:0.29572123 123:0 124:0.23457034 125:0.078389496 126:0.29572123 127:0.18560696 128:0.097807869 129:0.29267848 130:0 131:0.29572123 132:0 133:0.068314783 134:0.022829607 135:0.18560696 136:0.29572123 137:0.01841151 138:0.055094048 139:0 140:0.097581841 141:0 142:0.053735595 143:0.01795754 144:0.29572123 145:0.32772747 146:0.01508844 147:0.045150191 148:0 149:0.1913743 150:0 151:0.079718605 152:0.026640626 153:0.32772747 154:0.32772747 155:0.064823546 156:0.19397677 157:0 158:0 159:0 160:0 161:0 162:0.32772747 163:0.32772747 164:0.02899888 165:0.086775377 166:0 167:0.022968631 168:0 169:0.021052666 170:0.0070354496 171:0.32772747 172:0.32772747 173:0.063633896 174:0.19041644 175:0 176:0 177:0 178:0 179:0 180:0.32772747 181:0.26353279 182:0.087393567 183:0.26151493 184:0 185:0 186:0 187:0 188:0 189:0.26353279 190:0.26353279 191:0.06878943 192:0.20584418 193:0 194:0.24101944 195:0 196:0.22645597 197:0.075677797 198:0.26353279 199:0.26353279 200:0.06998305 201:0.20941548 202:0 203:0 204:0 205:0 206:0 207:0.26353279 208:0.26353279 209:0.11305893 210:0.26353279 211:0 212:0.26353279 213:0 214:0.052850276 215:0.017661678 216:0.26353279 217:0.30443773 218:0.018537553 219:0.055471431 220:0 221:0.040361766 222:0 223:0.10115238 224:0.033803351 225:0.30443773 226:0.30443773 227:0.03750737 228:0.11223593 229:0 230:0 231:0 232:0 233:0 234:0.30443773 235:0.29138762 236:0.028832857 237:0.086278848 238:0 239:0.10964584 240:0 241:0.034475725 242:0.011521181 243:0.29138762 244:0.30443773 245:0.18248622 246:0.30443773 247:0 248:0.30443773 249:0 250:0.017429739 251:0.0058247279 252:0.30443773 253:0.30997679 254:0.078436889 255:0.2347122 256:0 257:0 258:0 259:0 260:0 261:0.30997679 262:0.30997679 263:0.067309164 264:0.20141391 265:0 266:0 267:0 268:0 269:0 270:0.30997679 271:0.30997679 272:0.13742775 273:0.30997679 274:0 275:0.30997679 276:0 277:0.050344568 278:0.016824314 279:0.30997679 280:0.21188773 281:0.019170661 282:0.057365738 283:0 284:0.079192631 285:0 286:0.020137828 287:0.0067297262 288:0.21188773 289:0.37858814 290:0.12955114 291:0.37858814 292:0 293:0 294:0 295:0 296:0 297:0.37858814 298:0.37858814 299:0.16967589 300:0.37858814 301:0 302:0.12809743 303:0 304:0 305:0 306:0.37858814 307:0.16572715 308:0.021591857 309:0.064610817 310:0 311:0 312:0 313:0 314:0 315:0.16572715 316:0.084598757 317:0.0061450982 318:0.018388407 319:0 320:0 321:0 322:0 323:0 324:0.084598757 
0.18411699400308701 0.50861693526111429 0.41037530631955632 1:0.014966146 2:0.017240118 3:0.051589008 4:0 5:0.077823587 6:0 7:0 8:0 9:0.014966146 10:0.19488144 11:0.053278115 12:0.15942845 13:0 14:0.38056993 15:0 16:0.098892726 17:0.033048216 18:0.19488144 19:0.087143578 20:0.07926359 21:0.23718688 22:0 23:0.38056993 24:0 25:0 26:0 27:0.087143578 28:0.30621406 29:0.13413882 30:0.38056993 31:0 32:0.38056993 33:0 34:0.090274692 35:0.030168248 36:0.30621406 37:0.15042643 38:0.010448816 39:0.031266838 40:0 41:0.26245522 42:0 43:0.2192357 44:0.073264748 45:0.15042643 46:0.21760537 47:0 48:0 49:0 50:0.26245522 51:0 52:0.26245522 53:0.11783858 54:0.21760537 55:0.23112863 56:0.036178418 57:0.10825963 58:0 59:0.26245522 60:0 61:0.22659102 62:0.075722814 63:0.23112863 64:0.26245522 65:0.06524954 66:0.19525154 67:0 68:0.26245522 69:0 70:0.26245522 71:0.13646242 72:0.26245522 73:0.18505633 74:0.0066063548 75:0.019768732 76:0 77:0.34957352 78:0 79:0.15163338 80:0.050673246 81:0.18505633 82:0.13433912 83:0.063049957 84:0.18866949 85:0 86:0.34957352 87:0 88:0.056398522 89:0.018847443 90:0.13433912 91:0.1971876 92:0.076569535 93:0.22912523 94:0 95:0.34957352 96:0 97:0.21598601 98:0.072178826 99:0.1971876 100:0.054866496 101:0.11650589 102:0.34862986 103:0 104:0.34957352 105:0 106:0.066313989 107:0.022161027 108:0.054866496 109:0.060569447 110:0.048041992 111:0.14375995 112:0 113:0.33314839 114:0 115:0 116:0 117:0.060569447 118:0.25950852 119:0.061354145 120:0.18359499 121:0 122:0.33314839 123:0 124:0.035727467 125:0.011939523 126:0.25950852 127:0.024629265 128:0.02459171 129:0.073587544 130:0 131:0.33314839 132:0 133:0.19070928 134:0.063731693 135:0.024629265 136:0.24593657 137:0.13032168 138:0.33314839 139:0 140:0.33314839 141:0 142:0.21673879 143:0.072430305 144:0.24593657 145:0.24911009 146:0.050369266 147:0.15072405 148:0 149:0.24911009 150:0 151:0.1434442 152:0.047936648 153:0.24911009 154:0.24911009 155:0.11382822 156:0.24911009 157:0 158:0.12562902 159:0 160:0.24911009 161:0.094542265 162:0.24911009 163:0.24911009 164:0.089978047 165:0.24911009 166:0 167:0.013315665 168:0 169:0.20140663 170:0.067306571 171:0.24911009 172:0.24037442 173:0.046220005 174:0.13830753 175:0 176:0.1240828 177:0 178:0.24911009 179:0.15329684 180:0.24037442 181:0.19916251 182:0.10426124 183:0.3119894 184:0 185:0.35437182 186:0 187:0.23100823 188:0.077199087 189:0.19916251 190:0.086625114 191:0.11481593 192:0.34357259 193:0 194:0.35437182 195:0 196:0.14442123 197:0.048263162 198:0.086625114 199:0.10592657 200:0.019626498 201:0.058729872 202:0 203:0.18114425 204:0 205:0.22975323 206:0.076779552 207:0.10592657 208:0.10716388 209:0.070737429 210:0.21167262 211:0 212:0.35437182 213:0 214:0.1076832 215:0.035985917 216:0.10716388 217:0.12357897 218:0.061185516 219:0.18308969 220:0 221:0.3259832 222:0 223:0.3259832 224:0.17771548 225:0.12357897 226:0.3259832 227:0.32411131 228:0.3259832 229:0 230:0.28196356 231:0 232:0.3259832 233:0.19126874 234:0.3259832 235:0.049431585 236:0.0080366144 237:0.024048526 238:0 239:0 240:0 241:0.059396956 242:0.019849421 243:0.049431585 244:0.092183836 245:0.028718419 246:0.085936137 247:0 248:0 249:0 250:0.05974425 251:0.019965481 252:0.092183836 253:0.31219614 254:0.13653168 255:0.31219614 256:0 257:0.03032417 258:0 259:0.27927291 260:0.093328096 261:0.31219614 262:0.25887528 263:0.051617518 264:0.1544587 265:0 266:0.31219614 267:0 268:0.31219614 269:0.31219614 270:0.25887528 271:0.023258083 272:0.0068328273 273:0.020446345 274:0 275:0.012129666 276:0 277:0.0085827773 278:0.0028682135 279:0.023258083 280:0.086189322 281:0.010961912 282:0.032802094 283:0 284:0.10100424 285:0 286:0.31219614 287:0.14059162 288:0.086189322 289:0.21701495 290:0.052385069 291:0.15675551 292:0 293:0.14909007 294:0 295:0.26315489 296:0.17140105 297:0.21701495 298:0.26315489 299:0.17067474 300:0.26315489 301:0 302:0.26315489 303:0 304:0.054117128 305:0.018085014 306:0.26315489 307:0.23964648 308:0.050668083 309:0.15161765 310:0 311:0.037984252 312:0 313:0.26315489 314:0.10154515 315:0.23964648 316:0.26315489 317:0.10477736 318:0.26315489 319:0 320:0.066351116 321:0 322:0.030958323 323:0.010345729 324:0.26315489 
0.049528358994647491 0.029154872099214902 0.054472679162105873 1:0.098820522 2:0.11340939 3:0.31575951 4:0 5:0.1866975 6:0 7:0.060882077 8:0.020345775 9:0.098820522 10:0.18536845 11:0.063267209 12:0.18931963 13:0 14:0.31575951 15:0 16:0.21308728 17:0.071210198 18:0.18536845 19:0.13297629 20:0.16312766 21:0.31575951 22:0 23:0.31575951 24:0 25:0.03044104 26:0.010172888 27:0.13297629 28:0.16819009 29:0.060653709 30:0.18149902 31:0 32:0.31575951 33:0 34:0.31575951 35:0.10956226 36:0.16819009 37:0.075515494 38:0 39:0 40:0 41:0.30589464 42:0 43:0.10299195 44:0.034418188 45:0.075515494 46:0.049004823 47:0 48:0 49:0 50:0 51:0 52:0 53:0 54:0.049004823 55:0.30589464 56:0.096844628 57:0.28979605 58:0 59:0.30589464 60:0 61:0.29063416 62:0.097125068 63:0.30589464 64:0.30589464 65:0.15960592 66:0.30589464 67:0 68:0 69:0 70:0.30172727 71:0.10083221 72:0.30589464 73:0.05840867 74:0.01193626 75:0.035717841 76:0 77:0 78:0 79:0.0061661438 80:0.0020606222 81:0.05840867 82:0.1033344 83:0.021349426 84:0.063885622 85:0 86:0 87:0 88:0.072191775 89:0.024125282 90:0.1033344 91:0.32087758 92:0.20702477 93:0.32087758 94:0 95:0 96:0 97:0.32087758 98:0.120354 99:0.32087758 100:0.32087758 101:0.19623762 102:0.32087758 103:0 104:0.071571082 105:0 106:0.32087758 107:0.17929837 108:0.32087758 109:0.072772428 110:0.094179943 111:0.28182232 112:0 113:0.3049894 114:0 115:0.012311793 116:0.0041143852 117:0.072772428 118:0.13437757 119:0.022188826 120:0.066397429 121:0 122:0.3049894 123:0 124:0.25340113 125:0.084682435 126:0.13437757 127:0.3049894 128:0.043162793 129:0.1291593 130:0 131:0.3049894 132:0 133:0.3049894 134:0.11321156 135:0.3049894 136:0.3049894 137:0.030773116 138:0.092084564 139:0 140:0 141:0 142:0.022503857 143:0.007520413 144:0.3049894 145:0.27711579 146:0.066998221 147:0.20048422 148:0 149:0.16087872 150:0 151:0.160128 152:0.053512104 153:0.27711579 154:0.28462145 155:0.093832433 156:0.2807824 157:0 158:0 159:0 160:0.16366212 161:0.054693148 162:0.28462145 163:0.28462145 164:0.053648554 165:0.16053638 166:0 167:0 168:0 169:0.014220527 170:0.004752263 171:0.28462145 172:0.28462145 173:0.10785908 174:0.28462145 175:0 176:0 177:0 178:0.1324641 179:0.044267178 180:0.28462145 181:0.2584103 182:0.091028206 183:0.25923085 184:0 185:0 186:0 187:0.16199514 188:0.054136068 189:0.2584103 190:0.25923085 191:0.10930736 192:0.25923085 193:0 194:0.13803138 195:0 196:0.18267733 197:0.061047692 198:0.25923085 199:0.25923085 200:0.11125859 201:0.25923085 202:0 203:0 204:0 205:0.11502706 206:0.038440023 207:0.25923085 208:0.25923085 209:0.15137918 210:0.25923085 211:0 212:0.1255959 213:0 214:0.13584928 215:0.045398451 216:0.25923085 217:0.28559914 218:0.03008973 219:0.090039715 220:0 221:0.058099501 222:0 223:0.20183425 224:0.067449465 225:0.28559914 226:0.28559914 227:0.099304825 228:0.28559914 229:0 230:0.062953867 231:0 232:0.040238734 233:0.013447112 234:0.28559914 235:0.11288651 236:0.086918481 237:0.26009324 238:0 239:0.26318607 240:0 241:0.012430687 242:0.0041541173 243:0.11288651 244:0.26188192 245:0.20587793 246:0.28559914 247:0 248:0.28559914 249:0 250:0.053651631 251:0.017929481 252:0.26188192 253:0.27585277 254:0.062640138 255:0.18744284 256:0 257:0.019732114 258:0 259:0.11360148 260:0.037963718 261:0.27585277 262:0.27585277 263:0.059553895 264:0.17820726 265:0 266:0.056446858 267:0 268:0.19876224 269:0.066422954 270:0.27585277 271:0.27585277 272:0.062266387 273:0.18632475 274:0 275:0.093391836 276:0 277:0.15981649 278:0.053407997 279:0.27585277 280:0.27585277 281:0.0024318576 282:0.0072770463 283:0 284:0.27585277 285:0 286:0.27585277 287:0.15596019 288:0.27585277 289:0.27289507 290:0.10734425 291:0.27289507 292:0 293:0.073470384 294:0 295:0.19713372 296:0.065878674 297:0.27289507 298:0.27289507 299:0.09544386 300:0.27289507 301:0 302:0.031308956 303:0 304:0.097185694 305:0.032477751 306:0.27289507 307:0.27289507 308:0.020393513 309:0.061025172 310:0 311:0.27289507 312:0 313:0.27289507 314:0.20784965 315:0.27289507 316:0.19642209 317:0.015295135 318:0.045768876 319:0 320:0.18009694 321:0 322:0.10635784 323:0.035543013 324:0.19642209 
0 0 0.082267832619508457 1:0.24634992 2:0.1071716 3:0.26929867 4:0 5:0.26929867 6:0 7:0.10790257 8:0.036059231 9:0.24634992 10:0.12180503 11:0.038728766 12:0.11589113 13:0 14:0.13764957 15:0 16:0.15479892 17:0.051731221 18:0.12180503 19:0.26929867 20:0.16000046 21:0.26929867 22:0 23:0.26929867 24:0 25:0.24745065 26:0.08269383 27:0.26929867 28:0.16567636 29:0.051560577 30:0.15428886 31:0 32:0.26929867 33:0 34:0.26595256 35:0.088876896 36:0.16567636 37:0.084629819 38:0 39:0 40:0 41:0.18733464 42:0 43:0.15363704 44:0.051342931 45:0.084629819 46:0.17231342 47:0.019987268 48:0.059809532 49:0 50:0.39333472 51:0 52:0.28683898 53:0.09585654 54:0.17231342 55:0.30437648 56:0.021277837 57:0.063671418 58:0 59:0.39333472 60:0 61:0.39333472 62:0.13682149 63:0.30437648 64:0.19555506 65:0.0035463062 66:0.010611901 67:0 68:0.077707469 69:0 70:0.096186668 71:0.032143954 72:0.19555506 73:0.28291169 74:0.051807102 75:0.15502615 76:0 77:0.28291169 78:0 79:0.28291169 80:0.12365806 81:0.28291169 82:0.28291169 83:0.16520204 84:0.28291169 85:0 86:0.28291169 87:0 88:0.28291169 89:0.14203718 90:0.28291169 91:0.17948274 92:0.013661656 93:0.040880725 94:0 95:0.093381353 96:0 97:0.050385118 98:0.01683782 99:0.17948274 100:0.19465968 101:0.052503675 102:0.15711042 103:0 104:0.068601653 105:0 106:0.037788834 107:0.012628364 108:0.19465968 109:0.18652104 110:0.096192062 111:0.28784308 112:0 113:0.32975426 114:0 115:0.13825068 116:0.046201039 117:0.18652104 118:0.26014093 119:0.052419793 120:0.15686001 121:0 122:0.33837759 123:0 124:0.17452241 125:0.058322467 126:0.26014093 127:0.12786779 128:0 129:0 130:0 131:0.10136177 132:0 133:0 134:0 135:0.12786779 136:0.33837759 137:0.024881514 138:0.074454986 139:0 140:0.33326858 141:0 142:0.064912982 143:0.021692833 144:0.33837759 145:0.2851848 146:0.030218421 147:0.090425044 148:0 149:0.29078159 150:0 151:0.22790453 152:0.076161884 153:0.2851848 154:0.29078159 155:0.032579083 156:0.097489029 157:0 158:0 159:0 160:0.18123977 161:0.060567304 162:0.29078159 163:0.29078159 164:0.022663813 165:0.067818776 166:0 167:0.10752204 168:0 169:0.17550343 170:0.058650311 171:0.29078159 172:0.29078159 173:0.057047073 174:0.17070641 175:0 176:0 177:0 178:0.20193768 179:0.067484193 180:0.29078159 181:0.29393265 182:0.026582692 183:0.07954555 184:0 185:0 186:0 187:0.1074828 188:0.035918951 189:0.29393265 190:0.29393265 191:0.030154714 192:0.090234406 193:0 194:0.0085233888 195:0 196:0.23152941 197:0.077373266 198:0.29393265 199:0.29393265 200:0.048393853 201:0.14481272 202:0 203:0 204:0 205:0.19891217 206:0.066473074 207:0.29393265 208:0.29393265 209:0.055412285 210:0.16581453 211:0 212:0.13112614 213:0 214:0.29393265 215:0.12587789 216:0.29393265 217:0.21397023 218:0 219:0 220:0 221:0.29827908 222:0 223:0.082045808 224:0.027418338 225:0.21397023 226:0.29827908 227:0 228:0 229:0 230:0.1857667 231:0 232:0.081587985 233:0.027265342 234:0.29827908 235:0.25147459 236:0 237:0 238:0 239:0.29827908 240:0 241:0.18640429 242:0.062293202 243:0.25147459 244:0.29827908 245:0 246:0 247:0 248:0.29827908 249:0 250:0.24761702 251:0.082749479 252:0.29827908 253:0.32622698 254:0 255:0 256:0 257:0.027870132 258:0 259:0.015893942 260:0.00531149 261:0.32622698 262:0.32622698 263:0.048569083 264:0.14533673 265:0 266:0 267:0 268:0.064189501 269:0.021451019 270:0.32622698 271:0.32622698 272:0 273:0 274:0 275:0.32622698 276:0 277:0.074650414 278:0.024946922 279:0.32622698 280:0.32622698 281:0.017231189 282:0.051562089 283:0 284:0.015654994 285:0 286:0.019168224 287:0.0064056846 288:0.32622698 289:0.30736321 290:0.043084119 291:0.12892367 292:0 293:0 294:0 295:0.20662686 296:0.069051087 297:0.30736321 298:0.30736321 299:0.069855846 300:0.20903462 301:0 302:0.12195897 303:0 304:0.24608275 305:0.082236595 306:0.30736321 307:0.30736321 308:0.014892701 309:0.044564474 310:0 311:0 312:0 313:0.09176752 314:0.030667095 315:0.30736321 316:0.30736321 317:0.040966421 318:0.12258668 319:0 320:0.0084793586 321:0 322:0.12032603 323:0.040210847 324:0.30736321 
0 0 0.036241098989186149 1:0 2:0 3:0 4:0 5:0 6:0 7:0 8:0 9:0 10:0.38128501 11:0 12:0 13:0 14:0.395336 15:0 16:0 17:0 18:0.38128501 19:0.34381866 20:0 21:0 22:0 23:0 24:0 25:0 26:0 27:0.34381866 28:0.395336 29:0 30:0 31:0 32:0 33:0 34:0 35:0 36:0.395336 37:0.4356094 38:0 39:0 40:0 41:0.40963912 42:0 43:0 44:0 45:0.4356094 46:0.4356094 47:0 48:0 49:0 50:0.16145054 51:0 52:0 53:0 54:0.4356094 55:0.14621203 56:0 57:0 58:0 59:0 60:0 61:0 62:0 63:0.14621203 64:0 65:0 66:0 67:0 68:0 69:0 70:0 71:0 72:0 73:0.41136536 74:0 75:0 76:0 77:0.41136536 78:0 79:0 80:0 81:0.41136536 82:0.39937755 83:0 84:0 85:0 86:0.41136536 87:0 88:0 89:0 90:0.39937755 91:0 92:0 93:0 94:0 95:0 96:0 97:0 98:0 99:0 100:0 101:0 102:0 103:0 104:0 105:0 106:0 107:0 108:0 109:0.077311158 110:0.057933919 111:0.17336033 112:0 113:0.057942979 114:0 115:0 116:0 117:0.077311158 118:0.25802013 119:0.081569478 120:0.24408664 121:0 122:0.10695463 123:0 124:0.078250363 125:0.026149964 126:0.25802013 127:0.077014379 128:0.25786033 129:0.31058824 130:0 131:0.31058824 132:0 133:0 134:0 135:0.077014379 136:0.31058824 137:0.2475924 138:0.31058824 139:0 140:0.31058824 141:0 142:0.1043338 143:0.034866612 144:0.31058824 145:0.15098511 146:0.037423979 147:0.11198645 148:0 149:0.15940465 150:0 151:0.090327159 152:0.030185826 153:0.15098511 154:0 155:0 156:0 157:0 158:0.026567439 159:0 160:0 161:0 162:0 163:0.37960717 164:0.13599563 165:0.37960717 166:0 167:0.37960717 168:0 169:0.1204362 170:0.040247764 171:0.37960717 172:0.37960717 173:0 174:0 175:0 176:0.047519036 177:0 178:0 179:0 180:0.37960717 181:0 182:0 183:0 184:0 185:0 186:0 187:0 188:0 189:0 190:0 191:0 192:0 193:0 194:0 195:0 196:0 197:0 198:0 199:0.49745962 200:0 201:0 202:0 203:0 204:0 205:0 206:0 207:0.49745962 208:0.49745962 209:0 210:0 211:0 212:0 213:0 214:0.068178087 215:0.022783978 216:0.49745962 217:0.22719306 218:0.1561413 219:0.30508721 220:0 221:0.27652279 222:0 223:0.052305605 224:0.017479615 225:0.22719306 226:0.30508721 227:0.078980431 228:0.23633908 229:0 230:0.22357292 231:0 232:0.012559771 233:0.0041972655 234:0.30508721 235:0.30508721 236:0.01853567 237:0.055465795 238:0 239:0.13113798 240:0 241:0.069740802 242:0.02330615 243:0.30508721 244:0.30508721 245:0.00076711318 246:0.002295495 247:0 248:0 249:0 250:0 251:0 252:0.30508721 253:0.35081419 254:0.024339685 255:0.072833337 256:0 257:0.077015698 258:0 259:0.0084295915 260:0.0028170284 261:0.35081419 262:0.35081419 263:0 264:0 265:0 266:0.0047243102 267:0 268:0 269:0 270:0.35081419 271:0.35081419 272:0 273:0 274:0 275:0 276:0 277:0 278:0 279:0.35081419 280:0.35081419 281:0 282:0 283:0 284:0 285:0 286:0 287:0 288:0.35081419 289:0.35272366 290:0 291:0 292:0 293:0 294:0 295:0 296:0 297:0.35272366 298:0.35272366 299:0 300:0 301:0 302:0 303:0 304:0.031917509 305:0.0106663 306:0.35272366 307:0.35272366 308:0 309:0 310:0 311:0 312:0 313:0 314:0 315:0.35272366 316:0.35272366 317:0 318:0 319:0 320:0 321:0 322:0.0053195851 323:0.0017777167 324:0.35272366 
0 0.043103471885555432 0.013380014358993705 1:0.18536375 2:0.085625574 3:0.2562243 4:0 5:0.20550936 6:0 7:0.035547905 8:0.011879515 9:0.18536375 10:0.18930517 11:0.039561536 12:0.11838296 13:0 14:0.29274008 15:0 16:0.088869773 17:0.029698791 18:0.18930517 19:0.1064044 20:0.17619346 21:0.29794371 22:0 23:0.29794371 24:0 25:0.055568434 26:0.018570043 27:0.1064044 28:0.29672778 29:0.14213105 30:0.29794371 31:0 32:0.29794371 33:0 34:0.1389211 35:0.046425115 36:0.29672778 37:0.043943882 38:0.010706949 39:0.032039151 40:0 41:0.2168586 42:0 43:0.044425532 44:0.014846271 45:0.043943882 46:0 47:0 48:0 49:0 50:0 51:0 52:0 53:0 54:0 55:0.41099483 56:0.09919399 57:0.29682586 58:0 59:0.40335575 60:0 61:0.06944593 62:0.02320767 63:0.41099483 64:0.41099483 65:0 66:0 67:0 68:0 69:0 70:0 71:0 72:0.41099483 73:0 74:0 75:0 76:0 77:0 78:0 79:0 80:0 81:0 82:0.0047632148 83:0.0066086468 84:0.019775592 85:0 86:0.40674335 87:0 88:0.14444472 89:0.048270889 90:0.0047632148 91:0.40674335 92:0 93:0 94:0 95:0 96:0 97:0 98:0 99:0.40674335 100:0.40674335 101:0.027851647 102:0.083342746 103:0 104:0.36805043 105:0 106:0.041109342 107:0.013738021 108:0.40674335 109:0.069951139 110:0.090249926 111:0.27006209 112:0 113:0.3125262 114:0 115:0.053076088 116:0.017737132 117:0.069951139 118:0.30305064 119:0.094663933 120:0.28327027 121:0 122:0.3125262 123:0 124:0.098093145 125:0.032781091 126:0.30305064 127:0.3125262 128:0.017028414 129:0.050955512 130:0 131:0.14043556 132:0 133:0.089572519 134:0.02993357 135:0.3125262 136:0.3125262 137:0.011318691 138:0.03386984 139:0 140:0.012852991 141:0 142:0.016348857 143:0.0054635149 144:0.3125262 145:0.34809139 146:0.046239838 147:0.13836716 148:0 149:0.064783312 150:0 151:0.023675244 152:0.0079118712 153:0.34809139 154:0.34809139 155:0.0012937476 156:0.003871371 157:0 158:0 159:0 160:0 161:0 162:0.34809139 163:0.34809139 164:0.0066553135 165:0.019915238 166:0 167:0.0017518286 168:0 169:0.0039458741 170:0.0013186451 171:0.34809139 172:0.34809139 173:0.0077624833 174:0.023228221 175:0 176:0 177:0 178:0 179:0 180:0.34809139 181:0.31672651 182:0.0052688094 183:0.015766226 184:0 185:0 186:0 187:0.0078831166 188:0.0026343996 189:0.31672651 190:0.31672651 191:0.018842695 192:0.056384441 193:0 194:0.21690471 195:0 196:0.019707795 197:0.0065859989 198:0.31672651 199:0.31672651 200:0.031612843 201:0.094597317 202:0 203:0 204:0 205:0.047298681 206:0.01580639 207:0.31672651 208:0.31672651 209:0.049417149 210:0.14787439 211:0 212:0.23036748 213:0 214:0.21863109 215:0.073062666 216:0.31672651 217:0.35645556 218:0.0022215915 219:0.0066478495 220:0 221:0.025118059 222:0 223:0.076489963 224:0.025561603 225:0.35645556 226:0.35645556 227:0 228:0 229:0 230:0 231:0 232:0 233:0 234:0.35645556 235:0.26109564 236:0.019288741 237:0.057719272 238:0 239:0.35645556 240:0 241:0.016341578 242:0.0054610828 243:0.26109564 244:0.19563434 245:0.025718316 246:0.076959014 247:0 248:0.34611011 249:0 250:0.098049425 251:0.03276648 252:0.19563434 253:0.49430332 254:0 255:0 256:0 257:0 258:0 259:0 260:0 261:0.49430332 262:0.49430332 263:0.010816537 264:0.032367077 265:0 266:0 267:0 268:0 269:0 270:0.49430332 271:0.043460164 272:0.0053022942 273:0.015866484 274:0 275:0.089617155 276:0 277:0.063387394 278:0.021183006 279:0.043460164 280:0 281:0 282:0 283:0 284:0 285:0 286:0 287:0 288:0 289:0.41413307 290:0.045817751 291:0.13710366 292:0 293:0 294:0 295:0.068551861 296:0.022908829 297:0.41413307 298:0.41413307 299:0.071622238 300:0.21432024 301:0 302:0.18453662 303:0 304:0.41413307 305:0.1613538 306:0.41413307 307:0 308:0 309:0 310:0 311:0 312:0 313:0 314:0 315:0 316:0.017137181 317:0 318:0 319:0 320:0 321:0 322:0.020606186 323:0.0068862257 324:0.017137181 
0.032901486436079 0 0 1:0.23022577 2:0.0026476313 3:0.0007113904 4:0 5:0.35005301 6:0.12166457 7:0.074634358 8:0.12232206 9:0.29440773 10:0.0041639367 11:0.00023787076 12:0.00028777786 13:0 14:0.066229738 15:0.018973179 16:0.00079937768 17:0.0065875752 18:0.0040576402 19:0.33856148 20:0.057189707 21:0.17824872 22:0.15933879 23:0.3745572 24:0.2678757 25:0.11374464 26:0.16067131 27:0.33592623 28:0.20146798 29:0.0004293595 30:0.0038410809 31:0.019718811 32:0.26837447 33:0.033810087 34:0.0038669831 35:0.016647365 36:0.20177861 37:0 38:0 39:0 40:0 41:0.0046138475 42:0.0011235948 43:0.0005286815 44:0.00017667652 45:0 46:0.0026927332 47:0 48:0 49:0 50:0.0032487069 51:0 52:0 53:0 54:0.0026927332 55:0.41458288 56:0.0019194126 57:0 58:0.0011671964 59:0.014860487 60:0.0019163773 61:0.0034634878 62:0.0042683585 63:0.41458288 64:0.41458288 65:0.41458288 66:0.32232788 67:0.14903389 68:0.10006879 69:0.002509505 70:0.0054359715 71:0 72:0.41458288 73:0.0038377943 74:0 75:0 76:0 77:0.0014701594 78:0 79:0 80:0 81:0.0038377943 82:0.0059744264 83:0 84:0 85:0 86:0.00076465314 87:0 88:0 89:0 90:0.0059744264 91:0.46816427 92:0.27480236 93:0.15882176 94:0.060869556 95:0.036827486 96:0.00049257278 97:0.001066988 98:0 99:0.46816427 100:0.46816427 101:0.04392983 102:0.017914869 103:0.0034724066 104:0.010930246 105:0.042847477 106:0.070084788 107:0.059796467 108:0.46816427 109:0.32124674 110:0.053719219 111:0.14074922 112:0.11765154 113:0.32124674 114:0.083305418 115:0.029175904 116:0.033450227 117:0.32124674 118:0.32124674 119:3.6873487e-05 120:0.0033369679 121:0.014099753 122:0.062866993 123:0.0051927366 124:0.0010883788 125:0.0077788685 126:0.32124674 127:0.32124674 128:0.047763634 129:0.059896927 130:0.034892693 131:0.059650488 132:0.037935637 133:0.01682849 134:0.01924742 135:0.32124674 136:0.32124674 137:0.057474084 138:0.043721233 139:0.009381583 140:0.015820742 141:0.0003796586 142:0 143:0.002297584 144:0.32124674 145:0.34323746 146:0.00022616406 147:0 148:0.00013753054 149:0.0007162877 150:0.00010522184 151:0.00033283129 152:0.00027520224 153:0.34323746 154:0.34323746 155:0.14598626 156:0.11722197 157:0.036985286 158:0.015934676 159:0.0010975201 160:0.0021851351 161:0.00082275248 162:0.34323746 163:0.34323746 164:0.013958544 165:0.010344558 166:0.0012668498 167:0.0021387695 168:3.4907636e-05 169:7.5615288e-05 170:0 171:0.34323746 172:0.34323746 173:0.093956023 174:0.087695286 175:0.021663077 176:0.0092961648 177:0.0016442102 178:0.002228657 179:0.0017914722 180:0.34323746 181:0.31558025 182:0.17911239 183:0.13122532 184:0.037164472 185:0.012736841 186:0.0010381074 187:0.0028873752 188:0.0014150176 189:0.31558025 190:0.31558025 191:0.029821325 192:0.01538304 193:0.0042855944 194:0.1114262 195:0.037677214 196:0.04619167 197:0.039288104 198:0.31558025 199:0.31558025 200:0.11383045 201:0.098562293 202:0.024490325 203:0.0070756278 204:0.0021039275 205:0.0044808425 206:0.0032740263 207:0.31558025 208:0.31558025 209:0.031086603 210:0.052969225 211:0.034530595 212:0.31558025 213:0.032712366 214:0.03030251 215:0.026564987 216:0.31558025 217:0.31856284 218:0.12037573 219:0.076507784 220:0.012279428 221:0.025442339 222:0.00048950536 223:0.00071063358 224:0.00296659 225:0.31856284 226:0.31856284 227:0.25545958 228:0.19186676 229:0.028405892 230:0.030877782 231:0.0029370305 232:0.0030717179 233:0.0016857423 234:0.31856284 235:0.31856284 236:0.083979905 237:0.052461352 238:0.010537719 239:0.011075345 240:0.00065267365 241:0.0013448722 242:0.0016595621 243:0.31856284 244:0.31856284 245:0.17782305 246:0.13160135 247:0.02542723 248:0.016296536 249:0.0039160405 250:0.0050890255 251:0.0040965453 252:0.31856284 253:0.36246964 254:0.063956402 255:0.048287075 256:0.0065449839 257:0.0046917177 258:0.0012484584 259:0.0011481621 260:0.00039119157 261:0.36246964 262:0.36246964 263:0.0026046613 264:0.00041497167 265:0.0014379048 266:0.0022590586 267:0.00043643429 268:0.00041094713 269:0.00050964317 270:0.36246964 271:0.32672739 272:0.045290459 273:0.033263024 274:0.0059942324 275:0.0029672279 276:0.0016646108 277:0.0017693462 278:0.00097797893 279:0.30266914 280:0.36246964 281:0 282:0 283:0 284:0 285:0 286:0 287:0 288:0.36246964 289:0.3443405 290:0.0039981934 291:0.00075682841 292:0.0019589278 293:0.0015913065 294:0.00059457566 295:0.001232986 296:0.0011207162 297:0.3443405 298:0.3443405 299:0.028454609 300:0.083449975 301:0.051306929 302:0.19175594 303:0.0024366358 304:0.0013303255 305:0.0016769163 306:0.3443405 307:0.3443405 308:0 309:0 310:0 311:0 312:0 313:0 314:0 315:0.3443405 316:0.3443405 317:0.01036361 318:0.023433695 319:0.0093334904 320:0.0063276058 321:0 322:0 323:0 324:0.3443405 
0.010977845411485592 0 0 1:0.12809828 2:0.051377114 3:0.21316956 4:0.049377881 5:0.032311559 6:0.0048432006 7:0.0012947617 8:0.0033031502 9:0.072851516 10:0.29067338 11:0.047519166 12:0.18858761 13:0.030492788 14:0.084713131 15:0.03032784 16:0.016320243 17:0.042560276 18:0.29067338 19:0.11889922 20:0.14098991 21:0.29067338 22:0.28844592 23:0.29067338 24:0.026261277 25:0.0015266145 26:0.0046061277 27:0.068268292 28:0.29067338 29:0.15329857 30:0.29067338 31:0.20914201 32:0.29067338 33:0.066893913 34:0.037941672 35:0.056387886 36:0.29067338 37:0.31122038 38:0.0064282906 39:0.017075244 40:0.0022900805 41:0.27814457 42:0.097205177 43:0.052862093 44:0.08179526 45:0.31122038 46:0.015776519 47:0 48:0 49:0 50:0.15259582 51:0.038405314 52:0.021128405 53:0.01606008 54:0.057215773 55:0.31122038 56:0.14398625 57:0.31122038 58:0.19699703 59:0.31122038 60:0.18451232 61:0.10167234 62:0.11337449 63:0.31122038 64:0.1454311 65:0.037276462 66:0.078431465 67:0.068347685 68:0.31122038 69:0.077759154 70:0.034167524 71:0.032850914 72:0.18662345 73:0.003738238 74:0 75:0 76:0 77:0.015841376 78:0 79:0 80:0 81:0.003738238 82:0.0039800731 83:0 84:0 85:0 86:0.0032747192 87:0 88:0 89:0 90:0.0039800731 91:0.42834011 92:0.017426386 93:0.082819082 94:0.0082508372 95:0.041146431 96:0.016712293 97:0.0023995244 98:0.027134022 99:0.42834011 100:0.42834011 101:0.24847922 102:0.42834011 103:0.049505003 104:0.025459751 105:0.041780733 106:0.0012044616 107:0.038609624 108:0.42834011 109:0.024996674 110:0.20476606 111:0.28314027 112:0.25254664 113:0.28314027 114:0.018973069 115:0.00044576346 116:0.0024586092 117:0.010207223 118:0.087698393 119:0.093262896 120:0.28314027 121:0.1641728 122:0.28314027 123:0.04556876 124:0.068769999 125:0.017095553 126:0.13332593 127:0.23773003 128:0.15066057 129:0.27140296 130:0.11474361 131:0.28314027 132:0.065672345 133:0.03004995 134:0.037818592 135:0.22143941 136:0.28314027 137:0.019816024 138:0.056880042 139:0.028814742 140:0.17847949 141:0.021538384 142:0.049131129 143:0.0077320198 144:0.28314027 145:0.22590812 146:0.074844338 147:0.18607487 148:0.11956562 149:0.32921255 150:0.052942477 151:0.076845303 152:0.026853677 153:0.30147997 154:0.32921255 155:0.022869715 156:0.04494087 157:0.037972428 158:0.10706078 159:0.018905422 160:0.014377968 161:0.0144864 162:0.32921255 163:0.32921255 164:0.0069785235 165:0.021683661 166:0.022677748 167:0.10576402 168:0.021165386 169:0.053579513 170:0.013618593 171:0.32921255 172:0.32921255 173:0.002805368 174:0.0046857516 175:0.0055334796 176:0.0055698222 177:0.004080093 178:0.0089299185 179:0.0060934261 180:0.32921255 181:0.33222029 182:0.0060612205 183:0.030279987 184:0.0024759269 185:0.0018810226 186:0.0042677578 187:0.0002792085 188:0.0032474201 189:0.33222029 190:0.33222029 191:0.071475573 192:0.2647253 193:0.015449444 194:0.0044245925 195:0.015090563 196:0.000307579 197:0.007254676 198:0.33222029 199:0.33222029 200:0.0041315872 201:0.019682216 202:0.0014956575 203:0.0013820917 204:0.0017071032 205:4.9212635e-05 206:0.0010361752 207:0.33222029 208:0.33222029 209:0.035881575 210:0.18528207 211:0.010481486 212:0.008674778 213:0.018273959 214:0.01339059 215:0.016464872 216:0.33222029 217:0.34500465 218:0.010508018 219:0.0092532272 220:0.028076269 221:0.30717432 222:0.10713192 223:0.048726942 224:0.09718062 225:0.34500465 226:0.34500465 227:0.00067619176 228:1.2331467e-05 229:0.0017211693 230:0.0090127308 231:0.00026852114 232:0 233:0.00048288525 234:0.34500465 235:0.28457096 236:0 237:0 238:0 239:0.014378776 240:0.025908045 241:0.0098204082 242:0.038487662 243:0.28324258 244:0.34500465 245:0 246:0 247:0 248:0 249:0 250:0 251:0 252:0.34500465 253:0.36071751 254:0 255:0 256:0 257:0.0053883381 258:0 259:0 260:0.00012119852 261:0.36071751 262:0.36071751 263:0 264:0 265:0 266:0.00070836692 267:0 268:0 269:2.019975e-05 270:0.36071751 271:0.32837775 272:0 273:0 274:0 275:0 276:0 277:0 278:0 279:0.32837775 280:0.36071751 281:0 282:0 283:0 284:0 285:0 286:0 287:0 288:0.36071751 289:0.33981565 290:0.00045988939 291:0 292:0.00013220323 293:0.00084067066 294:0 295:0 296:0.00033101652 297:0.33981565 298:0.33981565 299:0.0018620447 300:0.0022388049 301:0.0023979689 302:0.12937444 303:0.041678991 304:0.050742745 305:0.044652276 306:0.33981565 307:0.31272492 308:0.00061215099 309:0 310:0 311:0.0014917769 312:0 313:0 314:0.00077990995 315:0.31489834 316:0.30565482 317:0.0034996353 318:0 319:0.0015532214 320:0.33981565 321:0.032276619 322:0.031094231 323:0.028421286 324:0.32086706 
-0 0.0037982347232889046 0 1:0.22257473 2:0.11945176 3:0.13212895 4:0.030631419 5:0.30292168 6:0.10685967 7:0.056450408 8:0.10427387 9:0.27776393 10:0.016606858 11:0 12:0 13:0 14:0.15820612 15:0.042733062 16:0.021033289 17:0.021161476 18:0.055747952 19:0.22880039 20:0.23154853 21:0.34514835 22:0.23259969 23:0.36071143 24:0.18493739 25:0.0720414 26:0.12771496 27:0.28050151 28:0.014544386 29:0.0085072191 30:0.044277664 31:0.05789914 32:0.36071143 33:0.075885452 34:0.028044378 35:0.024187271 36:0.046248179 37:0.0030139044 38:0.0010489073 39:0.00023677076 40:0 41:0.0092785163 42:0.00030324163 43:0.0001482495 44:0 45:0.0030139044 46:0.015288251 47:0.10002325 48:0.40368426 49:0.22857545 50:0.27044103 51:0.023498496 52:0.00088949664 53:0.0027022364 54:0.013493936 55:0.011306125 56:0.024508826 57:0.12476192 58:0.032023001 59:0.077229463 60:0.0046870252 61:0.00037062381 62:0 63:0.021454245 64:0.024329003 65:0.4065201 66:0.4065201 67:0.4065201 68:0.4065201 69:0.052420013 70:0.0028215714 71:0.003835568 72:0.091343053 73:0.13662924 74:0.1932101 75:0.30539167 76:0.25596473 77:0.17676915 78:0.015864978 79:0.0050057541 80:0.0039598481 81:0.046948787 82:0.30539167 83:0.25328535 84:0.30539167 85:0.15745226 86:0.083898336 87:0.017985601 88:0.0079781124 89:0.0057687848 90:0.21587583 91:0.022955019 92:0.22697574 93:0.30539167 94:0.30539167 95:0.30539167 96:0.026750164 97:0.0037493831 98:0.0040146625 99:0.02734006 100:0.053392604 101:0.065570436 102:0.21605423 103:0.13748783 104:0.10901052 105:0.011686923 106:0.003846565 107:0.0029584877 108:0.027997248 109:0.029515836 110:0.12460418 111:0.37211525 112:0.29617819 113:0.44836244 114:0.051418237 115:0.0087602064 116:0.013709067 117:0.031866796 118:0.0079877358 119:0.024095869 120:0.095000297 121:0.085862838 122:0.40500984 123:0.024098728 124:0.0036801123 125:0.0023664774 126:0.0055353926 127:0.0045058317 128:0.050054859 129:0.15748863 130:0.12393408 131:0.44836244 132:0.046342898 133:0.038545217 134:0.020015335 135:0.0018505947 136:0.012394719 137:0.030973837 138:0.085688829 139:0.08019457 140:0.32103336 141:0.017931556 142:0.0082444316 143:0.0091862567 144:0.0098492904 145:0.0048679132 146:0.031999532 147:0.11103676 148:0.077937543 149:0.1664529 150:0.0071725068 151:0.00012173515 152:0 153:0.0076948144 154:0.0059281192 155:0.23723245 156:0.30959147 157:0.30248821 158:0.30959147 159:0.021989409 160:0.00058561988 161:0.001841897 162:0.02693437 163:0.024171773 164:0.10953648 165:0.30543065 166:0.27380723 167:0.30959147 168:0.01486877 169:0.00069879839 170:0.0010032305 171:0.01037424 172:0.044229902 173:0.20201823 174:0.30959147 175:0.30959147 176:0.30959147 177:0.037075486 178:0.00072668045 179:0.002814604 180:0.014456998 181:0.068202443 182:0.18258607 183:0.29645306 184:0.2378581 185:0.24024101 186:0.016894493 187:0.019609643 188:0.0036171004 189:0.052037213 190:0.095065311 191:0.023155112 192:0.068394333 193:0.040553991 194:0.096910588 195:0.0088298805 196:0.04702786 197:0.0023612343 198:0.058183286 199:0.16802403 200:0.17178422 201:0.29645306 202:0.2757163 203:0.29645306 204:0.10376097 205:0.098206878 206:0.038217247 207:0.054717589 208:0.2179272 209:0.090612866 210:0.26162636 211:0.088641755 212:0.29645306 213:0.2368889 214:0.29645306 215:0.13787693 216:0.072201744 217:0.010688384 218:0.0068936716 219:0.0016920498 220:0.010116119 221:0.28820795 222:0.14142975 223:0.17895694 224:0.11104342 225:0.0084611299 226:0.03196276 227:0.085176118 228:0.1606968 229:0.10855877 230:0.22393711 231:0.061483119 232:0.04943078 233:0.042558938 234:0.025617227 235:0.068235926 236:0.06238066 237:0.060966481 238:0.032566212 239:0.28820795 240:0.28820795 241:0.28820795 242:0.25828061 243:0.11427269 244:0.22276686 245:0.28820795 246:0.28820795 247:0.14570352 248:0.16052262 249:0.14230908 250:0.20253946 251:0.17031211 252:0.22208449 253:0.024221798 254:0.12987088 255:0.27776703 256:0.27696002 257:0.23959516 258:0.014273721 259:0.0011695395 260:0.0045415792 261:0.015844436 262:0.031355008 263:0.15331583 264:0.27776703 265:0.27776703 266:0.27776703 267:0.021291118 268:0.0011984324 269:0.0028869435 270:0.015478441 271:0.093464687 272:0.25896004 273:0.27776703 274:0.20446472 275:0.17671525 276:0.013748074 277:0.0027224589 278:0.016794305 279:0.083627284 280:0.011249015 281:0.21180071 282:0.27776703 283:0.27776703 284:0.27776703 285:0.024368035 286:0.0030610701 287:0.0045296131 288:0.029020157 289:0.03503551 290:0.126077 291:0.27708569 292:0.19472532 293:0.38980988 294:0.062961332 295:0.045515198 296:0.026514286 297:0.0099270828 298:0.038441166 299:0.046800464 300:0.11430071 301:0.057370022 302:0.38980988 303:0.1698373 304:0.18672764 305:0.08727707 306:0.0078990329 307:0.0069284341 308:0.16528501 309:0.25980121 310:0.23810251 311:0.38980988 312:0.027126428 313:0.0080731455 314:0.0048696324 315:0.02059941 316:0.0023964394 317:0.02357034 318:0.032635756 319:0.033406589 320:0.38980988 321:0.044258129 322:0.024987634 323:0.0092098201 324:0.003510644 
-0.080696494707161032 0 0 1:0.084125653 2:0.016589958 3:0.0053216661 4:0.0030915809 5:0.018993739 6:0.0059149996 7:0.0061770556 8:0.020660006 9:0.071549341 10:0.012560811 11:0.00074854842 12:0 13:0.0022850074 14:0.008130217 15:0.0014877255 16:0.00564047 17:0.0086706728 18:0.01631847 19:0.32625985 20:0.093594529 21:0.32625985 22:0.32625985 23:0.32625985 24:0.18001458 25:0.32625985 26:0.24797562 27:0.32625985 28:0.086685054 29:0.0083143441 30:0.0560784 31:0.10568215 32:0.267923 33:0.13910143 34:0.32625985 35:0.10598315 36:0.10357511 37:0.00078842265 38:0 39:0 40:0 41:0.0015247569 42:0 43:0.0017514381 44:0.00058530126 45:0.00078842265 46:0.0082588801 47:0.019071834 48:0.020496313 49:0.035465017 50:0.027411077 51:0 52:0 53:0.003730301 54:0.015214923 55:0.023936415 56:0.01037175 57:0.041255146 58:0.036556013 59:0.14057395 60:0.021961037 61:0.013540828 62:0.0189604 63:0.01361683 64:0.18513206 65:0.59472817 66:0.59472817 67:0.44972014 68:0.075166278 69:0 70:0.0061864574 71:0.026928701 72:0.12617058 73:0.015024303 74:0.024278078 75:0.11732805 76:0.024214633 77:0.0054582162 78:0.0010373665 79:0 80:0.00074030022 81:0.0033881117 82:0.35271227 83:0.20975563 84:0.312776 85:0.068047047 86:0.1064324 87:0.003371015 88:0 89:0.0003592055 90:0.1246965 91:0.035079017 92:0.35271227 93:0.35271227 94:0.12228325 95:0.0059266868 96:0.00077802467 97:0.00044768711 98:0.003268271 99:0.015032055 100:0.35271227 101:0.35271227 102:0.35271227 103:0.16863878 104:0.018943567 105:0.0034783937 106:0.0016175405 107:0.0024713944 108:0.12731782 109:0.096447527 110:0.019995719 111:0.31055945 112:0.31055945 113:0.31055945 114:0.068340786 115:0.25094941 116:0.048897251 117:0.081815653 118:0.016344609 119:0.0037185731 120:0.071927741 121:0.150166 122:0.24576142 123:0.054781865 124:0.13681605 125:0.020491699 126:0.017374853 127:0.034717936 128:0.018781828 129:0.31055945 130:0.31055945 131:0.31055945 132:0.1425353 133:0.087781049 134:0.015552643 135:0.037989527 136:0.019265385 137:0.075832255 138:0.13585269 139:0.25343159 140:0.30725172 141:0.056218401 142:0.042864528 143:0.020778162 144:0.032141574 145:0.0025445819 146:0.0024813479 147:0.093319185 148:0.02210954 149:0.025718387 150:0.0024482447 151:0.00070536899 152:0.0012569322 153:0.0018794897 154:0.012996983 155:0.17823464 156:0.51472241 157:0.11143979 158:0.0054681203 159:0 160:0.00065266551 161:0.00173576 162:0.0067317993 163:0.010044448 164:0.13018815 165:0.51472241 166:0.12259124 167:0.017618675 168:0.001861272 169:0.0018535723 170:0.0038373847 171:0.0091116261 172:0.0039663436 173:0.093348749 174:0.51472241 175:0.32309842 176:0.010434785 177:0 178:0.00010877757 179:0.00021538706 180:0.00054258492 181:0.050858285 182:0.33748248 183:0.33805278 184:0.083995908 185:0.0028718561 186:0 187:0.0012481314 188:0.0045833397 189:0.031820517 190:0.11026757 191:0.22355315 192:0.33805278 193:0.060625568 194:0.0060964031 195:0.012953172 196:0.021364138 197:0.036610957 198:0.091985233 199:0.092294291 200:0.16768655 201:0.33805278 202:0.15427043 203:0.024310866 204:0.01202395 205:0.005276747 206:0.017130064 207:0.062720396 208:0.20071152 209:0.15313566 210:0.33805278 211:0.073941685 212:0.32713786 213:0.17742707 214:0.098076589 215:0.13400017 216:0.1947968 217:0.089780927 218:0.0081719365 219:0.060721703 220:0.22106667 221:0.25324234 222:0.25324234 223:0.17136158 224:0.10728642 225:0.1580373 226:0.15212101 227:0.25324234 228:0.17054453 229:0.080173708 230:0.091986164 231:0.099784456 232:0.082600944 233:0.14813469 234:0.23656204 235:0.19546074 236:0.0017666415 237:0.00025737149 238:0.0099087125 239:0.07849922 240:0.17982545 241:0.25324234 242:0.24093591 243:0.25324234 244:0.25324234 245:0.25324234 246:0.13714516 247:0.0036860134 248:0.035996154 249:0.05497019 250:0.068502501 251:0.18273126 252:0.25324234 253:0.048990674 254:0.32559979 255:0.36513689 256:0.058160767 257:0.002406525 258:0.00091476308 259:0.0033566216 260:0.022238541 261:0.041646089 262:0.0081967926 263:0.10066056 264:0.36513689 265:0.18225473 266:0.0054599345 267:0 268:0 269:2.4711968e-05 270:0.0003300946 271:0.13466462 272:0.36513689 273:0.36513689 274:0.016877448 275:0.01729276 276:0.00012733511 277:0.0028630795 278:0.027463909 279:0.077466235 280:0.025041385 281:0.36513689 282:0.36513689 283:0.11300276 284:0.005591217 285:0 286:0.00032079488 287:0.00055590138 288:0.0009104918 289:0.027295757 290:0.041866101 291:0.35302159 292:0.19548322 293:0.063061349 294:0.013648514 295:0.0026428001 296:0.0076047992 297:0.022329731 298:0.064979568 299:0.050428864 300:0.34062636 301:0.24271809 302:0.35302159 303:0.14321761 304:0.044852898 305:0.05123641 306:0.070646107 307:0.006944315 308:0.058262289 309:0.35302159 310:0.17500375 311:0.079301037 312:0.034779854 313:0.014577619 314:0.0011153421 315:0.002824242 316:0.040224452 317:0.019603128 318:0.1269421 319:0.35302159 320:0.35302159 321:0.17217802 322:0.13818882 323:0.070197351 324:0.049961336 
-0.17274489117817066 0.066753526909105923 0 1:0.071198866 2:0.20672666 3:0.29724362 4:0.20809746 5:0.3811883 6:0.047360897 7:0.091650322 8:0.06192952 9:0.083441071 10:0.0096868547 11:0.11335735 12:0.16664618 13:0.15334928 14:0.3811883 15:0.10279095 16:0.13519451 17:0.066370793 18:0.019483866 19:0.070653915 20:0.14755188 21:0.12612122 22:0.15489647 23:0.3811883 24:0.0076639135 25:0.011286222 26:0.012612266 27:0.068506293 28:0.010337372 29:0.097753882 30:0.12853223 31:0.13527715 32:0.3811883 33:0.0037317278 34:0 35:0 36:0.003521462 37:0.011520155 38:0.067168355 39:0.080183722 40:0.12133759 41:0.35457733 42:0.10884367 43:0.093072563 44:0.032984901 45:0.0082508847 46:0.098639309 47:0.029081045 48:0.033151381 49:0.026659694 50:0.039295834 51:0.0010208505 52:0.00288132 53:0.0016496168 54:0.031315822 55:0.021793554 56:0.072532803 57:0.092120878 58:0.12185674 59:0.35457733 60:0.0099964216 61:0.0016497748 62:0.0032708026 63:0.019270511 64:0.35457733 65:0.35197511 66:0.35457733 67:0.35457733 68:0.35457733 69:0.027209366 70:0.0079661962 71:0.020852968 72:0.15824534 73:0.048916057 74:0.060320158 75:0.20814401 76:0.12607187 77:0.10030885 78:0.00803441 79:0.0031877034 80:0.0019148199 81:0.016233142 82:0.13712579 83:0.16827129 84:0.27788678 85:0.27788678 86:0.27788678 87:0.023225818 88:0.0023907775 89:0.0037904284 90:0.082884297 91:0.27788678 92:0.24121174 93:0.27788678 94:0.27788678 95:0.25252396 96:0.011648796 97:0.0047158021 98:0.0049674488 99:0.087843284 100:0.17481786 101:0.20667709 102:0.27788678 103:0.27348348 104:0.20495875 105:0.017703785 106:0.0039224783 107:0.007270644 108:0.078513876 109:0.0091108717 110:0.010990031 111:0.0097401179 112:0.018684508 113:0.43859681 114:0.035906818 115:0.070643209 116:0.029304298 117:0.010825421 118:0.0023469473 119:0.0082989214 120:0.012009061 121:0.017399356 122:0.43859681 123:0.0067045344 124:0 125:0.0001021378 126:0.0018190176 127:0.0088205002 128:0 129:0.00010925659 130:0.014059898 131:0.43859681 132:0.093309604 133:0.24081853 134:0.071452953 135:0.025819419 136:0.10811207 137:0.0036042549 138:0.00098200864 139:0.015791759 140:0.43859681 141:0.06152375 142:0.30865476 143:0.1025024 144:0.15302977 145:0.0044609145 146:0.00854911 147:0.019564586 148:0.037720542 149:0.19319418 150:0.0063335695 151:0.0012656989 152:0.0020207337 153:0.0053008539 154:0.1029848 155:0.159086 156:0.3258661 157:0.3258661 158:0.3258661 159:0.024155675 160:0.003286961 161:0.0090518529 162:0.040496863 163:0.13726665 164:0.089340284 165:0.18030934 166:0.16394158 167:0.27406594 168:0.024370406 169:0.14759794 170:0.059446186 171:0.15385136 172:0.026251836 173:0.25975573 174:0.3258661 175:0.3258661 176:0.3258661 177:0.034817275 178:0.02686685 179:0.012158107 180:0.030549645 181:0.15206444 182:0.153796 183:0.28622958 184:0.25821853 185:0.28622958 186:0.0168177 187:0.0016220399 188:0.0037820807 189:0.054052033 190:0.17136358 191:0.16156764 192:0.28622958 193:0.088642143 194:0.11590279 195:0.035509914 196:0.010242679 197:0.049799141 198:0.11752306 199:0.0069343355 200:0.11274778 201:0.28622958 202:0.26316634 203:0.28622958 204:0.019352037 205:0.00069565797 206:0.0041667307 207:0.013612565 208:0.082472816 209:0.18236318 210:0.28622958 211:0.27755976 212:0.28622958 213:0.061946962 214:0.011764376 215:0.061195731 216:0.071712315 217:0.023797998 218:0 219:0.0002667236 220:0.013667624 221:0.34775484 222:0.090969644 223:0.2502864 224:0.08976566 225:0.051013671 226:0.3361685 227:0.016424632 228:0.002730445 229:0.015420919 230:0.23406406 231:0.08821708 232:0.34775484 233:0.23226102 234:0.34775484 235:0.043845356 236:0.00034863548 237:0.00030181708 238:0.021347402 239:0.34775484 240:0.18528746 241:0.19432388 242:0.11095919 243:0.026967879 244:0.18443467 245:0.013243348 246:0.0018021774 247:0.0089822831 248:0.040349744 249:0.039230082 250:0.15335144 251:0.08055111 252:0.21322171 253:0.25234452 254:0.12744927 255:0.22521511 256:0.12849967 257:0.10462753 258:0.017411545 259:0.25234452 260:0.1150385 261:0.25234452 262:0.13823569 263:0.22779439 264:0.25234452 265:0.25234452 266:0.25234452 267:0.020637717 268:0.073613949 269:0.024962276 270:0.078943208 271:0.17739239 272:0.069459423 273:0.098893031 274:0.045799952 275:0.038263042 276:0.011414674 277:0.1523937 278:0.06162985 279:0.19886549 280:0.1872343 281:0.25234452 282:0.25234452 283:0.25234452 284:0.25234452 285:0.027827585 286:0.052190822 287:0.018692559 288:0.11747951 289:0.11436447 290:0.12534733 291:0.26158836 292:0.25450197 293:0.28592193 294:0.010711065 295:0.00042390949 296:0.0052358424 297:0.028941212 298:0.063149706 299:0.10130127 300:0.28254265 301:0.28291631 302:0.28592193 303:0.025276218 304:0.0013796992 305:0.0096674915 306:0.015425903 307:0.22656068 308:0.23394182 309:0.27556318 310:0.28592193 311:0.28592193 312:0.012551108 313:0.0018698686 314:0.0029730855 315:0.064580806 316:0.12027402 317:0.090123601 318:0.11967336 319:0.16181578 320:0.28592193 321:0.0053586564 322:0.00017788526 323:0.0011532542 324:0.029375384 
-0.019929395649596785 0.1201701641672922 0.026597243053216035 1:0.10934149 2:0.14724328 3:0.28229156 4:0.20092252 5:0.28229156 6:0.097546823 7:0.20610115 8:0.076064453 9:0.079155952 10:0.044011865 11:0.028566672 12:0.13532637 13:0.1062738 14:0.28229156 15:0.16481568 16:0.22820716 17:0.092026114 18:0.055642311 19:0.010677125 20:0.091446094 21:0.28229156 22:0.28229156 23:0.28229156 24:0.039096031 25:0.020402165 26:0.010721494 27:0.011722747 28:0.0068286872 29:0.070560113 30:0.28229156 31:0.28000095 32:0.28229156 33:0.061101567 34:0.020344911 35:0.012172923 36:0.0075766896 37:0.018082764 38:0.030656425 39:0.20250101 40:0.23905788 41:0.39544153 42:0.36351103 43:0.25284585 44:0.11685317 45:0.070967615 46:0.0083353575 47:0 48:0 49:0 50:0.038125385 51:0 52:0 53:0 54:0.0083353575 55:0.025591327 56:0.095502637 57:0.39544153 58:0.3919453 59:0.39544153 60:0.14920178 61:0.025885539 62:0.014724578 63:0.025708003 64:0.036178503 65:0.062440831 66:0.088257641 67:0.018705508 68:0.10100346 69:0.0021379986 70:0.004631232 71:0 72:0.019236349 73:0.055881727 74:0.016270559 75:0.020150049 76:0.035015326 77:0.13823757 78:0 79:0 80:0 81:0.015312363 82:0.33887145 83:0.083277807 84:0.050375119 85:0.088548765 86:0.26212913 87:0 88:0 89:0 90:0.33887145 91:0.053520557 92:0.069000237 93:0.15386283 94:0.12725458 95:0.33887145 96:0.0022174127 97:0.0027422204 98:0 99:0.013400885 100:0.33887145 101:0.15550557 102:0.22390275 103:0.27414498 104:0.33887145 105:0.0066582863 106:0.0030398839 107:0.0036735453 108:0.33887145 109:0.0067768008 110:0.071247876 111:0.29015571 112:0.28208503 113:0.30864099 114:0.12496091 115:0.13065778 116:0.031223917 117:0.0071372278 118:0.0092558172 119:0.056790821 120:0.2125643 121:0.20555708 122:0.30864099 123:0.065419592 124:0.083658934 125:0.020232592 126:0.009736388 127:0.0069202734 128:0.024876276 129:0.15556043 130:0.15123443 131:0.30864099 132:0.29781735 133:0.30864099 134:0.10647908 135:0.0064397198 136:0.010406575 137:0.018145813 138:0.07790187 139:0.057900839 140:0.30864099 141:0.16737165 142:0.16680942 143:0.043422423 144:0.009838419 145:0.0085206488 146:0.010796741 147:0.035030086 148:0.039513309 149:0.11192124 150:0.011131899 151:0.0035555444 152:0.0016525132 153:0.0083756782 154:0.02149909 155:0.21383849 156:0.40413877 157:0.052151497 158:0.023353178 159:0.0044322964 160:0.001621871 161:0.00019449774 162:0.0063861129 163:0.014592646 164:0.023320198 165:0.043056615 166:0.066156194 167:0.31838948 168:0.024886731 169:0.0069521992 170:0.0032662947 171:0.019808525 172:0.026506416 173:0.40413877 174:0.40413877 175:0.40413877 176:0.40413877 177:0.029223081 178:0.00027031181 179:0.0024974456 180:0.055664271 181:0.020697851 182:0.21009021 183:0.29738185 184:0.098740265 185:0.19608748 186:0.006075975 187:0.0026570593 188:0.00058966747 189:0.0034241341 190:0.072764389 191:0.15845652 192:0.29738185 193:0.16559832 194:0.29738185 195:0.014570715 196:0.0055856248 197:0.01095923 198:0.052177768 199:0.022573082 200:0.29738185 201:0.29738185 202:0.14128581 203:0.21971017 204:0.020456884 205:0.00059418764 206:0.0016011985 207:0.023832738 208:0.1801336 209:0.21400756 210:0.29738185 211:0.21955095 212:0.29738185 213:0.081465811 214:0.025343232 215:0.087860413 216:0.11428385 217:0.032958075 218:0.0071401456 219:0.10642343 220:0.085648857 221:0.29584697 222:0.16428521 223:0.18370216 224:0.062392935 225:0.049633831 226:0.13525514 227:0.015084025 228:0.02204702 229:0.0093555599 230:0.29584697 231:0.10913099 232:0.095309883 233:0.10915165 234:0.16156366 235:0.10006397 236:0.0087807691 237:0.060075771 238:0.041824751 239:0.29584697 240:0.20412019 241:0.29584697 242:0.16848603 243:0.11432135 244:0.29584697 245:0.051937275 246:0.068830468 247:0.012600495 248:0.25862604 249:0.11659324 250:0.18089601 251:0.29584697 252:0.29584697 253:0.13560599 254:0.099486671 255:0.15936856 256:0.03313024 257:0.14845963 258:0.017474886 259:0.039500497 260:0.073337123 261:0.11565955 262:0.080282554 263:0.25876319 264:0.27448627 265:0.15877365 266:0.27448627 267:0.017343117 268:0.0039378046 269:0.0047859885 270:0.055457793 271:0.27448627 272:0.21756551 273:0.27448627 274:0.0347955 275:0.044362757 276:0.043398399 277:0.11897972 278:0.25858271 279:0.27448627 280:0.21848771 281:0.27448627 282:0.27448627 283:0.061268773 284:0.26200476 285:0.01386427 286:0.010540367 287:0.02371846 288:0.1263542 289:0.01323957 290:0.12172915 291:0.30372742 292:0.13689397 293:0.30372742 294:0.017098377 295:1.9645819e-05 296:0.00049711554 297:0.017670799 298:0.057856746 299:0.10530774 300:0.30372742 301:0.26482061 302:0.30372742 303:0.060256254 304:0.013669183 305:0.044228546 306:0.03889972 307:0.052429263 308:0.19285093 309:0.30372742 310:0.13122125 311:0.2914868 312:0.010617898 313:7.3882497e-05 314:0.00023902876 315:0.014339436 316:0.040089477 317:0.15852705 318:0.30372742 319:0.23495027 320:0.30372742 321:0.024896735 322:0 323:0 324:0.0043144086 
-0 0.030722210438788179 0.25520616804354501 1:0.28720385 2:0.06997171 3:0.2350852 4:0.058513056 5:0.05724445 6:0.042410005 7:0.010188915 8:0.066128157 9:0.22009814 10:0.1496897 11:0.022891628 12:0.040755481 13:0.049036864 14:0.13771722 15:0.088246271 16:0.01433203 17:0.090879329 18:0.19175062 19:0.26940182 20:0.18583807 21:0.29094753 22:0.25111285 23:0.29094753 24:0.078823932 25:0.023894267 26:0.085900865 27:0.18586054 28:0.16540278 29:0.11114173 30:0.27834997 31:0.21248782 32:0.29094753 33:0.14150487 34:0.022332333 35:0.11159218 36:0.16092986 37:0.045299079 38:0.015116369 39:0.024869615 40:0.070715256 41:0.34916246 42:0.16017507 43:0.019252026 44:0.10447071 45:0.12955713 46:0.012262685 47:0.0019687731 48:0.0066873445 49:0.011776729 50:0.022896899 51:0 52:0 53:0 54:0.011412164 55:0.10603324 56:0.11361778 57:0.27687195 58:0.28806934 59:0.35028505 60:0.25671944 61:0.025669366 62:0.121623 63:0.11320583 64:0.14391997 65:0.32661089 66:0.35028505 67:0.19149797 68:0.35028505 69:0 70:0 71:0 72:0.042947941 73:0.0056976737 74:0.057176732 75:0.085594706 76:0.071628556 77:0.068287387 78:0.0073656733 79:0 80:0.00029875623 81:0.0079481099 82:0.28337762 83:0.25746286 84:0.3115811 85:0.1558302 86:0.13925199 87:0.016908918 88:0.00012420294 89:0.0018313444 90:0.15357783 91:0.063769273 92:0.27240932 93:0.3115811 94:0.22012649 95:0.15769331 96:0.0082783401 97:0 98:4.9792699e-05 99:0.0096028028 100:0.17671214 101:0.3115811 102:0.3115811 103:0.3115811 104:0.2983 105:0.026616419 106:0.00031050737 107:0.00053160224 108:0.064171292 109:0.019258544 110:0.042513791 111:0.14211267 112:0.08457619 113:0.48557267 114:0.020823985 115:0.006025529 116:0.0095984088 117:0.0078266235 118:0.026243638 119:0.036648102 120:0.11581429 121:0.072041906 122:0.48557267 123:0.026624594 124:0.0034817429 125:0.010487394 126:0.0072780997 127:0.00037058222 128:0.0021523968 129:0.010968353 130:0.014326672 131:0.48557267 132:0.00094705453 133:0 134:0 135:0.00037058222 136:0.00054561294 137:0 138:0 139:0.0048958957 140:0.48557267 141:0.0011773444 142:0 143:0 144:0.00054561294 145:0.015489776 146:0.013818203 147:0.038564179 148:0.027489167 149:0.19819988 150:0.013429164 151:0.00083305995 152:0.0032097392 153:0.0053945468 154:0.028352449 155:0.13779183 156:0.39231223 157:0.13894799 158:0.39231223 159:0.0073127788 160:0 161:0.00010572033 162:0.0099541396 163:0.006146519 164:0.019236311 165:0.086271577 166:0.026088823 167:0.28428391 168:0.0034729466 169:0 170:0 171:0.013584313 172:0.014821248 173:0.32593602 174:0.39231223 175:0.31350535 176:0.39231223 177:0.033456884 178:0 179:0.0024679694 180:0.060068991 181:0.048297487 182:0.21421143 183:0.30697677 184:0.15508029 185:0.30697677 186:0.0056654965 187:0 188:0.00049005129 189:0.010178233 190:0.073464364 191:0.15917163 192:0.30697677 193:0.1257301 194:0.11563549 195:0.0082224878 196:0.0011624604 197:0.0040219519 198:0.033786468 199:0.04511122 200:0.17477548 201:0.30697677 202:0.22194883 203:0.30697677 204:0.032575943 205:0.015008602 206:0.014852258 207:0.042160466 208:0.13025832 209:0.076735564 210:0.1236477 211:0.16102257 212:0.30697677 213:0.13081209 214:0.29989743 215:0.14552261 216:0.1433637 217:0.003170992 218:0.025159216 219:0.071368076 220:0.037200633 221:0.44019198 222:0.0032153386 223:0 224:0 225:0.003170992 226:0.0025519568 227:0.0054156538 228:0.011036278 229:0.002714383 230:0.44019198 231:0.0043951399 232:0.00037295083 233:0.0011804573 234:0.0025519568 235:0.029696934 236:0.028562324 237:0.068325385 238:0.03808739 239:0.44019198 240:0.10714217 241:0.167198 242:0.026436407 243:0.11467201 244:0.069777369 245:0.077659838 246:0.20166226 247:0.042451773 248:0.44019198 249:0.093781739 250:0.18164222 251:0.018630091 252:0.237883 253:0.0049806996 254:0.056935783 255:0.21805832 256:0.081390671 257:0.17091747 258:0.0056596142 259:0.0010821368 260:0.0038393189 261:0.0075914101 262:0.0067510088 263:0.24301088 264:0.32225215 265:0.27930072 266:0.32225215 267:0.018520124 268:0.0027459317 269:0.0059912293 270:0.023690239 271:0.028322781 272:0.26926443 273:0.32225215 274:0.14621602 275:0.22037068 276:0.024558688 277:0.05672409 278:0.017002489 279:0.06944821 280:0.020167863 281:0.27263841 282:0.32225215 283:0.23675343 284:0.27013326 285:0.018976336 286:0.0049747964 287:0.011287527 288:0.011115724 289:0.018106045 290:0.15931 291:0.30726454 292:0.1793607 293:0.30726454 294:0.026587928 295:0.009752973 296:0.010783228 297:0.017598113 298:0.04603732 299:0.10012177 300:0.14947703 301:0.16119468 302:0.30726454 303:0.20725192 304:0.25165364 305:0.11713517 306:0.045987226 307:0.028766219 308:0.15357241 309:0.30726454 310:0.14416555 311:0.30726454 312:0.01687183 313:0.0016311952 314:0.0029077935 315:0.0048954505 316:0.020568959 317:0.12356459 318:0.25254115 319:0.14015372 320:0.30726454 321:0.16220139 322:0.12856811 323:0.035366192 324:0.0070049032 
-0 0 0.01873432680751743 1:0.11576699 2:0.13014096 3:0.27219084 4:0.10551082 5:0.27863026 6:0.27863026 7:0.2378328 8:0.15606545 9:0.20376594 10:0.021899747 11:0.0075408327 12:0.020377053 13:0.030866764 14:0.23737648 15:0.12619129 16:0.13899671 17:0.079108 18:0.048687767 19:0.029638313 20:0.13685037 21:0.27863026 22:0.27863026 23:0.27863026 24:0.16317666 25:0.18751328 26:0.12287752 27:0.060927346 28:0.0077869142 29:0.075316258 30:0.17643054 31:0.15699032 32:0.27863026 33:0.089963704 34:0.12376868 35:0.073511653 36:0.027442571 37:0.0056959293 38:0.0016025276 39:0.00017984866 40:0.0058816988 41:0.060515281 42:0.01214122 43:0.00019717147 44:0.0023188957 45:0.01298805 46:0.025115671 47:0.18165322 48:0.42291355 49:0.069958568 50:0.16288579 51:0.0028863819 52:0.0021253312 53:0 54:0.014133826 55:0.01685016 56:0.027830968 57:0.037339952 58:0.026937861 59:0.15486948 60:0.017549371 61:0.007298029 62:0.0058118291 63:0.02450184 64:0.033246402 65:0.42291355 66:0.42291355 67:0.42291355 68:0.42291355 69:0.0322912 70:0.022176145 71:0.015949678 72:0.033510122 73:0.02734787 74:0.25050604 75:0.30850154 76:0.15625745 77:0.1307753 78:0.010087787 79:0.0031114856 80:0 81:0.0067148581 82:0.066094495 83:0.30850154 84:0.30850154 85:0.26662156 86:0.21408401 87:0.021001294 88:0.058473434 89:0.016040385 90:0.046579447 91:0.024381345 92:0.27133322 93:0.30850154 94:0.27621689 95:0.30850154 96:0.020218996 97:0.0030793862 98:0.0029063623 99:0.011422147 100:0.033809513 101:0.14770962 102:0.30850154 103:0.085828789 104:0.10730772 105:0.012724869 106:0.00053314958 107:0.0014544927 108:0.0071476642 109:0.019006511 110:0.067063726 111:0.16028632 112:0.17966162 113:0.44105458 114:0.012948 115:0.021494189 116:0.01304826 117:0.026059642 118:0.0050882269 119:0.046909917 120:0.10558677 121:0.089926869 122:0.44105458 123:0.010642315 124:0.01407323 125:0.0080404282 126:0.010890231 127:0.0039693438 128:0.099944003 129:0.26041692 130:0.16601951 131:0.44105458 132:0.022076018 133:0.034881372 134:0.016029939 135:0.003247879 136:0.0098314611 137:0.03972806 138:0.10502871 139:0.10363963 140:0.44105458 141:0.014035254 142:0.0074116671 143:0.0068669789 144:0.010568232 145:0.0060676518 146:0.055262361 147:0.079524517 148:0.066225007 149:0.078956924 150:0.0047889864 151:0.0050832857 152:0.0019274196 153:0.0071061593 154:0.0084121991 155:0.28679219 156:0.29520229 157:0.29520229 158:0.29520229 159:0.016376868 160:0.014759946 161:0.0092472611 162:0.018337676 163:0.026118591 164:0.15013164 165:0.29520229 166:0.29520229 167:0.28560326 168:0.013161461 169:0.0032288169 170:0.0010447662 171:0.013702906 172:0.052485261 173:0.29520229 174:0.29520229 175:0.29520229 176:0.29520229 177:0.030005204 178:0.0069383965 179:0.0066791498 180:0.021757204 181:0.016999582 182:0.18438518 183:0.30811855 184:0.2548472 185:0.30811855 186:0.020945037 187:0.0051328358 188:0.01348885 189:0.036958929 190:0.044280086 191:0.075552911 192:0.082084298 193:0.051828861 194:0.12811346 195:0.02326853 196:0.00043374969 197:0.049971309 198:0.072709419 199:0.03169753 200:0.23294672 201:0.30811855 202:0.29348791 203:0.30811855 204:0.03613814 205:0.011247832 206:0.030990366 207:0.04322752 208:0.053165808 209:0.21206591 210:0.30811855 211:0.21555777 212:0.30811855 213:0.12073918 214:0.020258347 215:0.13707729 216:0.1025319 217:0.0069588278 218:0.072866365 219:0.20774165 220:0.13463399 221:0.2542704 222:0.12207068 223:0.1823978 224:0.099154234 225:0.003721298 226:0.013191145 227:0.059020754 228:0.18592881 229:0.14950243 230:0.2542704 231:0.064154543 232:0.051508948 233:0.037906606 234:0.0077534732 235:0.05204919 236:0.0081194025 237:0.026664395 238:0.041720726 239:0.2542704 240:0.2542704 241:0.2542704 242:0.20007659 243:0.14543793 244:0.2542704 245:0.08719445 246:0.2542704 247:0.21870334 248:0.2542704 249:0.14697553 250:0.2542704 251:0.11823135 252:0.2542704 253:0.017069457 254:0.11750365 255:0.27608386 256:0.27608386 257:0.27608386 258:0.017592512 259:0.00089110178 260:0.0026632287 261:0.010661338 262:0.03304081 263:0.12888604 264:0.27608386 265:0.27608386 266:0.27608386 267:0.023799496 268:0.00063953543 269:0.0027552939 270:0.012757284 271:0.12967895 272:0.11056765 273:0.27608386 274:0.27608386 275:0.27608386 276:0.021935651 277:0.019069733 278:0.0063690948 279:0.094064616 280:0.0061554643 281:0.10019457 282:0.27608386 283:0.27608386 284:0.27608386 285:0.023357291 286:0.0019972296 287:0.0049883425 288:0.013304275 289:0.011408946 290:0.089617714 291:0.33258596 292:0.23568125 293:0.30021164 294:0.019658282 295:0.004040821 296:0.0066078333 297:0.0092348 298:0.0078063877 299:0.069838434 300:0.24633256 301:0.16210927 302:0.33418688 303:0.049043879 304:0.0092091402 305:0.024725774 306:0.014235471 307:0.0099867862 308:0.088311367 309:0.33418688 310:0.29839969 311:0.33418688 312:0.026908601 313:0.014289438 314:0.004400433 315:0.0062375427 316:0.020374812 317:0.077122636 318:0.23368894 319:0.16486599 320:0.33418688 321:0.038380612 322:0.043713585 323:0.016039379 324:0.0057986295 
-0 0.0097782631020732411 0.029184778413162731 1:0.17325519 2:0.068754151 3:0.31383467 4:0.076709747 5:0.44223911 6:0.091694042 7:0.070207089 8:0.034032721 9:0.11841616 10:0.076850176 11:0.0034388991 12:0.026079418 13:0.0016350464 14:0.44223911 15:0.0793484 16:0.052518617 17:0.024159923 18:0.053052608 19:0.031557988 20:0.035654843 21:0.12382261 22:0.063873284 23:0.44223911 24:0.057071172 25:0.015825646 26:0.01063919 27:0.014254072 28:0.0075084153 29:0.00052298809 30:0.0066488036 31:0.00063510111 32:0.44223911 33:0.029750951 34:0.0087531013 35:0.0040266532 36:0.0026521289 37:0.0092832856 38:0 39:0 40:0 41:0.26792842 42:0.021605855 43:0 44:0 45:0.0092832856 46:0.12184842 47:0.088199101 48:0.022248361 49:0.13795263 50:0.35926962 51:0.0021449132 52:0 53:0 54:0.031028716 55:0.0079970397 56:0.007051718 57:0.00074866606 58:0.0015203777 59:0.38365075 60:0.0054328125 61:0.00038105194 62:0 63:0.0040875613 64:0.11365744 65:0.38365075 66:0.38365075 67:0.38365075 68:0.38365075 69:0.024076542 70:0.0024209304 71:0.0038281558 72:0.043906722 73:0.18588372 74:0.08714886 75:0.052503202 76:0.084253013 77:0.17086929 78:0.0012343165 79:0.003894374 80:0.0020081075 81:0.1489061 82:0.2702176 83:0.20872521 84:0.2702176 85:0.06767761 86:0.074474797 87:0.005521894 88:0.013247455 89:0.013631502 90:0.2702176 91:0.1592119 92:0.21114035 93:0.26016891 94:0.26990354 95:0.2702176 96:0.013719917 97:0.0016977739 98:0.0018578393 99:0.1518831 100:0.2702176 101:0.16523947 102:0.2702176 103:0.11230382 104:0.2702176 105:0.013663823 106:0.0039972593 107:0.0072411816 108:0.2340948 109:0.040843781 110:0.034698166 111:0.019987468 112:0.023895986 113:0.49711463 114:0.025240511 115:0.011225375 116:0.013145427 117:0.021863515 118:0.00062198489 119:3.5631652e-05 120:0.00010662341 121:0.00018877626 122:0.49711463 123:0.00086044718 124:0 125:0 126:0.00062198489 127:0.025114803 128:0.013879267 129:0.0033312447 130:0.004289425 131:0.49711463 132:0.0068585961 133:0.0044901501 134:0.0052581704 135:0.017522698 136:0.0024915638 137:0.00035729015 138:0.00033532261 139:0.0018866662 140:0.49711463 141:0.0042421375 142:0 143:0 144:0.0015105546 145:0.0074442658 146:0.011963004 147:0.011685276 148:0.030337261 149:0.16551274 150:0.0037274021 151:0.00020059875 152:0 153:0.0021263959 154:0.037120678 155:0.27122128 156:0.32699722 157:0.32699722 158:0.32699722 159:0.015159144 160:0.001258739 161:0.00098007498 162:0.0090131145 163:0.013629797 164:0.068503715 165:0.12025212 166:0.12401708 167:0.32699722 168:0.01449935 169:0.00025640454 170:0 171:0.0042396761 172:0.038584121 173:0.32699722 174:0.32699722 175:0.32699722 176:0.32699722 177:0.029327212 178:0.002095361 179:0.0017664448 180:0.0095095402 181:0.04569941 182:0.25585189 183:0.28420898 184:0.28420898 185:0.28420898 186:0.019571822 187:0.00081930286 188:0.0012441049 189:0.030020194 190:0.072169609 191:0.057511039 192:0.072144464 193:0.084383368 194:0.18279786 195:0.012916527 196:0.0015654694 197:0.0051147924 198:0.068351366 199:0.075306289 200:0.22687872 201:0.28420898 202:0.28420898 203:0.28420898 204:0.033182528 205:0.021240374 206:0.016865741 207:0.037960704 208:0.16370109 209:0.075183317 210:0.10419854 211:0.1767254 212:0.28420898 213:0.16022886 214:0.28420898 215:0.17944267 216:0.17368828 217:0.01809245 218:0.0082441457 219:0.0054288059 220:0.0094338525 221:0.34115872 222:0.075095512 223:0.072153024 224:0.037757363 225:0.030682739 226:0.008736698 227:0.006217835 228:0.0085428189 229:0.023354225 230:0.34115872 231:0.093703732 232:0.10221373 233:0.03581116 234:0.018211847 235:0.043889701 236:0.032435667 237:0.034878768 238:0.044322118 239:0.34115872 240:0.25478843 241:0.18246639 242:0.13376614 243:0.074776165 244:0.19311735 245:0.12700936 246:0.12094364 247:0.045525327 248:0.34115872 249:0.34115872 250:0.24727544 251:0.24272785 252:0.2475891 253:0.017602488 254:0.090672821 255:0.14769487 256:0.13976401 257:0.27571371 258:0.019858658 259:0.015265985 260:0.0066971183 261:0.0090005612 262:0.021684749 263:0.1905527 264:0.27571371 265:0.27446586 266:0.27571371 267:0.019668657 268:0.00089419272 269:0.0010692277 270:0.0061060493 271:0.1645169 272:0.27571371 273:0.27571371 274:0.18210219 275:0.27571371 276:0.076405458 277:0.039610174 278:0.074566439 279:0.15473799 280:0.035245966 281:0.22434059 282:0.27571371 283:0.27571371 284:0.27571371 285:0.025951242 286:0.00075609906 287:0.0019835897 288:0.022911413 289:0.028362598 290:0.13062146 291:0.24460249 292:0.12999192 293:0.33179066 294:0.024621271 295:0.0097389007 296:0.0078607928 297:0.010811865 298:0.047978789 299:0.12220449 300:0.21212216 301:0.14356939 302:0.33179066 303:0.16379237 304:0.1925126 305:0.104307 306:0.044067539 307:0.019356757 308:0.13878091 309:0.33179066 310:0.23024391 311:0.33179066 312:0.023259878 313:0.00041945634 314:0.0015871293 315:0.0062686983 316:0.013654497 317:0.13505399 318:0.27277073 319:0.14456519 320:0.33179066 321:0.062804773 322:0.0097440789 323:0.013366432 324:0.0072982158 
-0 0 0.063819184234584658 1:0.054135397 2:0.19287252 3:0.2823489 4:0.10785943 5:0.35264263 6:0.06357298 7:0.04441778 8:0.0043411893 9:0.11777814 10:0.067666732 11:0.099455513 12:0.096875079 13:0.022627827 14:0.35264263 15:0.12437093 16:0.095306769 17:0.0097172931 18:0.14843501 19:0 20:0.15171356 21:0.28222609 22:0.25383726 23:0.35264263 24:0.13619193 25:0.076468952 26:0.037182793 27:0.010846099 28:0.001365627 29:0.11278787 30:0.19177409 31:0.16233924 32:0.35264263 33:0.082579799 34:0.026250273 35:0.0076103332 36:0.013964617 37:0.078461051 38:0 39:0 40:0.027255604 41:0.53986233 42:0.28724712 43:0.15572058 44:0.020435967 45:0.17047051 46:0.0053603142 47:0.006286344 48:0.0033341562 49:0.0025403423 50:0.06047865 51:0.0024786766 52:0 53:0.0017954069 54:0.0087483851 55:0.024251739 56:0.11717167 57:0.23569235 58:0.28715512 59:0.53986233 60:0.16571271 61:0.036352556 62:0.0086212019 63:0.016239043 64:0.04480492 65:0.075237319 66:0.089655198 67:0.12375522 68:0.22745983 69:0.016810926 70:0.00021335103 71:0.012775087 72:0.009385746 73:0.0049889251 74:0.045013268 75:0.064033583 76:0.026032699 77:0.033031315 78:0.0019753308 79:0 80:0 81:0.006439806 82:0.13958254 83:0.330134 84:0.330134 85:0.082270905 86:0.053240441 87:0.0022259478 88:0 89:0 90:0.095623977 91:0.022807978 92:0.18181096 93:0.330134 94:0.29622778 95:0.2403034 96:0.01180988 97:0.00096633355 98:0.0068590539 99:0.0097877141 100:0.077539034 101:0.330134 102:0.330134 103:0.330134 104:0.32901832 105:0.023486208 106:0.0047179442 107:0.0082691954 108:0.04803041 109:0 110:0.09016294 111:0.20436433 112:0.19695015 113:0.35313973 114:0.15218085 115:0.1010709 116:0.046715546 117:0.0004847183 118:0.0013472179 119:0.092047259 120:0.16825359 121:0.15959731 122:0.35313973 123:0.051825125 124:0.0084631722 125:0.0068243491 126:0.00044347061 127:0.00210084 128:0.058764718 129:0.235654 130:0.21667218 131:0.35313973 132:0.26164263 133:0.2306722 134:0.11114657 135:0.0033968883 136:0.0074705468 137:0.012984697 138:0.031867251 139:0.08251483 140:0.35313973 141:0.1566986 142:0.17272165 143:0.076799311 144:0.0062027927 145:0.010596856 146:0.055751443 147:0.10958567 148:0.10738796 149:0.33727106 150:0.03367855 151:0.004901717 152:0.0051319227 153:0.0031280932 154:0.037880391 155:0.21558176 156:0.33727106 157:0.16857091 158:0.15611582 159:0.007334121 160:0.0051676161 161:0.007117575 162:0.0067064343 163:0.018286509 164:0.01702287 165:0.054997351 166:0.076819666 167:0.33727106 168:0.10555085 169:0.10233983 170:0.050701458 171:0.027812677 172:0.042395271 173:0.33727106 174:0.33727106 175:0.33727106 176:0.33727106 177:0.18470013 178:0.011972604 179:0.014400544 180:0.02767615 181:0.018967811 182:0.20807579 183:0.26762855 184:0.23112053 185:0.17236723 186:0.0084878681 187:0.0032699031 188:0.0041878941 189:0.0044396669 190:0.051456284 191:0.21164195 192:0.26762855 193:0.26762855 194:0.18528821 195:0.017908787 196:0.013250254 197:0.014259856 198:0.030272059 199:0.019103216 200:0.24011956 201:0.26762855 202:0.26762855 203:0.26762855 204:0.066698983 205:0.0065954728 206:0.0075937966 207:0.0066218283 208:0.093336619 209:0.26762855 210:0.26762855 211:0.25421423 212:0.26762855 213:0.063664548 214:0.023484256 215:0.026046513 216:0.034264594 217:0.015595094 218:0.050657604 219:0.18710725 220:0.18770412 221:0.25620583 222:0.25620583 223:0.24878685 224:0.11272737 225:0.014724919 226:0.015627829 227:0.0050712745 228:0.008853266 229:0.074334778 230:0.25620583 231:0.23399302 232:0.25620583 233:0.13997474 234:0.021692893 235:0.024356656 236:0.035352569 237:0.12386283 238:0.10319831 239:0.25620583 240:0.25620583 241:0.25620583 242:0.15807676 243:0.017770931 244:0.1154516 245:0.021179741 246:0.021281637 247:0.059537791 248:0.23708123 249:0.16793436 250:0.25620583 251:0.25620583 252:0.15093781 253:0.032143615 254:0.068689629 255:0.089201339 256:0.081453629 257:0.18955298 258:0.082765788 259:0.12644611 260:0.082481869 261:0.040458128 262:0.024197157 263:0.20435034 264:0.2645427 265:0.2645427 266:0.2645427 267:0.08541166 268:0.005971849 269:0.012280579 270:0.021358173 271:0.2645427 272:0.23738235 273:0.17184398 274:0.069584243 275:0.10675291 276:0.049330845 277:0.21253981 278:0.24621256 279:0.2645427 280:0.17850852 281:0.2645427 282:0.2645427 283:0.2645427 284:0.1914939 285:0.04394412 286:0.0047639837 287:0.024849454 288:0.13493048 289:0.013106698 290:0.13543068 291:0.27883109 292:0.23562022 293:0.25122085 294:0.053678837 295:0.0041005062 296:0.011121926 297:0.0097463643 298:0.026636943 299:0.2066503 300:0.27883109 301:0.2134067 302:0.27883109 303:0.062640838 304:0.013093817 305:0.010955047 306:0.012395144 307:0.026450152 308:0.24907602 309:0.27883109 310:0.23698342 311:0.19169801 312:0.030547205 313:0.0032597578 314:0.0088323932 315:0.014770572 316:0.016202886 317:0.24994421 318:0.27883109 319:0.23987435 320:0.27883109 321:0.099912293 322:0.087855786 323:0.046355411 324:0.011693948 
-0.076330247075469981 0.045392040862512494 0.0035879929199385931 1:0.21182102 2:0.067452237 3:0.081186704 4:0.033390831 5:0.013359099 6:0.017420625 7:0.0055139591 8:0.018192541 9:0.16643743 10:0.14446208 11:0.013989511 12:0.025259323 13:0.026940091 14:0.040017005 15:0.044318266 16:0.013228047 17:0.023625607 18:0.13689263 19:0.27592751 20:0.27592751 21:0.27592751 22:0.27592751 23:0.27592751 24:0.053193584 25:0.013953025 26:0.049223043 27:0.27592751 28:0.27592751 29:0.11579973 30:0.27592751 31:0.27592751 32:0.27592751 33:0.12436924 34:0.033070114 35:0.061844058 36:0.25593707 37:0.13105333 38:0.0083918618 39:0.034028269 40:0.08713942 41:0.22180589 42:0.1547278 43:0.044004843 44:0.043155007 45:0.19195352 46:0.0067682662 47:0.0044808523 48:0.0020057424 49:0.001055396 50:0.020829996 51:0 52:0 53:0 54:0.0059429435 55:0.32966802 56:0.12081107 57:0.32966802 58:0.32966802 59:0.32966802 60:0.32966802 61:0.11001211 62:0.10881117 63:0.32966802 64:0.064772129 65:0.095538542 66:0.11807611 67:0.140646 68:0.32966802 69:0.032357953 70:0 71:0.0020803865 72:0.094780087 73:0.0030802202 74:0.028513944 75:0.064931139 76:0.018209921 77:0.033657067 78:0.0041938461 79:0.00071596261 80:0.00094920909 81:0.0019198627 82:0.19524893 83:0.2794838 84:0.3097868 85:0.085387453 86:0.069549873 87:0.021662908 88:0.0032794662 89:0.011105452 90:0.18337604 91:0.011084298 92:0.14984538 93:0.3097868 94:0.24986838 95:0.25885469 96:0.016447157 97:0.0011158752 98:0.0017688973 99:0.023107568 100:0.22707909 101:0.3097868 102:0.3097868 103:0.3097868 104:0.3097868 105:0.050291743 106:0.019475315 107:0.017752616 108:0.21063301 109:0.087284751 110:0.16766094 111:0.37395799 112:0.3456772 113:0.37395799 114:0.019469373 115:0.0025880255 116:0.010905475 117:0.058235724 118:0.076099277 119:0.073337339 120:0.26669031 121:0.19037776 122:0.3205575 123:0.031573359 124:0.0060377587 125:0.013316398 126:0.051582098 127:0.016597055 128:0.028142313 129:0.15612265 130:0.13982703 131:0.37395799 132:0.010846479 133:0.0019962636 134:0.0047274651 135:0.017153572 136:0.003551227 137:0.014465995 138:0.069120519 139:0.045970187 140:0.37395799 141:0.004044835 142:0.00016991861 143:0.0011787626 144:0.0063706455 145:0.047496684 146:0.017110869 147:0.07219708 148:0.07153783 149:0.1506729 150:0.034892835 151:0.0059865606 152:0.0067460909 153:0.028801717 154:0.030778185 155:0.15463696 156:0.17721368 157:0.26677904 158:0.30919483 159:0.021898966 160:0.0017820777 161:0.00095053174 162:0.025339188 163:0.022581091 164:0.027077259 165:0.053034186 166:0.016926927 167:0.063424878 168:0.003112342 169:0.0035804182 170:0.0079672933 171:0.020154744 172:0.061166119 173:0.42336327 174:0.42336327 175:0.42336327 176:0.42336327 177:0.029950589 178:0.021240035 179:0.026363416 180:0.04807356 181:0.012242082 182:0.1312151 183:0.20907007 184:0.22570822 185:0.20795104 186:0.010722184 187:0.00062636397 188:0.00091779861 189:0.011819601 190:0.081285253 191:0.19521025 192:0.26909292 193:0.26909292 194:0.24681132 195:0.040163729 196:0.027631849 197:0.0146617 198:0.11480163 199:0.016645528 200:0.26909292 201:0.26909292 202:0.26909292 203:0.26909292 204:0.009295526 205:0.0019168765 206:0.0020890557 207:0.011255714 208:0.065857023 209:0.26909292 210:0.26909292 211:0.19938518 212:0.26909292 213:0.065435968 214:0.049643297 215:0.021445211 216:0.12997413 217:0.027741993 218:0.010832442 219:0.0054269033 220:0.043910392 221:0.33252069 222:0.0715141 223:0.022419604 224:0.021706831 225:0.024395008 226:0.047349505 227:0.010200243 228:0.012114602 229:0.0051343017 230:0.33252069 231:0.028510096 232:0.018200483 233:0.010964546 234:0.024901507 235:0.092584521 236:0.026410639 237:0.035508007 238:0.043593183 239:0.33252069 240:0.24624935 241:0.33176687 242:0.12821141 243:0.10297015 244:0.33252069 245:0.14532447 246:0.28208613 247:0.03768114 248:0.24800846 249:0.1013487 250:0.28215691 251:0.099551007 252:0.2585969 253:0.060651165 254:0.082956679 255:0.19147927 256:0.016062036 257:0.0099249305 258:0.0018841983 259:0.0071868845 260:0.0063046552 261:0.038819388 262:0.026964596 263:0.3112095 264:0.3112095 265:0.19533075 266:0.24712755 267:0.0059126872 268:0.011143803 269:0.013354956 270:0.020637307 271:0.3112095 272:0.25230452 273:0.3112095 274:0.048806977 275:0.012791042 276:0.0084034204 277:0.031989392 278:0.01012493 279:0.3112095 280:0.13026665 281:0.3112095 282:0.3112095 283:0.13933171 284:0.23498058 285:0.0093261926 286:0.012125487 287:0.0094189476 288:0.098540708 289:0.012133961 290:0.23023562 291:0.31847948 292:0.24950367 293:0.31847948 294:0.003645703 295:0.0029068904 296:0.0034876 297:0.011592173 298:0.012991786 299:0.19777197 300:0.31847948 301:0.13755323 302:0.31847948 303:0.023436183 304:0.014795843 305:0.0060060993 306:0.030873189 307:0.01013525 308:0.15624762 309:0.31847948 310:0.21999143 311:0.31847948 312:0.0062885899 313:0.0037133566 314:0.0059289173 315:0.01118324 316:0.0052765249 317:0.061468229 318:0.1208621 319:0.13997918 320:0.31847948 321:0.005881059 322:0.0013745303 323:0.0023767578 324:0.010041953 
